{"learner":{"attributes":{"best_iteration":"98","best_score":"0.5892298164648929"},"feature_names":["season_avg","tb_per_pa","rbi_per_pa","runs_per_pa","hr_rate","bb_rate","so_rate","recent5_target","recent15_target","batting_order","games_played","platoon_advantage","pitcher_is_R","is_home","expected_pa_v1","recent_xbh_avg"],"feature_types":[],"gradient_booster":{"model":{"cats":{"enc":[],"feature_segments":[],"sorted_idx":[]},"gbtree_model_param":{"num_parallel_tree":"1","num_trees":"139"},"iteration_indptr":[0,1,2,3,4,5,6,7,8,9,10,11,12,13,14,15,16,17,18,19,20,21,22,23,24,25,26,27,28,29,30,31,32,33,34,35,36,37,38,39,40,41,42,43,44,45,46,47,48,49,50,51,52,53,54,55,56,57,58,59,60,61,62,63,64,65,66,67,68,69,70,71,72,73,74,75,76,77,78,79,80,81,82,83,84,85,86,87,88,89,90,91,92,93,94,95,96,97,98,99,100,101,102,103,104,105,106,107,108,109,110,111,112,113,114,115,116,117,118,119,120,121,122,123,124,125,126,127,128,129,130,131,132,133,134,135,136,137,138,139],"tree_info":[0,0,0,0,0,0,0,0,0,0,0,0,0,0,0,0,0,0,0,0,0,0,0,0,0,0,0,0,0,0,0,0,0,0,0,0,0,0,0,0,0,0,0,0,0,0,0,0,0,0,0,0,0,0,0,0,0,0,0,0,0,0,0,0,0,0,0,0,0,0,0,0,0,0,0,0,0,0,0,0,0,0,0,0,0,0,0,0,0,0,0,0,0,0,0,0,0,0,0,0,0,0,0,0,0,0,0,0,0,0,0,0,0,0,0,0,0,0,0,0,0,0,0,0,0,0,0,0,0,0,0,0,0,0,0,0,0,0,0],"trees":[{"base_weights":[9.693875E-4,1.2852436E-1,-1.702255E-1,-1.1259302E-1,2.2263764E-1,-3.551349E-1,-1.396072E-1,-5.8805376E-1,-5.532333E-2,1.3857669E-1,3.240902E-1,-2.8391552E-1,-4.982076E-1,-1.7022622E-1,7.8075205E-4,-3.56209E-2,2.7523618E-4,-1.1401337E-2,2.0346974E-3,-1.04764E-3,8.793286E-3,1.5912087E-3,1.8005619E-2,-3.3398182E-3,-1.7633827E-2,-6.049445E-2,-2.201854E-2,1.5124987E-2,-8.872496E-3,9.338571E-4,-4.2910527E-2],"categories":[],"categories_nodes":[],"categories_segments":[],"categories_sizes":[],"default_left":[0,0,0,0,0,0,0,0,0,0,0,0,0,0,0,0,0,0,0,0,0,0,0,0,0,0,0,0,0,0,0],"id":0,"left_children":[1,3,5,7,9,11,13,15,17,19,21,23,25,27,29,-1,-1,-1,-1,-1,-1,-1,-1,-1,-1,-1,-1,-1,-1,-1,-1],"loss_changes":[1.9196529E2,1.14338295E2,2.1200699E1,3.8494686E1,3.0858032E1,5.2851715E0,1.3849285E1,1.1224316E1,2.0968012E1,1.1802387E1,1.7267242E1,5.3195744E0,6.6981163E0,9.08577E0,8.899502E0,0E0,0E0,0E0,0E0,0E0,0E0,0E0,0E0,0E0,0E0,0E0,0E0,0E0,0E0,0E0,0E0],"parents":[2147483647,0,0,1,1,2,2,3,3,4,4,5,5,6,6,7,7,8,8,9,9,10,10,11,11,12,12,13,13,14,14],"right_children":[2,4,6,8,10,12,14,16,18,20,22,24,26,28,30,-1,-1,-1,-1,-1,-1,-1,-1,-1,-1,-1,-1,-1,-1,-1,-1],"split_conditions":[6E0,2.6666668E-1,2.4570024E-3,1.25E-1,3.9119806E-2,9E0,4E-1,1.6666667E-1,1.875E-2,1.8518519E-2,5E-2,5.882353E-2,3.846154E-2,5.291005E-3,6.486486E-1,-3.56209E-2,2.7523618E-4,-1.1401337E-2,2.0346974E-3,-1.04764E-3,8.793286E-3,1.5912087E-3,1.8005619E-2,-3.3398182E-3,-1.7633827E-2,-6.049445E-2,-2.201854E-2,1.5124987E-2,-8.872496E-3,9.338571E-4,-4.2910527E-2],"split_indices":[9,15,4,8,4,9,15,15,4,4,5,3,3,4,1,0,0,0,0,0,0,0,0,0,0,0,0,0,0,0,0],"split_type":[0,0,0,0,0,0,0,0,0,0,0,0,0,0,0,0,0,0,0,0,0,0,0,0,0,0,0,0,0,0,0],"sum_hessian":[8.78892E3,5.036524E3,3.752396E3,1.413908E3,3.6226162E3,5.315673E2,3.2208289E3,1.5100186E2,1.262906E3,1.9824095E3,1.6402067E3,3.5689493E2,1.7467241E2,2.643961E3,5.768679E2,1.2467856E2,2.6323296E1,4.5076096E2,8.1214514E2,3.7566812E2,1.6067413E3,1.8018195E2,1.4600247E3,8.6315926E1,2.70579E2,1.1631224E1,1.630412E2,3.917886E1,2.604782E3,5.660529E2,1.0814998E1],"tree_param":{"num_deleted":"0","num_feature":"16","num_nodes":"31","size_leaf_vector":"1"}},{"base_weights":[-4.020774E-3,1.273843E-1,-1.8088266E-1,-7.180954E-2,2.1139576E-1,-2.7702972E-1,-1.07257314E-1,-3.0878696E-1,9.1189206E-2,1.3402347E-1,2.8209847E-1,-3.922522E-1,-1.6161084E-1,-1.6437845E-1,-3.329433E-2,-2.5185613E-2,-7.455133E-3,9.333522E-3,-8.980248E-3,2.7234666E-3,9.547411E-3,4.4583073E-3,1.6894167E-2,-1.8173752E-2,-3.6298275E-2,3.5971978E-3,-1.1297028E-2,-1.2149363E-2,-3.6855128E-3,-7.2006234E-3,1.3129365E-3],"categories":[],"categories_nodes":[],"categories_segments":[],"categories_sizes":[],"default_left":[0,0,0,0,0,0,0,0,0,0,0,0,0,0,0,0,0,0,0,0,0,0,0,0,0,0,0,0,0,0,0],"id":1,"left_children":[1,3,5,7,9,11,13,15,17,19,21,23,25,27,29,-1,-1,-1,-1,-1,-1,-1,-1,-1,-1,-1,-1,-1,-1,-1,-1],"loss_changes":[2.0385835E2,8.423324E1,2.643879E1,5.77229E1,1.932721E1,2.1492744E1,8.947777E0,1.8878342E1,2.2934498E1,7.652693E0,1.9867874E1,7.5190735E0,1.220808E1,8.50264E0,6.1009536E0,0E0,0E0,0E0,0E0,0E0,0E0,0E0,0E0,0E0,0E0,0E0,0E0,0E0,0E0,0E0,0E0],"parents":[2147483647,0,0,1,1,2,2,3,3,4,4,5,5,6,6,7,7,8,8,9,9,10,10,11,11,12,12,13,13,14,14],"right_children":[2,4,6,8,10,12,14,16,18,20,22,24,26,28,30,-1,-1,-1,-1,-1,-1,-1,-1,-1,-1,-1,-1,-1,-1,-1,-1],"split_conditions":[6E0,3.488372E-1,2.7272728E-1,2.7272728E-1,4.0350878E-1,1E0,3.5457E0,1E0,4.1571E0,1E0,3.5E1,1.5625E-1,7E0,1E0,4E1,-2.5185613E-2,-7.455133E-3,9.333522E-3,-8.980248E-3,2.7234666E-3,9.547411E-3,4.4583073E-3,1.6894167E-2,-1.8173752E-2,-3.6298275E-2,3.5971978E-3,-1.1297028E-2,-1.2149363E-2,-3.6855128E-3,-7.2006234E-3,1.3129365E-3],"split_indices":[9,1,8,8,1,11,14,11,14,11,10,3,9,11,10,0,0,0,0,0,0,0,0,0,0,0,0,0,0,0,0],"split_type":[0,0,0,0,0,0,0,0,0,0,0,0,0,0,0,0,0,0,0,0,0,0,0,0,0,0,0,0,0,0,0],"sum_hessian":[8.769674E3,5.031582E3,3.7380916E3,1.4926368E3,3.538945E3,1.6199033E3,2.1181882E3,6.079166E2,8.847203E2,1.6911547E3,1.8477904E3,8.0944116E2,8.104622E2,1.194478E3,9.2371014E2,2.7278088E2,3.3513574E2,6.543197E2,2.3040054E2,7.061895E2,9.849651E2,4.1502444E2,1.4327659E3,7.4710504E2,6.2336113E1,1.7499802E2,6.3546423E2,6.3888696E2,5.555911E2,3.2257547E2,6.011347E2],"tree_param":{"num_deleted":"0","num_feature":"16","num_nodes":"31","size_leaf_vector":"1"}},{"base_weights":[-3.3160965E-3,-1.7439556E-1,9.757237E-2,-2.4457937E-1,-1.0135183E-1,-7.4768424E-2,1.9957614E-1,-3.4722033E-1,-1.6400279E-1,-1.6078898E-1,-3.461998E-2,-2.8719765E-1,5.9599686E-2,2.106206E-1,-3.212964E-1,-1.5452206E-2,-3.5692304E-2,-1.1798057E-2,-5.748931E-4,-1.4480755E-2,-6.510331E-3,3.8608206E-3,-6.531036E-3,-1.7315006E-2,1.9953144E-3,6.1808177E-3,-8.038065E-3,7.7302055E-3,1.5017747E-2,-2.2707976E-2,-2.5416978E-4],"categories":[],"categories_nodes":[],"categories_segments":[],"categories_sizes":[],"default_left":[0,0,0,0,0,0,0,0,0,0,0,0,0,0,0,0,0,0,0,0,0,0,0,0,0,0,0,0,0,0,0],"id":2,"left_children":[1,3,5,7,9,11,13,15,17,19,21,23,25,27,29,-1,-1,-1,-1,-1,-1,-1,-1,-1,-1,-1,-1,-1,-1,-1,-1],"loss_changes":[1.511872E2,1.6633049E1,9.6878784E1,1.3642372E1,6.316595E0,5.851524E1,1.998172E1,9.962799E0,1.0201372E1,3.2826767E0,8.085672E0,1.536837E1,1.7740707E1,1.6995651E1,3.0340614E0,0E0,0E0,0E0,0E0,0E0,0E0,0E0,0E0,0E0,0E0,0E0,0E0,0E0,0E0,0E0,0E0],"parents":[2147483647,0,0,1,1,2,2,3,3,4,4,5,5,6,6,7,7,8,8,9,9,10,10,11,11,12,12,13,13,14,14],"right_children":[2,4,6,8,10,12,14,16,18,20,22,24,26,28,30,-1,-1,-1,-1,-1,-1,-1,-1,-1,-1,-1,-1,-1,-1,-1,-1],"split_conditions":[3.6561E0,1E0,3.576159E-1,3E-1,1.04477614E-1,2.7272728E-1,3.3333334E-1,1.5189873E-1,3.5457E0,4.8214287E-2,1.12068966E-1,1.21212125E-1,4.1571E0,2.3595506E-1,6.923077E-1,-1.5452206E-2,-3.5692304E-2,-1.1798057E-2,-5.748931E-4,-1.4480755E-2,-6.510331E-3,3.8608206E-3,-6.531036E-3,-1.7315006E-2,1.9953144E-3,6.1808177E-3,-8.038065E-3,7.7302055E-3,1.5017747E-2,-2.2707976E-2,-2.5416978E-4],"split_indices":[14,11,1,8,2,8,6,3,14,5,3,5,14,6,8,0,0,0,0,0,0,0,0,0,0,0,0,0,0,0,0],"split_type":[0,0,0,0,0,0,0,0,0,0,0,0,0,0,0,0,0,0,0,0,0,0,0,0,0,0,0,0,0,0,0],"sum_hessian":[8.757439E3,3.2483652E3,5.509074E3,1.655416E3,1.5929492E3,2.0484224E3,3.4606519E3,7.2657416E2,9.288418E2,8.4177875E2,7.511705E2,7.932293E2,1.255193E3,3.38938E3,7.127204E1,6.5972125E2,6.685289E1,6.3070233E2,2.981395E2,1.5986952E2,6.8190924E2,3.470588E2,4.0411166E2,6.7178906E2,1.2144025E2,9.7297485E2,2.822181E2,2.0884138E3,1.3009661E3,4.98784E1,2.1393644E1],"tree_param":{"num_deleted":"0","num_feature":"16","num_nodes":"31","size_leaf_vector":"1"}},{"base_weights":[1.8875054E-3,-1.2314729E-1,1.3761076E-1,-2.5701514E-1,-4.3281026E-2,2.1038802E-1,-6.538009E-2,-4.1790748E-1,-1.211263E-1,6.488922E-2,-1.4776962E-1,6.968974E-2,2.6392728E-1,1.1868006E-2,-1.9341959E-1,-1.7548932E-2,-3.5991054E-2,-2.0823332E-2,-3.2667995E-3,-2.4208182E-3,6.5558753E-3,-6.692961E-3,-2.6316851E-2,-7.6946095E-3,7.373888E-3,8.426527E-3,1.696124E-2,-4.71571E-3,7.950662E-3,-8.919397E-4,-1.3764137E-2],"categories":[],"categories_nodes":[],"categories_segments":[],"categories_sizes":[],"default_left":[0,0,0,0,0,0,0,0,0,0,0,0,0,0,0,0,0,0,0,0,0,0,0,0,0,0,0,0,0,0,0],"id":3,"left_children":[1,3,5,7,9,11,13,15,17,19,21,23,25,27,29,-1,-1,-1,-1,-1,-1,-1,-1,-1,-1,-1,-1,-1,-1,-1,-1],"loss_changes":[1.4938713E2,4.8976357E1,6.237181E1,3.7377884E1,3.2458977E1,2.3388687E1,1.102787E1,1.55780945E1,1.5287984E1,1.0597029E1,7.621338E0,1.4942501E1,1.6108246E1,1.0892689E1,6.0251245E0,0E0,0E0,0E0,0E0,0E0,0E0,0E0,0E0,0E0,0E0,0E0,0E0,0E0,0E0,0E0,0E0],"parents":[2147483647,0,0,1,1,2,2,3,3,4,4,5,5,6,6,7,7,8,8,9,9,10,10,11,11,12,12,13,13,14,14],"right_children":[2,4,6,8,10,12,14,16,18,20,22,24,26,28,30,-1,-1,-1,-1,-1,-1,-1,-1,-1,-1,-1,-1,-1,-1,-1,-1],"split_conditions":[3.6401674E-1,1.6666667E-1,6E0,1E0,6E0,3.3333334E-1,8E0,1.3253012E-1,4.8214287E-2,3E0,3.7037036E-1,4.8E1,1.3157895E-1,6.9E1,2.4561404E-1,-1.7548932E-2,-3.5991054E-2,-2.0823332E-2,-3.2667995E-3,-2.4208182E-3,6.5558753E-3,-6.692961E-3,-2.6316851E-2,-7.6946095E-3,7.373888E-3,8.426527E-3,1.696124E-2,-4.71571E-3,7.950662E-3,-8.919397E-4,-1.3764137E-2],"split_indices":[1,15,9,11,9,15,9,3,5,9,6,10,2,10,0,0,0,0,0,0,0,0,0,0,0,0,0,0,0,0,0],"split_type":[0,0,0,0,0,0,0,0,0,0,0,0,0,0,0,0,0,0,0,0,0,0,0,0,0,0,0,0,0,0,0],"sum_hessian":[8.800947E3,4.5808975E3,4.2200503E3,1.7109202E3,2.8699773E3,3.1063208E3,1.1137295E3,7.8243823E2,9.284819E2,1.4103317E3,1.4596456E3,8.5685474E2,2.249466E3,6.9520776E2,4.1852167E2,6.4222986E2,1.4020834E2,1.464971E2,7.819848E2,5.2035675E2,8.899749E2,1.4092178E3,5.0427906E1,2.2091428E2,6.359405E2,9.937241E2,1.2557418E3,4.0401996E2,2.911878E2,1.3347063E2,2.8505106E2],"tree_param":{"num_deleted":"0","num_feature":"16","num_nodes":"31","size_leaf_vector":"1"}},{"base_weights":[8.614473E-3,-1.4193878E-1,1.0710648E-1,-2.3841766E-1,-5.8605224E-2,-8.035612E-2,1.7368682E-1,-3.3669162E-1,-9.739861E-2,-1.5313901E-1,2.4095085E-2,-9.939671E-2,3.8148895E-1,6.6991806E-2,2.4177754E-1,-1.3594957E-2,-3.1043379E-2,-9.723573E-3,1.7148962E-2,-5.123994E-3,-2.5425924E-2,-2.2359805E-3,1.0328906E-2,-3.6421164E-3,-1.9263057E-2,4.3073585E-3,3.687789E-2,-5.7920734E-3,5.396115E-3,-5.500584E-4,1.344795E-2],"categories":[],"categories_nodes":[],"categories_segments":[],"categories_sizes":[],"default_left":[0,0,0,0,0,0,0,0,0,0,0,0,0,0,0,0,0,0,0,0,0,0,0,0,0,0,0,0,0,0,0],"id":4,"left_children":[1,3,5,7,9,11,13,15,17,19,21,23,25,27,29,-1,-1,-1,-1,-1,-1,-1,-1,-1,-1,-1,-1,-1,-1,-1,-1],"loss_changes":[1.3053464E2,2.7976654E1,6.643461E1,2.2322945E1,1.4617899E1,1.2308662E1,2.8514793E1,1.73275E1,2.8447582E1,1.5653637E1,1.2540669E1,1.0150862E1,5.768404E0,1.1471892E1,1.647194E1,0E0,0E0,0E0,0E0,0E0,0E0,0E0,0E0,0E0,0E0,0E0,0E0,0E0,0E0,0E0,0E0],"parents":[2147483647,0,0,1,1,2,2,3,3,4,4,5,5,6,6,7,7,8,8,9,9,10,10,11,11,12,12,13,13,14,14],"right_children":[2,4,6,8,10,12,14,16,18,20,22,24,26,28,30,-1,-1,-1,-1,-1,-1,-1,-1,-1,-1,-1,-1,-1,-1,-1,-1],"split_conditions":[2.6666668E-1,1E0,3.6561E0,2E-1,9.52381E-2,1.55E2,1.1811024E-1,1.3546798E-1,1.14E2,1.4150943E-1,1.01E2,1.24E2,3.5457E0,8.3333336E-2,4.605263E-2,-1.3594957E-2,-3.1043379E-2,-9.723573E-3,1.7148962E-2,-5.123994E-3,-2.5425924E-2,-2.2359805E-3,1.0328906E-2,-3.6421164E-3,-1.9263057E-2,4.3073585E-3,3.687789E-2,-5.7920734E-3,5.396115E-3,-5.500584E-4,1.344795E-2],"split_indices":[15,11,14,15,2,10,2,3,10,3,10,10,14,2,5,0,0,0,0,0,0,0,0,0,0,0,0,0,0,0,0],"split_type":[0,0,0,0,0,0,0,0,0,0,0,0,0,0,0,0,0,0,0,0,0,0,0,0,0,0,0,0,0,0,0],"sum_hessian":[8.801055E3,3.480452E3,5.3206025E3,1.612143E3,1.8683091E3,1.3943854E3,3.926217E3,9.49243E2,6.6289996E2,8.713859E2,9.969231E2,1.3399286E3,5.4456757E1,1.5302966E3,2.3959204E3,7.7459186E2,1.7465112E2,5.4362634E2,1.1927361E2,7.6379565E2,1.0759027E2,7.2447656E2,2.7244653E2,1.2271881E3,1.12740555E2,3.0445572E1,2.4011187E1,2.7958453E2,1.2507122E3,2.3267874E2,2.1632417E3],"tree_param":{"num_deleted":"0","num_feature":"16","num_nodes":"31","size_leaf_vector":"1"}},{"base_weights":[-2.5458683E-3,9.823329E-2,-1.4173567E-1,-2.205061E-1,1.5085092E-1,-2.0170498E-1,-4.7330014E-2,-4.0716305E-1,-7.56254E-2,1.1674317E-1,2.8474572E-1,-1.2836592E-1,-2.5017494E-1,-1.5735371E-1,4.010304E-2,-1.664801E-2,-5.2301496E-2,-1.3225946E-2,2.14889E-3,9.373805E-3,1.7658275E-3,9.1110105E-3,2.5387907E-2,-5.9321994E-4,-1.1728343E-2,-1.3743675E-2,-4.076465E-3,-1.0913006E-2,4.2130323E-3,-1.8080743E-2,2.9609192E-3],"categories":[],"categories_nodes":[],"categories_segments":[],"categories_sizes":[],"default_left":[0,0,0,0,0,0,0,0,0,0,0,0,0,0,0,0,0,0,0,0,0,0,0,0,0,0,0,0,0,0,0],"id":5,"left_children":[1,3,5,7,9,11,13,15,17,19,21,23,25,27,29,-1,-1,-1,-1,-1,-1,-1,-1,-1,-1,-1,-1,-1,-1,-1,-1],"loss_changes":[1.2273954E2,8.515234E1,2.079451E1,1.9427265E1,1.9863419E1,7.9550247E0,1.3750923E1,1.4546646E1,9.114362E0,2.0001709E1,2.0115326E1,1.1084695E1,5.6080933E0,9.331598E0,6.1410093E0,0E0,0E0,0E0,0E0,0E0,0E0,0E0,0E0,0E0,0E0,0E0,0E0,0E0,0E0,0E0,0E0],"parents":[2147483647,0,0,1,1,2,2,3,3,4,4,5,5,6,6,7,7,8,8,9,9,10,10,11,11,12,12,13,13,14,14],"right_children":[2,4,6,8,10,12,14,16,18,20,22,24,26,28,30,-1,-1,-1,-1,-1,-1,-1,-1,-1,-1,-1,-1,-1,-1,-1,-1],"split_conditions":[6E0,1.6666667E-1,3.5457E0,1E0,1.2033195E-1,6.271777E-2,1.04166664E-1,3.1941923E-1,8.717949E-2,4.022E0,8E-1,2.3979592E-1,3.5714287E-1,1.0493827E-1,2.6455026E-2,-1.664801E-2,-5.2301496E-2,-1.3225946E-2,2.14889E-3,9.373805E-3,1.7658275E-3,9.1110105E-3,2.5387907E-2,-5.9321994E-4,-1.1728343E-2,-1.3743675E-2,-4.076465E-3,-1.0913006E-2,4.2130323E-3,-1.8080743E-2,2.9609192E-3],"split_indices":[9,15,14,11,5,5,2,6,2,14,7,0,15,5,5,0,0,0,0,0,0,0,0,0,0,0,0,0,0,0,0],"split_type":[0,0,0,0,0,0,0,0,0,0,0,0,0,0,0,0,0,0,0,0,0,0,0,0,0,0,0,0,0,0,0],"sum_hessian":[8.747973E3,5.0742793E3,3.6736934E3,7.185232E2,4.3557563E3,2.2458962E3,1.4277971E3,3.132008E2,4.053224E2,3.4729458E3,8.828103E2,8.951337E2,1.3507625E3,6.318687E2,7.9592847E2,2.8197165E2,3.1229164E1,1.5586058E2,2.4946182E2,1.8578146E3,1.6151313E3,6.060212E2,2.7678912E2,4.2739584E2,4.6773788E2,1.1776613E3,1.7310118E2,5.04732E2,1.2713668E2,3.533929E1,7.605892E2],"tree_param":{"num_deleted":"0","num_feature":"16","num_nodes":"31","size_leaf_vector":"1"}},{"base_weights":[2.6939255E-3,-1.7404112E-1,7.4540496E-2,-1.3537952E-1,-3.9890972E-1,-1.4232455E-1,1.2547255E-1,-2.65383E-1,-7.754311E-2,-6.187718E-1,-2.1019343E-1,-2.2608885E-1,-3.9501477E-2,5.2758895E-2,1.7451426E-1,-5.5870744E-3,-1.7459642E-2,-4.440233E-3,2.0760601E-2,-3.789745E-2,-1.3625972E-2,-2.8857026E-2,-6.56776E-3,-1.0158129E-2,-3.8858593E-2,-2.903448E-3,5.500372E-2,-2.226854E-2,3.159585E-3,2.7367685E-3,1.024997E-2],"categories":[],"categories_nodes":[],"categories_segments":[],"categories_sizes":[],"default_left":[0,0,0,0,0,0,0,0,0,0,0,0,0,0,0,0,0,0,0,0,0,0,0,0,0,0,0,0,0,0,0],"id":6,"left_children":[1,3,5,7,9,11,13,15,17,19,21,23,25,27,29,-1,-1,-1,-1,-1,-1,-1,-1,-1,-1,-1,-1,-1,-1,-1,-1],"loss_changes":[1.1139426E2,2.1989487E1,6.890951E1,1.6258522E1,1.5282715E1,1.0212042E1,1.8004242E1,8.539692E0,8.359873E0,8.036942E0,5.7507772E0,8.101746E0,1.1361899E1,1.060952E1,1.1002884E1,0E0,0E0,0E0,0E0,0E0,0E0,0E0,0E0,0E0,0E0,0E0,0E0,0E0,0E0,0E0,0E0],"parents":[2147483647,0,0,1,1,2,2,3,3,4,4,5,5,6,6,7,7,8,8,9,9,10,10,11,11,12,12,13,13,14,14],"right_children":[2,4,6,8,10,12,14,16,18,20,22,24,26,28,30,-1,-1,-1,-1,-1,-1,-1,-1,-1,-1,-1,-1,-1,-1,-1,-1],"split_conditions":[1.923077E-2,1.3546798E-1,3.5457E0,3.3670033E-3,1.6666667E-1,1E0,3.3333334E-1,1.4E1,3.9814815E-1,9.917355E-2,2.3554604E-1,3.1428573E-1,5.584416E-1,1.4285715E-1,3.8319E0,-5.5870744E-3,-1.7459642E-2,-4.440233E-3,2.0760601E-2,-3.789745E-2,-1.3625972E-2,-2.8857026E-2,-6.56776E-3,-1.0158129E-2,-3.8858593E-2,-2.903448E-3,5.500372E-2,-2.226854E-2,3.159585E-3,2.7367685E-3,1.024997E-2],"split_indices":[4,3,14,4,15,11,15,10,1,5,0,0,1,0,14,0,0,0,0,0,0,0,0,0,0,0,0,0,0,0,0],"split_type":[0,0,0,0,0,0,0,0,0,0,0,0,0,0,0,0,0,0,0,0,0,0,0,0,0,0,0,0,0,0,0],"sum_hessian":[8.770694E3,2.534548E3,6.236146E3,2.1640806E3,3.7046774E2,1.1857048E3,5.0504414E3,6.652214E2,1.4988591E3,1.7006097E2,2.0040675E2,6.527481E2,5.329567E2,2.0350984E3,3.015343E3,2.3561723E2,4.2960416E2,1.4661707E3,3.2688465E1,1.204548E2,4.9606174E1,3.4324623E1,1.6608214E2,6.279909E2,2.4757156E1,5.253461E2,7.6105914E0,4.0893383E1,1.994205E3,6.123109E2,2.403032E3],"tree_param":{"num_deleted":"0","num_feature":"16","num_nodes":"31","size_leaf_vector":"1"}},{"base_weights":[2.0833359E-5,-1.594276E-1,8.0095634E-2,-3.032962E-1,-1.06841095E-1,-1.6828217E-1,1.3395995E-1,-2.4259052E-1,-5.429541E-1,3.379518E-1,-1.16824545E-1,-2.4852209E-1,-7.020694E-2,1.335044E-2,1.7326258E-1,-1.7317971E-2,-7.6586576E-3,-2.4905682E-2,-5.5809118E-2,3.0345917E-2,-1.9300004E-2,-9.3573E-3,-3.0441554E-3,-1.570801E-2,-3.8976118E-3,-5.472151E-3,2.1412035E-2,-4.979637E-3,4.9914066E-3,2.4536846E-3,1.21790925E-2],"categories":[],"categories_nodes":[],"categories_segments":[],"categories_sizes":[],"default_left":[0,0,0,0,0,0,0,0,0,0,0,0,0,0,0,0,0,0,0,0,0,0,0,0,0,0,0,0,0,0,0],"id":7,"left_children":[1,3,5,7,9,11,13,15,17,19,21,23,25,27,29,-1,-1,-1,-1,-1,-1,-1,-1,-1,-1,-1,-1,-1,-1,-1,-1],"loss_changes":[1.11610085E2,2.207695E1,7.787525E1,1.1241035E1,9.54969E0,8.147276E0,2.266874E1,5.751049E0,3.484169E0,9.43895E0,8.23163E0,6.359928E0,9.204716E0,1.1501336E1,3.1488388E1,0E0,0E0,0E0,0E0,0E0,0E0,0E0,0E0,0E0,0E0,0E0,0E0,0E0,0E0,0E0,0E0],"parents":[2147483647,0,0,1,1,2,2,3,3,4,4,5,5,6,6,7,7,8,8,9,9,10,10,11,11,12,12,13,13,14,14],"right_children":[2,4,6,8,10,12,14,16,18,20,22,24,26,28,30,-1,-1,-1,-1,-1,-1,-1,-1,-1,-1,-1,-1,-1,-1,-1,-1],"split_conditions":[2.1621622E-2,3.0959751E-3,3.5457E0,3.7E1,5.235602E-3,1E0,4E1,1E0,1.5135135E-1,3.9668E0,2.7272728E-1,5.3333336E-1,2.849741E-1,1E0,1.18421055E-1,-1.7317971E-2,-7.6586576E-3,-2.4905682E-2,-5.5809118E-2,3.0345917E-2,-1.9300004E-2,-9.3573E-3,-3.0441554E-3,-1.570801E-2,-3.8976118E-3,-5.472151E-3,2.1412035E-2,-4.979637E-3,4.9914066E-3,2.4536846E-3,1.21790925E-2],"split_indices":[4,4,14,10,4,11,10,11,3,14,8,8,0,11,2,0,0,0,0,0,0,0,0,0,0,0,0,0,0,0,0],"split_type":[0,0,0,0,0,0,0,0,0,0,0,0,0,0,0,0,0,0,0,0,0,0,0,0,0,0,0,0,0,0,0],"sum_hessian":[8.739527E3,2.9213723E3,5.818155E3,7.807078E2,2.1406646E3,1.0365083E3,4.7816465E3,6.245266E2,1.5618123E2,4.627165E1,2.0943928E3,5.692469E2,4.672614E2,1.1755453E3,3.606101E3,2.8773572E2,3.3679086E2,1.4658377E2,9.597472E0,3.385523E1,1.2416419E1,9.268927E2,1.1675002E3,4.1045514E2,1.5879176E2,4.338877E2,3.337371E1,5.0970258E2,6.658427E2,1.3043038E3,2.301797E3],"tree_param":{"num_deleted":"0","num_feature":"16","num_nodes":"31","size_leaf_vector":"1"}},{"base_weights":[1.3747937E-3,-1.4275153E-1,9.3283825E-2,-2.3851006E-1,-6.2270973E-2,-2.4499869E-2,1.6188775E-1,-4.0500632E-1,-1.6320021E-1,-1.2688641E-1,2.8904818E-2,2.7591655E-2,-1.3105865E-1,8.055346E-2,2.2706744E-1,-3.185042E-3,-2.2707893E-2,-5.679398E-3,-2.3937745E-2,-3.29875E-3,-1.3649787E-2,-2.713948E-2,2.2823848E-3,-1.2103579E-3,6.421911E-3,-7.125965E-3,3.2281473E-2,1.8518092E-3,1.664815E-2,-1.9114709E-3,1.2489304E-2],"categories":[],"categories_nodes":[],"categories_segments":[],"categories_sizes":[],"default_left":[0,0,0,0,0,0,0,0,0,0,0,0,0,0,0,0,0,0,0,0,0,0,0,0,0,0,0,0,0,0,0],"id":8,"left_children":[1,3,5,7,9,11,13,15,17,19,21,23,25,27,29,-1,-1,-1,-1,-1,-1,-1,-1,-1,-1,-1,-1,-1,-1,-1,-1],"loss_changes":[1.1581811E2,2.6222801E1,4.3143417E1,1.94235E1,1.0909661E1,1.0916024E1,1.7867645E1,8.08078E0,1.6726965E1,9.62554E0,7.3817167E0,6.9049535E0,5.839305E0,1.6491104E1,1.1294685E1,0E0,0E0,0E0,0E0,0E0,0E0,0E0,0E0,0E0,0E0,0E0,0E0,0E0,0E0,0E0,0E0],"parents":[2147483647,0,0,1,1,2,2,3,3,4,4,5,5,6,6,7,7,8,8,9,9,10,10,11,11,12,12,13,13,14,14],"right_children":[2,4,6,8,10,12,14,16,18,20,22,24,26,28,30,-1,-1,-1,-1,-1,-1,-1,-1,-1,-1,-1,-1,-1,-1,-1,-1],"split_conditions":[2.6666668E-1,1E0,3.8319E0,1.1904762E-2,2.3529412E-2,8E0,3E0,1.1E1,3.0555555E-1,1.1949685E-1,1.4285715E-1,2.6086956E-1,1.590909E-1,1.6695958E-1,4.5454547E-2,-3.185042E-3,-2.2707893E-2,-5.679398E-3,-2.3937745E-2,-3.29875E-3,-1.3649787E-2,-2.713948E-2,2.2823848E-3,-1.2103579E-3,6.421911E-3,-7.125965E-3,3.2281473E-2,1.8518092E-3,1.664815E-2,-1.9114709E-3,1.2489304E-2],"split_indices":[15,11,14,4,4,9,9,10,6,3,0,0,5,3,5,0,0,0,0,0,0,0,0,0,0,0,0,0,0,0,0],"split_type":[0,0,0,0,0,0,0,0,0,0,0,0,0,0,0,0,0,0,0,0,0,0,0,0,0,0,0,0,0,0,0],"sum_hessian":[8.741286E3,3.4035251E3,5.337761E3,1.5533422E3,1.8501831E3,1.9649131E3,3.372848E3,4.8242065E2,1.0709215E3,1.0825782E3,7.6760486E2,1.3202478E3,6.4466534E2,1.5014739E3,1.8713741E3,6.101709E1,4.2140356E2,9.265993E2,1.4432217E2,7.650773E2,3.1750098E2,2.0946783E1,7.466581E2,8.727359E2,4.4751193E2,6.360957E2,8.569587E0,1.2816539E3,2.1981992E2,1.4756E2,1.7238141E3],"tree_param":{"num_deleted":"0","num_feature":"16","num_nodes":"31","size_leaf_vector":"1"}},{"base_weights":[-3.5934008E-3,-1.3313615E-1,7.8898944E-2,-2.3482262E-1,-4.7320303E-2,1.3518281E-1,-4.8412476E-2,-4.7800332E-1,-1.8093665E-1,-1.4389275E-1,3.5551712E-2,6.313918E-2,1.9084463E-1,-5.2383117E-2,4.774657E-2,-1.0683036E-2,-2.9964004E-2,-1.4479647E-2,-5.452028E-3,-3.7448034E-3,-1.9045357E-2,-6.779569E-4,1.1894937E-2,-1.1518799E-2,5.3632E-3,1.2625662E-2,5.6294636E-3,-2.8164755E-3,4.620069E-2],"categories":[],"categories_nodes":[],"categories_segments":[],"categories_sizes":[],"default_left":[0,0,0,0,0,0,0,0,0,0,0,0,0,0,0,0,0,0,0,0,0,0,0,0,0,0,0,0,0],"id":9,"left_children":[1,3,5,7,9,11,13,15,17,19,21,23,25,27,-1,-1,-1,-1,-1,-1,-1,-1,-1,-1,-1,-1,-1,-1,-1],"loss_changes":[9.371682E1,2.9762127E1,3.8399338E1,2.037281E1,1.4823708E1,1.4888008E1,6.5967712E0,8.931732E0,9.965378E0,1.3958551E1,9.913657E0,2.1018795E1,1.0084961E1,6.3627605E0,0E0,0E0,0E0,0E0,0E0,0E0,0E0,0E0,0E0,0E0,0E0,0E0,0E0,0E0,0E0],"parents":[2147483647,0,0,1,1,2,2,3,3,4,4,5,5,6,6,7,7,8,8,9,9,10,10,11,11,12,12,13,13],"right_children":[2,4,6,8,10,12,14,16,18,20,22,24,26,28,-1,-1,-1,-1,-1,-1,-1,-1,-1,-1,-1,-1,-1,-1,-1],"split_conditions":[2.6666668E-1,1E0,6E0,3.3670033E-3,9.52381E-2,1E0,1.91E2,1.3E1,3.5457E0,1.2776412E-1,1.16E2,9.4527364E-2,4.1035E0,2E0,4.774657E-2,-1.0683036E-2,-2.9964004E-2,-1.4479647E-2,-5.452028E-3,-3.7448034E-3,-1.9045357E-2,-6.779569E-4,1.1894937E-2,-1.1518799E-2,5.3632E-3,1.2625662E-2,5.6294636E-3,-2.8164755E-3,4.620069E-2],"split_indices":[15,11,9,4,2,11,10,10,14,3,10,2,14,7,0,0,0,0,0,0,0,0,0,0,0,0,0,0,0],"split_type":[0,0,0,0,0,0,0,0,0,0,0,0,0,0,0,0,0,0,0,0,0,0,0,0,0,0,0,0,0],"sum_hessian":[8.767839E3,3.4108928E3,5.356947E3,1.5602988E3,1.850594E3,3.7146519E3,1.6422948E3,2.816004E2,1.2786984E3,8.543113E2,9.962828E2,1.6200016E3,2.0946501E3,1.6367653E3,5.529553E0,8.943152E1,1.921689E2,5.079729E2,7.7072546E2,6.6270795E2,1.9160335E2,8.02455E2,1.9382771E2,2.1115991E2,1.4088417E3,1.170231E3,9.2441925E2,1.6311149E3,5.6503167E0],"tree_param":{"num_deleted":"0","num_feature":"16","num_nodes":"29","size_leaf_vector":"1"}},{"base_weights":[6.4319777E-3,-1.2597527E-1,9.050916E-2,-2.4375628E-1,-6.1280947E-2,1.4961812E-2,1.5011093E-1,-1.809313E-1,-4.3591794E-1,-3.69881E-2,-3.703903E-1,-6.275123E-2,8.646259E-2,-1.50654465E-2,2.1323134E-1,-1.4127296E-2,-4.8663756E-3,-6.520876E-3,-2.8250365E-2,-4.172569E-3,2.5838455E-3,-1.1176371E-2,-5.175813E-2,-2.0673613E-3,-2.2049049E-2,2.6487343E-3,2.013582E-2,1.7329594E-4,-4.1510183E-2,8.570763E-3,1.8303528E-2],"categories":[],"categories_nodes":[],"categories_segments":[],"categories_sizes":[],"default_left":[0,0,0,0,0,0,0,0,0,0,0,0,0,0,0,0,0,0,0,0,0,0,0,0,0,0,0,0,0,0,0],"id":10,"left_children":[1,3,5,7,9,11,13,15,17,19,21,23,25,27,29,-1,-1,-1,-1,-1,-1,-1,-1,-1,-1,-1,-1,-1,-1,-1,-1],"loss_changes":[9.743027E1,2.5885048E1,2.4100357E1,1.4465614E1,1.647112E1,1.3128646E1,3.1198807E1,7.7001495E0,1.1604534E1,8.393821E0,1.5374453E1,9.148414E0,1.3010118E1,1.2513363E1,1.3773384E1,0E0,0E0,0E0,0E0,0E0,0E0,0E0,0E0,0E0,0E0,0E0,0E0,0E0,0E0,0E0,0E0],"parents":[2147483647,0,0,1,1,2,2,3,3,4,4,5,5,6,6,7,7,8,8,9,9,10,10,11,11,12,12,13,13,14,14],"right_children":[2,4,6,8,10,12,14,16,18,20,22,24,26,28,30,-1,-1,-1,-1,-1,-1,-1,-1,-1,-1,-1,-1,-1,-1,-1,-1],"split_conditions":[2.6666668E-1,1.4184397E-2,1.1875E-1,1.2280702E-1,3.298969E-1,1E0,4E1,1E0,1.632653E-1,3.181818E-2,1.4314115E-1,1.632653E-1,1.3255814E-1,3.943662E-1,1.4545454E-1,-1.4127296E-2,-4.8663756E-3,-6.520876E-3,-2.8250365E-2,-4.172569E-3,2.5838455E-3,-1.1176371E-2,-5.175813E-2,-2.0673613E-3,-2.2049049E-2,2.6487343E-3,2.013582E-2,1.7329594E-4,-4.1510183E-2,8.570763E-3,1.8303528E-2],"split_indices":[15,4,2,3,6,11,10,11,6,4,3,3,5,6,3,0,0,0,0,0,0,0,0,0,0,0,0,0,0,0,0],"split_type":[0,0,0,0,0,0,0,0,0,0,0,0,0,0,0,0,0,0,0,0,0,0,0,0,0,0,0,0,0,0,0],"sum_hessian":[8.74991E3,3.3980547E3,5.3518555E3,1.2037557E3,2.1942988E3,2.36076E3,2.9910955E3,9.086311E2,2.9512466E2,2.0354526E3,1.5884619E2,1.1312954E3,1.2294645E3,8.272005E2,2.1638948E3,4.090633E2,4.995678E2,8.8260124E1,2.0686453E2,1.3356095E3,6.998431E2,1.3119792E2,2.7648273E1,1.0717543E3,5.954122E1,1.1127985E3,1.1666596E2,8.097865E2,1.7413952E1,1.7007101E3,4.6318475E2],"tree_param":{"num_deleted":"0","num_feature":"16","num_nodes":"31","size_leaf_vector":"1"}},{"base_weights":[-1.1838973E-2,-1.3102056E-1,6.273876E-2,-2.0986494E-1,-2.792483E-2,-8.027595E-2,1.1136036E-1,-3.0456218E-1,-1.2692055E-1,-1.2964801E-1,3.9490838E-2,-7.865058E-3,-1.4122489E-1,5.1602382E-2,1.5664297E-1,-1.8844353E-2,-7.81856E-3,-1.4777345E-2,-4.028618E-3,-8.666481E-4,-1.4550743E-2,-1.458403E-2,3.5744633E-3,-8.030994E-3,3.3318244E-3,-3.432398E-3,-1.3267018E-2,3.745889E-3,-2.980102E-3,6.750934E-3,1.7128913E-2],"categories":[],"categories_nodes":[],"categories_segments":[],"categories_sizes":[],"default_left":[0,0,0,0,0,0,0,0,0,0,0,0,0,0,0,0,0,0,0,0,0,0,0,0,0,0,0,0,0,0,0],"id":11,"left_children":[1,3,5,7,9,11,13,15,17,19,21,23,25,27,29,-1,-1,-1,-1,-1,-1,-1,-1,-1,-1,-1,-1,-1,-1,-1,-1],"loss_changes":[7.781321E1,2.738395E1,3.7454494E1,1.4957474E1,1.0026866E1,6.0313787E0,1.0867821E1,9.487869E0,7.9439507E0,1.055599E1,9.342644E0,7.1320686E0,6.666689E0,4.5007224E0,9.145275E0,0E0,0E0,0E0,0E0,0E0,0E0,0E0,0E0,0E0,0E0,0E0,0E0,0E0,0E0,0E0,0E0],"parents":[2147483647,0,0,1,1,2,2,3,3,4,4,5,5,6,6,7,7,8,8,9,9,10,10,11,11,12,12,13,13,14,14],"right_children":[2,4,6,8,10,12,14,16,18,20,22,24,26,28,30,-1,-1,-1,-1,-1,-1,-1,-1,-1,-1,-1,-1,-1,-1,-1,-1],"split_conditions":[2.6666668E-1,2.7272728E-1,3.6561E0,1E0,3.5779E0,2.2004357E-1,3.8636363E-1,1.4285715E-1,5.3291537E-2,2.431611E-1,2.5316456E-1,1.6071428E-1,3.806818E-1,4.2241E0,1.3868614E-1,-1.8844353E-2,-7.81856E-3,-1.4777345E-2,-4.028618E-3,-8.666481E-4,-1.4550743E-2,-1.458403E-2,3.5744633E-3,-8.030994E-3,3.3318244E-3,-3.432398E-3,-1.3267018E-2,3.745889E-3,-2.980102E-3,6.750934E-3,1.7128913E-2],"split_indices":[15,8,14,11,14,6,1,15,5,0,1,6,1,14,5,0,0,0,0,0,0,0,0,0,0,0,0,0,0,0,0],"split_type":[0,0,0,0,0,0,0,0,0,0,0,0,0,0,0,0,0,0,0,0,0,0,0,0,0,0,0,0,0,0,0],"sum_hessian":[8.752648E3,3.3685928E3,5.3840557E3,1.9082145E3,1.4603782E3,1.3658673E3,4.0181885E3,8.897356E2,1.0184789E3,5.817122E2,8.7866595E2,6.2475323E2,7.411141E2,1.7331483E3,2.2850403E3,5.968827E2,2.928529E2,2.1842332E2,8.0005554E2,3.4363898E2,2.3807324E2,7.670309E1,8.019629E2,2.0443416E2,4.2031906E2,4.6863263E2,2.7248148E2,1.4330233E3,3.0012497E2,2.048523E3,2.3651723E2],"tree_param":{"num_deleted":"0","num_feature":"16","num_nodes":"31","size_leaf_vector":"1"}},{"base_weights":[1.0313445E-3,-1.1645077E-1,7.410229E-2,-2.0594655E-1,-4.0698215E-2,1.2889111E-1,-5.152168E-2,-4.152917E-1,-1.5647866E-1,-1.3741884E-1,4.085875E-2,3.9804917E-2,1.8371707E-1,-4.351962E-2,-5.445071E-1,-6.6473805E-3,-2.5496671E-2,-1.358095E-2,-4.148508E-3,-1.7449994E-3,-1.198417E-2,-5.417311E-4,1.1947076E-2,-2.7228715E-3,5.6643113E-3,9.6665155E-3,-3.009525E-2,-2.7221532E-3,1.1470872E-2,-6.776498E-3,-3.3860795E-2],"categories":[],"categories_nodes":[],"categories_segments":[],"categories_sizes":[],"default_left":[0,0,0,0,0,0,0,0,0,0,0,0,0,0,0,0,0,0,0,0,0,0,0,0,0,0,0,0,0,0,0],"id":12,"left_children":[1,3,5,7,9,11,13,15,17,19,21,23,25,27,29,-1,-1,-1,-1,-1,-1,-1,-1,-1,-1,-1,-1,-1,-1,-1,-1],"loss_changes":[7.499198E1,2.2702156E1,3.707624E1,1.5835281E1,1.4326551E1,1.831113E1,6.431413E0,7.7578583E0,1.0502426E1,8.701357E0,1.0095927E1,9.911833E0,1.764853E1,4.816347E0,1.3220425E0,0E0,0E0,0E0,0E0,0E0,0E0,0E0,0E0,0E0,0E0,0E0,0E0,0E0,0E0,0E0,0E0],"parents":[2147483647,0,0,1,1,2,2,3,3,4,4,5,5,6,6,7,7,8,8,9,9,10,10,11,11,12,12,13,13,14,14],"right_children":[2,4,6,8,10,12,14,16,18,20,22,24,26,28,30,-1,-1,-1,-1,-1,-1,-1,-1,-1,-1,-1,-1,-1,-1,-1,-1],"split_conditions":[2.6666668E-1,1E0,6E0,6.896552E-2,9.489051E-2,1.1811024E-1,3.943662E-1,1.5E1,4.8E1,4.1E1,1.13E2,1E0,3.4868422E-1,1.58E2,2.857143E-1,-6.6473805E-3,-2.5496671E-2,-1.358095E-2,-4.148508E-3,-1.7449994E-3,-1.198417E-2,-5.417311E-4,1.1947076E-2,-2.7228715E-3,5.6643113E-3,9.6665155E-3,-3.009525E-2,-2.7221532E-3,1.1470872E-2,-6.776498E-3,-3.3860795E-2],"split_indices":[15,11,9,2,2,2,6,10,10,10,10,11,6,10,15,0,0,0,0,0,0,0,0,0,0,0,0,0,0,0,0],"split_type":[0,0,0,0,0,0,0,0,0,0,0,0,0,0,0,0,0,0,0,0,0,0,0,0,0,0,0,0,0,0,0],"sum_hessian":[8.733708E3,3.3488672E3,5.3848403E3,1.534388E3,1.8144791E3,3.7495222E3,1.6353182E3,2.9185974E2,1.2425282E3,8.2975964E2,9.847194E2,1.4291067E3,2.3204155E3,1.6102689E3,2.5049349E1,7.387464E1,2.179851E2,4.8311075E2,7.594175E2,4.1503452E2,4.1472516E2,7.816727E2,2.030467E2,6.2614386E2,8.029629E2,2.29311E3,2.7305605E1,1.5490726E3,6.1196198E1,6.6320868E0,1.8417261E1],"tree_param":{"num_deleted":"0","num_feature":"16","num_nodes":"31","size_leaf_vector":"1"}},{"base_weights":[-3.2974037E-3,-1.2468318E-1,6.814665E-2,-2.1709605E-1,-6.868313E-2,1.0315256E-1,-1.7214583E-1,-1.6442165E-1,-5.028098E-1,-3.7774786E-2,-2.5615314E-1,-2.0485714E-1,1.1782291E-1,1.3899784E-1,-2.0946883E-1,7.481736E-3,-9.229298E-3,-4.86159E-2,-2.0962035E-2,1.4364817E-3,-4.3804115E-3,-3.2744985E-2,-9.028722E-3,-3.1552654E-2,-3.5408915E-3,-9.7494584E-4,6.8420838E-3,1.0896148E-2,-4.015497E-2,-1.625384E-2,-3.918354E-3],"categories":[],"categories_nodes":[],"categories_segments":[],"categories_sizes":[],"default_left":[0,0,0,0,0,0,0,0,0,0,0,0,0,0,0,0,0,0,0,0,0,0,0,0,0,0,0,0,0,0,0],"id":13,"left_children":[1,3,5,7,9,11,13,15,17,19,21,23,25,27,29,-1,-1,-1,-1,-1,-1,-1,-1,-1,-1,-1,-1,-1,-1,-1,-1],"loss_changes":[7.564798E1,1.6710419E1,4.620699E1,1.8263119E1,1.165944E1,2.168409E1,8.141853E0,6.555002E0,7.018551E0,5.735999E0,8.466524E0,1.2425968E1,1.1954281E1,5.783312E0,9.434793E0,0E0,0E0,0E0,0E0,0E0,0E0,0E0,0E0,0E0,0E0,0E0,0E0,0E0,0E0,0E0,0E0],"parents":[2147483647,0,0,1,1,2,2,3,3,4,4,5,5,6,6,7,7,8,8,9,9,10,10,11,11,12,12,13,13,14,14],"right_children":[2,4,6,8,10,12,14,16,18,20,22,24,26,28,30,-1,-1,-1,-1,-1,-1,-1,-1,-1,-1,-1,-1,-1,-1,-1,-1],"split_conditions":[2.3346303E-2,1.4285715E-1,8E0,1.3402061E-1,9E0,8.3333336E-2,1.5E1,1.1E1,3.846154E-2,5E0,1.7E1,1.724138E-1,2.5E1,3.448276E-1,6.3E1,7.481736E-3,-9.229298E-3,-4.86159E-2,-2.0962035E-2,1.4364817E-3,-4.3804115E-3,-3.2744985E-2,-9.028722E-3,-3.1552654E-2,-3.5408915E-3,-9.7494584E-4,6.8420838E-3,1.0896148E-2,-4.015497E-2,-1.625384E-2,-3.918354E-3],"split_indices":[4,15,9,3,9,2,10,10,2,9,10,0,10,0,10,0,0,0,0,0,0,0,0,0,0,0,0,0,0,0,0],"split_type":[0,0,0,0,0,0,0,0,0,0,0,0,0,0,0,0,0,0,0,0,0,0,0,0,0,0,0,0,0,0,0],"sum_hessian":[8.720971E3,3.2308708E3,5.4900996E3,1.218006E3,2.012865E3,4.7924976E3,6.976021E2,1.0297382E3,1.8826779E2,1.729004E3,2.8386096E2,2.1729709E2,4.5752E3,7.442584E1,6.231763E2,6.1739063E1,9.679991E2,2.6840054E1,1.6142773E2,7.40802E2,9.88202E2,4.4008877E1,2.3985208E2,5.110236E1,1.6619473E2,5.565678E2,4.0186326E3,6.938198E1,5.043859E0,3.3037015E2,2.9280615E2],"tree_param":{"num_deleted":"0","num_feature":"16","num_nodes":"31","size_leaf_vector":"1"}},{"base_weights":[-5.140584E-3,-1.4126971E-1,4.4936936E-2,-2.1563701E-1,-7.711624E-2,-1.2032132E-1,8.277451E-2,-2.4903286E-1,6.5621235E-3,-4.3617878E-2,-1.9800828E-1,-1.8325569E-1,-4.5359474E-2,9.3955204E-2,-4.2364746E-1,-9.085519E-3,-1.7205158E-2,1.5888173E-2,-9.037355E-3,-2.8251885E-3,2.2276241E-2,-3.0932551E-2,-6.8898755E-3,-4.3352484E-3,-1.2633704E-2,-3.855126E-3,2.8780738E-2,-5.326241E-3,5.296315E-3,-3.442618E-2,-9.200244E-3],"categories":[],"categories_nodes":[],"categories_segments":[],"categories_sizes":[],"default_left":[0,0,0,0,0,0,0,0,0,0,0,0,0,0,0,0,0,0,0,0,0,0,0,0,0,0,0,0,0,0,0],"id":14,"left_children":[1,3,5,7,9,11,13,15,17,19,21,23,25,27,29,-1,-1,-1,-1,-1,-1,-1,-1,-1,-1,-1,-1,-1,-1,-1,-1],"loss_changes":[5.9779896E1,1.1234844E1,4.0097458E1,8.102394E0,5.1250496E0,5.628338E0,2.9580116E1,6.011799E0,8.428643E0,6.2898145E0,6.873844E0,4.329109E0,1.0819147E1,1.2263775E1,7.038231E0,0E0,0E0,0E0,0E0,0E0,0E0,0E0,0E0,0E0,0E0,0E0,0E0,0E0,0E0,0E0,0E0],"parents":[2147483647,0,0,1,1,2,2,3,3,4,4,5,5,6,6,7,7,8,8,9,9,10,10,11,11,12,12,13,13,14,14],"right_children":[2,4,6,8,10,12,14,16,18,20,22,24,26,28,30,-1,-1,-1,-1,-1,-1,-1,-1,-1,-1,-1,-1,-1,-1,-1,-1],"split_conditions":[1.8518519E-2,1E0,3.5457E0,5.3333336E-1,6E-1,1E0,3.4868422E-1,3.6561E0,1.6483517E-1,3.6363637E-1,1.1363637E-1,2.8846154E-2,2.9677418E-1,8.3333336E-2,1E0,-9.085519E-3,-1.7205158E-2,1.5888173E-2,-9.037355E-3,-2.8251885E-3,2.2276241E-2,-3.0932551E-2,-6.8898755E-3,-4.3352484E-3,-1.2633704E-2,-3.855126E-3,2.8780738E-2,-5.326241E-3,5.296315E-3,-3.442618E-2,-9.200244E-3],"split_indices":[4,11,14,8,7,11,6,14,6,6,6,4,0,2,11,0,0,0,0,0,0,0,0,0,0,0,0,0,0,0,0],"split_type":[0,0,0,0,0,0,0,0,0,0,0,0,0,0,0,0,0,0,0,0,0,0,0,0,0,0,0,0,0,0,0],"sum_hessian":[8.767295E3,2.3573445E3,6.4099507E3,1.0906693E3,1.2666752E3,1.1937938E3,5.216157E3,9.4805835E2,1.4261095E2,9.929079E2,2.7376724E2,6.4817365E2,5.456201E2,5.1042803E3,1.1187689E2,5.567303E2,3.9132803E2,5.332262E1,8.9288315E1,9.6828406E2,2.4623829E1,3.3118813E1,2.4064842E2,2.7204636E2,3.7612732E2,5.199187E2,2.5701443E1,2.8716843E2,4.817112E3,5.225097E1,5.9625923E1],"tree_param":{"num_deleted":"0","num_feature":"16","num_nodes":"31","size_leaf_vector":"1"}},{"base_weights":[-5.9549836E-3,-5.269139E-2,1.167346E-1,-1.2486426E-1,7.788595E-3,4.1083645E-2,2.0538859E-1,-2.6826957E-1,-6.614225E-2,-1.153485E-1,5.56976E-2,-6.485447E-2,1.19097166E-1,1.3439634E-1,3.1682944E-1,-1.877715E-2,-7.318947E-3,-1.0252234E-2,-1.8268323E-3,-2.675101E-3,-1.4973794E-2,-7.7777314E-3,3.574073E-3,3.2538775E-2,-4.1883956E-3,1.3298265E-3,1.1497466E-2,7.829923E-3,-3.1109033E-2,3.8152672E-2,1.3705066E-2],"categories":[],"categories_nodes":[],"categories_segments":[],"categories_sizes":[],"default_left":[0,0,0,0,0,0,0,0,0,0,0,0,0,0,0,0,0,0,0,0,0,0,0,0,0,0,0,0,0,0,0],"id":15,"left_children":[1,3,5,7,9,11,13,15,17,19,21,23,25,27,29,-1,-1,-1,-1,-1,-1,-1,-1,-1,-1,-1,-1,-1,-1,-1,-1],"loss_changes":[5.012489E1,2.7632046E1,1.6164215E1,2.4286503E1,2.0329725E1,1.0771267E1,8.739342E0,1.0904381E1,8.418507E0,1.0975858E1,8.28285E0,7.539089E0,7.688282E0,1.1516582E1,8.012653E0,0E0,0E0,0E0,0E0,0E0,0E0,0E0,0E0,0E0,0E0,0E0,0E0,0E0,0E0,0E0,0E0],"parents":[2147483647,0,0,1,1,2,2,3,3,4,4,5,5,6,6,7,7,8,8,9,9,10,10,11,11,12,12,13,13,14,14],"right_children":[2,4,6,8,10,12,14,16,18,20,22,24,26,28,30,-1,-1,-1,-1,-1,-1,-1,-1,-1,-1,-1,-1,-1,-1,-1,-1],"split_conditions":[4.0350878E-1,1E0,7.5E1,2E-1,3.5457E0,1.4018692E-1,1.4201184E-1,2.1428572E-1,8.358209E-2,2.4742268E-1,2.4742268E-1,2.0547946E-1,3.5E1,4.9025488E-1,8.2E1,-1.877715E-2,-7.318947E-3,-1.0252234E-2,-1.8268323E-3,-2.675101E-3,-1.4973794E-2,-7.7777314E-3,3.574073E-3,3.2538775E-2,-4.1883956E-3,1.3298265E-3,1.1497466E-2,7.829923E-3,-3.1109033E-2,3.8152672E-2,1.3705066E-2],"split_indices":[1,11,10,15,14,2,3,8,2,0,1,0,10,1,10,0,0,0,0,0,0,0,0,0,0,0,0,0,0,0,0],"split_type":[0,0,0,0,0,0,0,0,0,0,0,0,0,0,0,0,0,0,0,0,0,0,0,0,0,0,0,0,0,0,0],"sum_hessian":[8.739518E3,6.329122E3,2.4103955E3,2.8851306E3,3.4439915E3,1.3013662E3,1.1090292E3,8.371511E2,2.0479795E3,9.6424744E2,2.479744E3,5.5197833E2,7.493879E2,6.7880774E2,4.302215E2,4.441675E2,3.9298358E2,3.5877362E2,1.6892059E3,7.227678E2,2.4147966E2,1.7177954E2,2.3079644E3,1.3352441E1,5.386259E2,4.09184E2,3.4020386E2,6.602261E2,1.8581644E1,3.6122627E1,3.9409888E2],"tree_param":{"num_deleted":"0","num_feature":"16","num_nodes":"31","size_leaf_vector":"1"}},{"base_weights":[5.736515E-3,-1.2437224E-1,4.9081735E-2,-7.781778E-2,-2.1980889E-1,-1.0495883E-1,8.886867E-2,1.12362474E-1,-1.2267435E-1,-4.1613805E-1,-1.1705618E-1,-2.3107116E-1,-3.129701E-2,9.8988265E-2,-3.9230832E-1,1.5904969E-3,2.4419041E-2,-4.6051363E-3,-1.6671646E-2,-3.2053497E-2,-1.4955014E-2,-7.2494014E-3,1.57007E-2,-7.3571983E-3,-3.0008543E-2,1.4374627E-3,-5.060409E-3,-7.7590332E-3,5.4336786E-3,-3.108183E-2,-8.033509E-3],"categories":[],"categories_nodes":[],"categories_segments":[],"categories_sizes":[],"default_left":[0,0,0,0,0,0,0,0,0,0,0,0,0,0,0,0,0,0,0,0,0,0,0,0,0,0,0,0,0,0,0],"id":16,"left_children":[1,3,5,7,9,11,13,15,17,19,21,23,25,27,29,-1,-1,-1,-1,-1,-1,-1,-1,-1,-1,-1,-1,-1,-1,-1,-1],"loss_changes":[4.907238E1,9.643963E0,4.001125E1,1.2494921E1,1.43224945E1,1.2443044E1,2.5299137E1,8.457756E0,7.600111E0,6.2410583E0,5.692917E0,1.5215191E1,3.5594118E0,1.2526234E1,5.587023E0,0E0,0E0,0E0,0E0,0E0,0E0,0E0,0E0,0E0,0E0,0E0,0E0,0E0,0E0,0E0,0E0],"parents":[2147483647,0,0,1,1,2,2,3,3,4,4,5,5,6,6,7,7,8,8,9,9,10,10,11,11,12,12,13,13,14,14],"right_children":[2,4,6,8,10,12,14,16,18,20,22,24,26,28,30,-1,-1,-1,-1,-1,-1,-1,-1,-1,-1,-1,-1,-1,-1,-1,-1],"split_conditions":[3.5457E0,2.5E-1,1.8518519E-2,1.8421052E-1,2.616279E-1,1.4285715E-1,3.4868422E-1,9.3E1,1.17E2,1.4285715E-1,1.36E2,1.3253012E-1,5E1,1.1363637E-1,2.0338982E-1,1.5904969E-3,2.4419041E-2,-4.6051363E-3,-1.6671646E-2,-3.2053497E-2,-1.4955014E-2,-7.2494014E-3,1.57007E-2,-7.3571983E-3,-3.0008543E-2,1.4374627E-3,-5.060409E-3,-7.7590332E-3,5.4336786E-3,-3.108183E-2,-8.033509E-3],"split_indices":[14,0,4,6,0,15,6,10,10,15,10,3,10,6,0,0,0,0,0,0,0,0,0,0,0,0,0,0,0,0,0],"split_type":[0,0,0,0,0,0,0,0,0,0,0,0,0,0,0,0,0,0,0,0,0,0,0,0,0,0,0,0,0,0,0],"sum_hessian":[8.699323E3,2.1734473E3,6.5258755E3,1.4620619E3,7.113854E2,1.3392289E3,5.186647E3,2.7874597E2,1.1833159E3,2.4335605E2,4.6802933E2,4.9301987E2,8.4620905E2,5.0805913E3,1.0605527E2,2.3046024E2,4.8285748E1,1.0346688E3,1.4864706E2,8.1755264E1,1.6160078E2,4.401714E2,2.785792E1,4.0282315E2,9.0196724E1,4.5553857E2,3.9067047E2,1.8594197E2,4.8946494E3,5.2447308E1,5.360796E1],"tree_param":{"num_deleted":"0","num_feature":"16","num_nodes":"31","size_leaf_vector":"1"}},{"base_weights":[-9.089039E-4,-7.558848E-2,8.203636E-2,-1.9201611E-1,-4.972254E-2,-2.183679E-1,1.05128154E-1,-1.2240365E-1,-3.1833646E-1,-1.16264164E-1,-1.7163683E-2,2.636556E-1,-3.2811856E-1,1.1456747E-1,-5.917492E-1,-4.5722827E-2,-5.1540127E-3,-1.6868515E-2,1.9673748E-2,-7.107094E-3,6.7355945E-3,1.1316979E-3,-7.545948E-3,-4.2518405E-3,2.7126765E-2,1.5672252E-2,-1.8617911E-2,1.0014179E-2,3.083194E-3,-5.0758716E-2,-1.9182336E-2],"categories":[],"categories_nodes":[],"categories_segments":[],"categories_sizes":[],"default_left":[0,0,0,0,0,0,0,0,0,0,0,0,0,0,0,0,0,0,0,0,0,0,0,0,0,0,0,0,0,0,0],"id":17,"left_children":[1,3,5,7,9,11,13,15,17,19,21,23,25,27,29,-1,-1,-1,-1,-1,-1,-1,-1,-1,-1,-1,-1,-1,-1,-1,-1],"loss_changes":[5.423254E1,1.3864946E1,2.8797464E1,7.322344E0,8.1679945E0,1.5767901E1,2.5410591E1,8.190957E0,4.1539116E0,8.06459E0,1.3488265E1,5.44594E0,6.982233E0,1.7228462E1,4.1616573E0,0E0,0E0,0E0,0E0,0E0,0E0,0E0,0E0,0E0,0E0,0E0,0E0,0E0,0E0,0E0,0E0],"parents":[2147483647,0,0,1,1,2,2,3,3,4,4,5,5,6,6,7,7,8,8,9,9,10,10,11,11,12,12,13,13,14,14],"right_children":[2,4,6,8,10,12,14,16,18,20,22,24,26,28,30,-1,-1,-1,-1,-1,-1,-1,-1,-1,-1,-1,-1,-1,-1,-1,-1],"split_conditions":[3.8355E0,3.2505E0,9.433962E-3,2.4561404E-1,1.8518519E-2,7.1428575E-2,3.4868422E-1,3.846154E-2,1.4E0,3.0769232E-1,2.777778E-1,2.3913044E-1,8E0,4.022E0,8.510638E-2,-4.5722827E-2,-5.1540127E-3,-1.6868515E-2,1.9673748E-2,-7.107094E-3,6.7355945E-3,1.1316979E-3,-7.545948E-3,-4.2518405E-3,2.7126765E-2,1.5672252E-2,-1.8617911E-2,1.0014179E-2,3.083194E-3,-5.0758716E-2,-1.9182336E-2],"split_indices":[14,14,4,0,4,3,6,3,7,6,6,1,10,14,2,0,0,0,0,0,0,0,0,0,0,0,0,0,0,0,0],"split_type":[0,0,0,0,0,0,0,0,0,0,0,0,0,0,0,0,0,0,0,0,0,0,0,0,0,0,0,0,0,0,0],"sum_hessian":[8.753208E3,4.6061553E3,4.1470522E3,8.361333E2,3.7700217E3,2.954212E2,3.8516313E3,5.4033514E2,2.9579816E2,1.237773E3,2.5322488E3,5.4528854E1,2.4089236E2,3.800982E3,5.064933E1,1.176517E1,5.2856995E2,2.8860687E2,7.191299E0,1.1224706E3,1.1530236E2,1.952216E3,5.8003296E2,2.454034E1,2.9988514E1,1.514689E1,2.2574547E2,1.4495648E3,2.3514172E3,1.5412125E1,3.5237206E1],"tree_param":{"num_deleted":"0","num_feature":"16","num_nodes":"31","size_leaf_vector":"1"}},{"base_weights":[-9.012455E-3,-1.16445765E-1,4.321828E-2,-1.7544661E-1,-6.428019E-2,7.940425E-2,-8.6217396E-2,-3.838502E-1,-1.2488187E-1,-8.4161265E-3,-1.1056043E-1,-4.8929223E-1,8.41741E-2,-1.03552625E-1,2.570869E-1,-2.4316456E-2,-1.0537733E-2,-1.1437244E-2,-4.275977E-3,5.1070093E-3,-6.6722073E-3,-1.6257623E-2,-3.3845478E-3,-3.7767436E-2,7.315089E-3,1.4016194E-3,6.3791038E-3,-5.440086E-3,4.7299754E-2,4.401335E-2,4.452526E-3],"categories":[],"categories_nodes":[],"categories_segments":[],"categories_sizes":[],"default_left":[0,0,0,0,0,0,0,0,0,0,0,0,0,0,0,0,0,0,0,0,0,0,0,0,0,0,0,0,0,0,0],"id":18,"left_children":[1,3,5,7,9,11,13,15,17,19,21,23,25,27,29,-1,-1,-1,-1,-1,-1,-1,-1,-1,-1,-1,-1,-1,-1,-1,-1],"loss_changes":[4.8913616E1,8.765247E0,2.7479458E1,1.4046764E1,3.9159985E0,1.2477095E1,7.656192E0,4.5215454E0,4.3870087E0,9.516925E0,7.5997353E0,6.5835896E0,1.10779915E1,6.8301764E0,6.4047213E0,0E0,0E0,0E0,0E0,0E0,0E0,0E0,0E0,0E0,0E0,0E0,0E0,0E0,0E0,0E0,0E0],"parents":[2147483647,0,0,1,1,2,2,3,3,4,4,5,5,6,6,7,7,8,8,9,9,10,10,11,11,12,12,13,13,14,14],"right_children":[2,4,6,8,10,12,14,16,18,20,22,24,26,28,30,-1,-1,-1,-1,-1,-1,-1,-1,-1,-1,-1,-1,-1,-1,-1,-1],"split_conditions":[2.1621622E-2,1E0,7E0,7.692308E-2,4.2E1,1.4285715E-1,1.52E2,1.0676157E-2,2.1428572E-1,7E0,5.2E1,1.0294118E-1,1E0,7.1428573E-1,2.1856287E-1,-2.4316456E-2,-1.0537733E-2,-1.1437244E-2,-4.275977E-3,5.1070093E-3,-6.6722073E-3,-1.6257623E-2,-3.3845478E-3,-3.7767436E-2,7.315089E-3,1.4016194E-3,6.3791038E-3,-5.440086E-3,4.7299754E-2,4.401335E-2,4.452526E-3],"split_indices":[4,11,9,15,10,0,10,4,8,9,10,5,11,15,0,0,0,0,0,0,0,0,0,0,0,0,0,0,0,0,0],"split_type":[0,0,0,0,0,0,0,0,0,0,0,0,0,0,0,0,0,0,0,0,0,0,0,0,0,0,0,0,0,0,0],"sum_hessian":[8.715055E3,2.850545E3,5.8645103E3,1.3365278E3,1.5140171E3,4.5835005E3,1.2810096E3,2.596762E2,1.0768517E3,6.865167E2,8.275003E2,3.727873E1,4.5462217E3,1.2200989E3,6.09108E1,1.6197276E2,9.770345E1,2.9462674E2,7.822249E2,3.6444153E2,3.220752E2,1.3668925E2,6.9081104E2,2.6145811E1,1.1132917E1,1.983067E3,2.5631548E3,1.2149191E3,5.1798325E0,1.2035896E1,4.8874905E1],"tree_param":{"num_deleted":"0","num_feature":"16","num_nodes":"31","size_leaf_vector":"1"}},{"base_weights":[3.8773392E-3,-4.3031804E-2,1.0461766E-1,-1.2568516E-1,-5.042813E-3,-1.1482931E-1,1.20730214E-1,-1.0478489E-1,-3.14571E-1,7.1076714E-3,-3.8974783E-1,3.2543294E-2,-1.6121082E-1,-7.858154E-2,1.3589677E-1,-5.4817046E-3,2.6985725E-2,-1.3143449E-2,-3.422758E-2,-3.808602E-3,2.597277E-3,-4.1612495E-2,-1.1068243E-2,-3.9855357E-2,-5.941589E-3,-6.304446E-3,3.3311583E-2,1.969136E-2,6.319947E-3],"categories":[],"categories_nodes":[],"categories_segments":[],"categories_sizes":[],"default_left":[0,0,0,0,0,0,0,0,0,0,0,0,0,0,0,0,0,0,0,0,0,0,0,0,0,0,0,0,0],"id":19,"left_children":[1,3,5,7,9,11,13,15,17,19,21,-1,23,25,27,-1,-1,-1,-1,-1,-1,-1,-1,-1,-1,-1,-1,-1,-1],"loss_changes":[4.1211967E1,1.868279E1,9.8105755E0,7.3637314E0,1.9063139E1,6.8536825E0,7.8146744E0,5.3361855E0,3.381157E0,1.4767729E1,9.119282E0,0E0,4.7554545E0,6.5660763E0,5.8283615E0,0E0,0E0,0E0,0E0,0E0,0E0,0E0,0E0,0E0,0E0,0E0,0E0,0E0,0E0],"parents":[2147483647,0,0,1,1,2,2,3,3,4,4,5,5,6,6,7,7,8,8,9,9,10,10,12,12,13,13,14,14],"right_children":[2,4,6,8,10,12,14,16,18,20,22,-1,24,26,28,-1,-1,-1,-1,-1,-1,-1,-1,-1,-1,-1,-1,-1,-1],"split_conditions":[3.5714287E-1,3.5457E0,8.8794924E-2,1.4736842E-1,3.445946E-1,4.3956045E-2,1.3084112E-1,1.4E0,3.241895E-1,2.7272728E-1,4E0,3.2543294E-2,8.163265E-2,4.3117E0,3.0769232E-1,-5.4817046E-3,2.6985725E-2,-1.3143449E-2,-3.422758E-2,-3.808602E-3,2.597277E-3,-4.1612495E-2,-1.1068243E-2,-3.9855357E-2,-5.941589E-3,-6.304446E-3,3.3311583E-2,1.969136E-2,6.319947E-3],"split_indices":[15,14,2,3,6,2,6,7,6,8,9,0,3,14,8,0,0,0,0,0,0,0,0,0,0,0,0,0,0],"split_type":[0,0,0,0,0,0,0,0,0,0,0,0,0,0,0,0,0,0,0,0,0,0,0,0,0,0,0,0,0],"sum_hessian":[8.718971E3,5.949291E3,2.76968E3,1.8726416E3,4.0766494E3,1.8903035E2,2.5806494E3,1.6874767E3,1.85165E2,3.9527866E3,1.2386289E2,1.0052042E1,1.7897832E2,1.8219157E2,2.398458E3,1.6756986E3,1.1778046E1,1.6396289E2,2.1202093E1,1.3831295E3,2.5696572E3,3.3054558E1,9.080833E1,1.0069952E1,1.6890836E2,1.7204831E2,1.0143266E1,8.374514E1,2.314713E3],"tree_param":{"num_deleted":"0","num_feature":"16","num_nodes":"29","size_leaf_vector":"1"}},{"base_weights":[-1.1301455E-3,-1.129972E-1,3.5569634E-2,-6.275887E-2,-2.0031896E-1,-1.12696104E-1,6.466726E-2,2.5506008E-2,-1.7341672E-1,-3.500009E-1,-9.542361E-2,-4.530159E-2,-3.6713862E-1,4.39559E-2,1.566467E-1,-4.3507195E-3,4.785158E-3,-1.4794759E-2,-3.547823E-3,-1.5455578E-2,-3.1447485E-2,1.0829831E-2,-7.577609E-3,-2.369657E-2,-7.80168E-4,-2.3383433E-2,1.1570106E-2,-1.3659288E-3,3.624617E-3,3.8756921E-3,1.4386728E-2],"categories":[],"categories_nodes":[],"categories_segments":[],"categories_sizes":[],"default_left":[0,0,0,0,0,0,0,0,0,0,0,0,0,0,0,0,0,0,0,0,0,0,0,0,0,0,0,0,0,0,0],"id":20,"left_children":[1,3,5,7,9,11,13,15,17,19,21,23,25,27,29,-1,-1,-1,-1,-1,-1,-1,-1,-1,-1,-1,-1,-1,-1,-1,-1],"loss_changes":[3.588268E1,9.45891E0,2.839952E1,1.3404946E1,1.2339664E1,1.8503998E1,1.0474712E1,6.043587E0,7.6202087E0,3.504898E0,8.171518E0,1.0876592E1,1.3708544E1,9.138874E0,1.0463455E1,0E0,0E0,0E0,0E0,0E0,0E0,0E0,0E0,0E0,0E0,0E0,0E0,0E0,0E0,0E0,0E0],"parents":[2147483647,0,0,1,1,2,2,3,3,4,4,5,5,6,6,7,7,8,8,9,9,10,10,11,11,12,12,13,13,14,14],"right_children":[2,4,6,8,10,12,14,16,18,20,22,24,26,28,30,-1,-1,-1,-1,-1,-1,-1,-1,-1,-1,-1,-1,-1,-1,-1,-1],"split_conditions":[3.5457E0,2.4561404E-1,1.6666667E-1,7.913669E-2,2.6126125E-1,1.3253012E-1,1.2033195E-1,5E-2,9.8684214E-2,1.3354038E-1,3.448276E-2,3.6585364E-2,4.1226575E-1,3E0,1.4689265E-1,-4.3507195E-3,4.785158E-3,-1.4794759E-2,-3.547823E-3,-1.5455578E-2,-3.1447485E-2,1.0829831E-2,-7.577609E-3,-2.369657E-2,-7.80168E-4,-2.3383433E-2,1.1570106E-2,-1.3659288E-3,3.624617E-3,3.8756921E-3,1.4386728E-2],"split_indices":[14,0,15,5,0,3,5,5,5,2,5,5,1,9,3,0,0,0,0,0,0,0,0,0,0,0,0,0,0,0,0],"split_type":[0,0,0,0,0,0,0,0,0,0,0,0,0,0,0,0,0,0,0,0,0,0,0,0,0,0,0,0,0,0,0],"sum_hessian":[8.738179E3,2.1580383E3,6.58014E3,1.3709922E3,7.8704614E2,1.0790441E3,5.5010957E3,7.6309125E2,6.0790094E2,3.2332965E2,4.637165E2,8.5401746E2,2.2502663E2,4.49126E3,1.00983624E3,2.930754E2,4.7001587E2,2.7604074E2,3.3186017E2,2.8383258E2,3.9497063E1,7.026309E1,3.934534E2,5.4368427E1,7.9964905E2,1.9285384E2,3.21728E1,1.2840856E3,3.207174E3,6.306984E2,3.7913785E2],"tree_param":{"num_deleted":"0","num_feature":"16","num_nodes":"31","size_leaf_vector":"1"}},{"base_weights":[2.0185874E-3,-1.1014147E-1,4.894571E-2,-2.0060481E-1,-3.168967E-2,-1.5101764E-2,8.776905E-2,-1.5641217E-1,-3.632436E-1,-9.4826356E-2,1.330079E-1,-3.242348E-1,-5.652907E-3,1.0523573E-1,-9.535154E-2,-1.1261067E-2,-3.4932808E-3,-3.5487562E-2,-1.19886985E-2,-3.271915E-3,-1.7414724E-2,-1.8068228E-2,9.508839E-3,-2.6379055E-3,-3.749537E-2,8.536781E-3,-1.3213762E-3,1.5181883E-2,4.6825027E-3,-3.1610832E-3,-3.0775068E-2],"categories":[],"categories_nodes":[],"categories_segments":[],"categories_sizes":[],"default_left":[0,0,0,0,0,0,0,0,0,0,0,0,0,0,0,0,0,0,0,0,0,0,0,0,0,0,0,0,0,0,0],"id":21,"left_children":[1,3,5,7,9,11,13,15,17,19,21,23,25,27,29,-1,-1,-1,-1,-1,-1,-1,-1,-1,-1,-1,-1,-1,-1,-1,-1],"loss_changes":[4.582626E1,1.8220741E1,1.5264612E1,8.5151825E0,1.4327562E1,6.767386E0,1.2234436E1,5.5795765E0,1.06996765E1,7.394371E0,1.0862439E1,7.901308E0,8.248513E0,7.992779E0,5.5317698E0,0E0,0E0,0E0,0E0,0E0,0E0,0E0,0E0,0E0,0E0,0E0,0E0,0E0,0E0,0E0,0E0],"parents":[2147483647,0,0,1,1,2,2,3,3,4,4,5,5,6,6,7,7,8,8,9,9,10,10,11,11,12,12,13,13,14,14],"right_children":[2,4,6,8,10,12,14,16,18,20,22,24,26,28,30,-1,-1,-1,-1,-1,-1,-1,-1,-1,-1,-1,-1,-1,-1,-1,-1],"split_conditions":[2.7272728E-1,1E0,2.7855154E-2,2.7857143E-1,3.5714287E-1,1.6666667E-1,8E0,6.9E1,5E0,1.4150943E-1,2.260274E-1,8.714597E-2,7.692308E-2,3.3125E-1,8.5714287E-1,-1.1261067E-2,-3.4932808E-3,-3.5487562E-2,-1.19886985E-2,-3.271915E-3,-1.7414724E-2,-1.8068228E-2,9.508839E-3,-2.6379055E-3,-3.749537E-2,8.536781E-3,-1.3213762E-3,1.5181883E-2,4.6825027E-3,-3.1610832E-3,-3.0775068E-2],"split_indices":[8,11,4,6,1,0,9,10,9,3,0,3,3,1,8,0,0,0,0,0,0,0,0,0,0,0,0,0,0,0,0],"split_type":[0,0,0,0,0,0,0,0,0,0,0,0,0,0,0,0,0,0,0,0,0,0,0,0,0,0,0,0,0,0,0],"sum_hessian":[8.704649E3,2.5672776E3,6.137372E3,1.1916362E3,1.3756414E3,2.3164685E3,3.8209038E3,9.385678E2,2.5306839E2,9.947348E2,3.809066E2,6.771632E1,2.2487522E3,3.4885764E3,3.323274E2,5.219707E2,4.1659708E2,6.523716E1,1.8783124E2,8.925118E2,1.0222304E2,3.8930542E1,3.4197604E2,4.2033195E1,2.5683123E1,2.3618513E2,2.012567E3,1.9108504E2,3.2974912E3,3.1404996E2,1.8277456E1],"tree_param":{"num_deleted":"0","num_feature":"16","num_nodes":"31","size_leaf_vector":"1"}},{"base_weights":[1.2655243E-3,-1.2775941E-1,3.243422E-2,-2.0616792E-1,-6.197744E-2,9.133051E-2,-3.0158564E-2,-4.9777192E-1,-1.4594565E-1,2.590663E-2,-1.706798E-1,1.6884442E-2,1.5723333E-1,-3.5754377E-1,-2.2726633E-2,-8.915204E-3,-3.4796845E-2,1.3426556E-2,-9.210081E-3,-5.341967E-3,7.189321E-3,-6.0856845E-3,-2.5229914E-2,-8.6179323E-4,1.3493377E-2,8.473302E-3,-1.8798973E-2,1.8177757E-2,-2.1751245E-2,5.9071823E-4,-4.7291606E-3],"categories":[],"categories_nodes":[],"categories_segments":[],"categories_sizes":[],"default_left":[0,0,0,0,0,0,0,0,0,0,0,0,0,0,0,0,0,0,0,0,0,0,0,0,0,0,0,0,0,0,0],"id":22,"left_children":[1,3,5,7,9,11,13,15,17,19,21,23,25,27,29,-1,-1,-1,-1,-1,-1,-1,-1,-1,-1,-1,-1,-1,-1,-1,-1],"loss_changes":[3.502048E1,8.726467E0,2.5859173E1,1.3494331E1,8.820041E0,1.772776E1,8.266792E0,8.221382E0,1.0224961E1,8.013487E0,6.6859646E0,1.4662125E1,1.2566353E1,4.372177E0,8.257601E0,0E0,0E0,0E0,0E0,0E0,0E0,0E0,0E0,0E0,0E0,0E0,0E0,0E0,0E0,0E0,0E0],"parents":[2147483647,0,0,1,1,2,2,3,3,4,4,5,5,6,6,7,7,8,8,9,9,10,10,11,11,12,12,13,13,14,14],"right_children":[2,4,6,8,10,12,14,16,18,20,22,24,26,28,30,-1,-1,-1,-1,-1,-1,-1,-1,-1,-1,-1,-1,-1,-1,-1,-1],"split_conditions":[8.571429E-2,1E0,5E0,1E0,4.3E1,3E0,2.3214285E-1,1.9266056E-1,1.1E1,2.647059E-1,2.5423728E-2,6.382979E-2,3.298969E-1,1.4285715E-1,8E0,-8.915204E-3,-3.4796845E-2,1.3426556E-2,-9.210081E-3,-5.341967E-3,7.189321E-3,-6.0856845E-3,-2.5229914E-2,-8.6179323E-4,1.3493377E-2,8.473302E-3,-1.8798973E-2,1.8177757E-2,-2.1751245E-2,5.9071823E-4,-4.7291606E-3],"split_indices":[2,11,9,12,10,9,1,6,10,1,4,4,6,1,9,0,0,0,0,0,0,0,0,0,0,0,0,0,0,0,0],"split_type":[0,0,0,0,0,0,0,0,0,0,0,0,0,0,0,0,0,0,0,0,0,0,0,0,0,0,0,0,0,0,0],"sum_hessian":[8.706197E3,1.6933523E3,7.012845E3,7.715605E2,9.2179175E2,3.6128745E3,3.3999707E3,1.3082472E2,6.407358E2,5.1012543E2,4.1166632E2,1.6970667E3,1.915808E3,7.442342E1,3.3255474E3,5.081082E1,8.00139E1,5.3633617E1,5.871022E2,2.3997742E2,2.7014804E2,3.6020938E2,5.145693E1,1.4962028E3,2.0086382E2,1.873509E3,4.229894E1,6.8626003E0,6.756083E1,2.2465032E3,1.0790441E3],"tree_param":{"num_deleted":"0","num_feature":"16","num_nodes":"31","size_leaf_vector":"1"}},{"base_weights":[-2.7689615E-3,-7.631825E-2,4.2481158E-2,-1.6164882E-1,-6.5297214E-3,2.1208731E-2,1.4625882E-1,-2.659181E-1,-8.916868E-2,1.6842064E-2,-2.0426518E-1,-2.5418246E-2,6.530095E-2,1.00169815E-1,4.2403528E-1,-2.6537716E-2,-1.1237072E-2,-3.534374E-3,-3.5042446E-2,9.200099E-6,1.2026059E-2,-3.7488457E-2,-5.4015922E-3,-8.6489655E-3,3.389482E-4,3.6487815E-3,-1.0771318E-2,3.1605249E-3,1.9515174E-2,3.757417E-2,1.2434165E-2],"categories":[],"categories_nodes":[],"categories_segments":[],"categories_sizes":[],"default_left":[0,0,0,0,0,0,0,0,0,0,0,0,0,0,0,0,0,0,0,0,0,0,0,0,0,0,0,0,0,0,0],"id":23,"left_children":[1,3,5,7,9,11,13,15,17,19,21,23,25,27,29,-1,-1,-1,-1,-1,-1,-1,-1,-1,-1,-1,-1,-1,-1,-1,-1],"loss_changes":[2.8991106E1,1.9757671E1,1.1902594E1,1.1257408E1,8.443276E0,9.205445E0,1.1700533E1,6.550453E0,9.922202E0,6.0887966E0,1.0056743E1,1.03422E1,4.9736805E0,8.425425E0,7.2903748E0,0E0,0E0,0E0,0E0,0E0,0E0,0E0,0E0,0E0,0E0,0E0,0E0,0E0,0E0,0E0,0E0],"parents":[2147483647,0,0,1,1,2,2,3,3,4,4,5,5,6,6,7,7,8,8,9,9,10,10,11,11,12,12,13,13,14,14],"right_children":[2,4,6,8,10,12,14,16,18,20,22,24,26,28,30,-1,-1,-1,-1,-1,-1,-1,-1,-1,-1,-1,-1,-1,-1,-1,-1],"split_conditions":[2.6666668E-1,1E0,1.2033195E-1,2.1428572E-1,1.4314115E-1,1E0,5.714286E-1,6.666667E-2,1.7460318E-1,5.3846157E-1,1.9354838E-1,1E0,1.16883114E-1,4.9025488E-1,1.3157895E-1,-2.6537716E-2,-1.1237072E-2,-3.534374E-3,-3.5042446E-2,9.200099E-6,1.2026059E-2,-3.7488457E-2,-5.4015922E-3,-8.6489655E-3,3.389482E-4,3.6487815E-3,-1.0771318E-2,3.1605249E-3,1.9515174E-2,3.757417E-2,1.2434165E-2],"split_indices":[15,11,5,8,3,11,15,15,3,8,0,12,5,1,5,0,0,0,0,0,0,0,0,0,0,0,0,0,0,0,0],"split_type":[0,0,0,0,0,0,0,0,0,0,0,0,0,0,0,0,0,0,0,0,0,0,0,0,0,0,0,0,0,0,0],"sum_hessian":[8.708997E3,3.3169531E3,5.3920435E3,1.4917145E3,1.8252386E3,4.475796E3,9.1624774E2,6.1061725E2,8.810973E2,1.6331229E3,1.921158E2,2.1755754E3,2.3002207E3,7.870243E2,1.2922342E2,8.0563965E1,5.300533E2,8.5633954E2,2.475773E1,1.5208606E3,1.1226228E2,2.7790825E1,1.6432497E2,3.8889264E2,1.7866827E3,2.2397297E3,6.0490913E1,6.991761E2,8.7848236E1,4.3920937E1,8.5302475E1],"tree_param":{"num_deleted":"0","num_feature":"16","num_nodes":"31","size_leaf_vector":"1"}},{"base_weights":[-2.4979652E-3,-8.415995E-2,3.664404E-2,-6.48445E-2,-2.9935852E-1,-8.991728E-2,6.286462E-2,-1.5428796E-1,-3.5290677E-2,-3.848486E-1,1.0258944E-1,-1.262079E-1,4.744857E-2,4.99131E-2,6.0829557E-2,-1.0556287E-2,1.7754547E-3,1.8138386E-2,-2.2594915E-3,-2.1318717E-2,1.2589394E-2,4.643453E-2,-6.709208E-3,-4.743402E-3,-1.8056866E-2,8.433879E-3,-1.0441844E-2,-1.8717636E-3,3.8346138E-3],"categories":[],"categories_nodes":[],"categories_segments":[],"categories_sizes":[],"default_left":[0,0,0,0,0,0,0,0,0,0,0,0,0,0,0,0,0,0,0,0,0,0,0,0,0,0,0,0,0],"id":24,"left_children":[1,3,5,7,9,11,13,15,17,19,21,23,25,-1,27,-1,-1,-1,-1,-1,-1,-1,-1,-1,-1,-1,-1,-1,-1],"loss_changes":[2.7830885E1,1.1707094E1,1.9537762E1,6.841099E0,8.014444E0,5.043618E0,9.2216835E0,6.9435444E0,7.6927404E0,5.1723614E0,8.240753E0,5.8531437E0,6.6190624E0,0E0,7.588896E0,0E0,0E0,0E0,0E0,0E0,0E0,0E0,0E0,0E0,0E0,0E0,0E0,0E0,0E0],"parents":[2147483647,0,0,1,1,2,2,3,3,4,4,5,5,6,6,7,7,8,8,9,9,10,10,11,11,12,12,14,14],"right_children":[2,4,6,8,10,12,14,16,18,20,22,24,26,-1,28,-1,-1,-1,-1,-1,-1,-1,-1,-1,-1,-1,-1,-1,-1],"split_conditions":[2.1621622E-2,1.4788732E-1,3.5457E0,3.0959751E-3,3.125E-1,3.5714287E-1,2.173913E-2,9.8684214E-2,5.235602E-3,4.6153846E-1,6.629834E-2,4.692082E-2,8E-1,4.99131E-2,2E0,-1.0556287E-2,1.7754547E-3,1.8138386E-2,-2.2594915E-3,-2.1318717E-2,1.2589394E-2,4.643453E-2,-6.709208E-3,-4.743402E-3,-1.8056866E-2,8.433879E-3,-1.0441844E-2,-1.8717636E-3,3.8346138E-3],"split_indices":[4,3,14,4,0,15,4,5,4,15,2,4,7,0,9,0,0,0,0,0,0,0,0,0,0,0,0,0,0],"split_type":[0,0,0,0,0,0,0,0,0,0,0,0,0,0,0,0,0,0,0,0,0,0,0,0,0,0,0,0,0],"sum_hessian":[8.704944E3,2.8201384E3,5.8848057E3,2.5890554E3,2.3108298E2,1.009539E3,4.8752666E3,6.4196216E2,1.9470933E3,1.905892E2,4.0493767E1,7.9863043E2,2.1090858E2,9.520931E0,4.8657456E3,4.9393344E2,1.480287E2,4.6381554E1,1.9007117E3,1.7922896E2,1.1360254E1,8.369696E0,3.2124073E1,7.058703E2,9.2760124E1,1.4341281E2,6.749577E1,6.761065E2,4.189639E3],"tree_param":{"num_deleted":"0","num_feature":"16","num_nodes":"29","size_leaf_vector":"1"}},{"base_weights":[-3.0233306E-3,-1.24481454E-1,2.1741413E-2,-1.461068E-1,5.5379666E-2,7.02686E-2,-3.1132575E-2,-1.3489538E-1,-6.057033E-1,2.586392E-1,-2.21901E-1,1.5977958E-2,1.1966207E-1,-1.3442155E-2,-1.3250844E-1,-6.962396E-3,3.9506264E-2,-4.966746E-2,-9.496329E-3,-3.392341E-3,3.7226394E-2,1.2046143E-2,-1.7902391E-2,-2.131055E-3,8.337218E-3,-1.6985705E-2,6.473619E-3,-4.7270145E-4,-2.2384766E-2,-3.8708206E-3,-1.3224428E-2],"categories":[],"categories_nodes":[],"categories_segments":[],"categories_sizes":[],"default_left":[0,0,0,0,0,0,0,0,0,0,0,0,0,0,0,0,0,0,0,0,0,0,0,0,0,0,0,0,0,0,0],"id":25,"left_children":[1,3,5,7,9,11,13,15,17,19,21,23,25,27,29,-1,-1,-1,-1,-1,-1,-1,-1,-1,-1,-1,-1,-1,-1,-1,-1],"loss_changes":[2.6166878E1,5.7388134E0,1.854332E1,6.696707E0,9.010699E0,1.0103128E1,6.2013493E0,5.28553E0,4.814127E0,1.4665098E1,4.3542404E0,1.5877043E1,8.9354515E0,5.097996E0,3.715375E0,0E0,0E0,0E0,0E0,0E0,0E0,0E0,0E0,0E0,0E0,0E0,0E0,0E0,0E0,0E0,0E0],"parents":[2147483647,0,0,1,1,2,2,3,3,4,4,5,5,6,6,7,7,8,8,9,9,10,10,11,11,12,12,13,13,14,14],"right_children":[2,4,6,8,10,12,14,16,18,20,22,24,26,28,30,-1,-1,-1,-1,-1,-1,-1,-1,-1,-1,-1,-1,-1,-1,-1,-1],"split_conditions":[1.2987013E-2,1.2280702E-1,5E0,1.8181819E-1,7E0,3E0,9E0,1.4E0,2.7027026E-1,5E0,6.818182E-2,1.2195122E-1,3.2786883E-2,1.1111112E0,1.29771E-1,-6.962396E-3,3.9506264E-2,-4.966746E-2,-9.496329E-3,-3.392341E-3,3.7226394E-2,1.2046143E-2,-1.7902391E-2,-2.131055E-3,8.337218E-3,-1.6985705E-2,6.473619E-3,-4.7270145E-4,-2.2384766E-2,-3.8708206E-3,-1.3224428E-2],"split_indices":[4,5,9,3,9,9,9,7,1,9,3,5,5,8,3,0,0,0,0,0,0,0,0,0,0,0,0,0,0,0,0],"split_type":[0,0,0,0,0,0,0,0,0,0,0,0,0,0,0,0,0,0,0,0,0,0,0,0,0,0,0,0,0,0,0],"sum_hessian":[8.697545E3,1.4723604E3,7.2251846E3,1.3145009E3,1.5785942E2,3.767283E3,3.4579016E3,1.2844612E3,3.0039667E1,9.1126625E1,6.6732796E1,1.7953044E3,1.9719785E3,2.9451038E3,5.1279767E2,1.2792911E3,5.170035E0,1.4826845E1,1.5212822E1,5.5018257E1,3.610837E1,1.4993524E1,5.173927E1,1.2933352E3,5.0196915E2,4.0529327E1,1.9314492E3,2.919315E3,2.5788849E1,3.6290002E2,1.4989763E2],"tree_param":{"num_deleted":"0","num_feature":"16","num_nodes":"31","size_leaf_vector":"1"}},{"base_weights":[7.8727715E-3,-1.06491126E-1,3.7007168E-2,-1.8427192E-1,-4.2351086E-2,4.440876E-2,-3.0443582E-1,-1.1206611E-1,-4.1884184E-1,3.7773773E-3,-1.7068139E-1,-4.0796227E-3,8.6426914E-2,-1.9021806E-1,-6.9166285E-1,-1.9194725E-3,-1.193007E-2,-2.7874827E-2,-2.7303933E-3,-2.3311418E-3,7.2553293E-3,-2.1156846E-2,-3.6582723E-3,2.2242652E-2,-4.973558E-4,1.3243774E-3,7.0389784E-3,-2.948972E-2,-4.382885E-3,-4.546778E-2,1.4438796E-2],"categories":[],"categories_nodes":[],"categories_segments":[],"categories_sizes":[],"default_left":[0,0,0,0,0,0,0,0,0,0,0,0,0,0,0,0,0,0,0,0,0,0,0,0,0,0,0,0,0,0,0],"id":26,"left_children":[1,3,5,7,9,11,13,15,17,19,21,23,25,27,29,-1,-1,-1,-1,-1,-1,-1,-1,-1,-1,-1,-1,-1,-1,-1,-1],"loss_changes":[2.9062798E1,8.827219E0,1.758125E1,1.3504066E1,5.753866E0,1.3864358E1,6.3973265E0,5.7067895E0,9.461391E0,5.1060295E0,6.295872E0,8.328504E0,1.18733635E1,4.676387E0,7.3581724E0,0E0,0E0,0E0,0E0,0E0,0E0,0E0,0E0,0E0,0E0,0E0,0E0,0E0,0E0,0E0,0E0],"parents":[2147483647,0,0,1,1,2,2,3,3,4,4,5,5,6,6,7,7,8,8,9,9,10,10,11,11,12,12,13,13,14,14],"right_children":[2,4,6,8,10,12,14,16,18,20,22,24,26,28,30,-1,-1,-1,-1,-1,-1,-1,-1,-1,-1,-1,-1,-1,-1,-1,-1],"split_conditions":[1.5122874E-2,1.4285715E-1,3.6363637E-1,1.2280702E-1,6E-1,3.8355E0,1.4545454E-1,3.6561E0,9.52381E-2,1.2307692E-1,5.172414E-2,1.5503876E-2,3.5714287E-2,3.846154E-2,2.6875E-1,-1.9194725E-3,-1.193007E-2,-2.7874827E-2,-2.7303933E-3,-2.3311418E-3,7.2553293E-3,-2.1156846E-2,-3.6582723E-3,2.2242652E-2,-4.973558E-4,1.3243774E-3,7.0389784E-3,-2.948972E-2,-4.382885E-3,-4.546778E-2,1.4438796E-2],"split_indices":[4,15,6,3,7,14,3,14,2,3,5,4,4,5,0,0,0,0,0,0,0,0,0,0,0,0,0,0,0,0,0],"split_type":[0,0,0,0,0,0,0,0,0,0,0,0,0,0,0,0,0,0,0,0,0,0,0,0,0,0,0,0,0,0,0],"sum_hessian":[8.720347E3,1.7699491E3,6.9503975E3,7.9906854E2,9.7088055E2,6.8037793E3,1.4661829E2,6.1212177E2,1.8694682E2,7.14885E2,2.5599559E2,3.1591108E3,3.6446685E3,1.1437352E2,3.224476E1,3.8768875E2,2.2443298E2,1.3501819E2,5.1928627E1,5.27456E2,1.8742899E2,7.0400116E1,1.8559547E2,3.9791275E1,3.1193196E3,1.733964E3,1.9107045E3,2.2390228E1,9.198329E1,2.6445425E1,5.799334E0],"tree_param":{"num_deleted":"0","num_feature":"16","num_nodes":"31","size_leaf_vector":"1"}},{"base_weights":[4.741092E-3,6.051222E-2,-4.6410274E-2,-1.08260825E-1,8.400594E-2,-5.727382E-2,1.4126468E-1,-3.1103432E-1,7.737297E-2,1.6127092E-1,3.6239132E-2,-5.9503887E-2,4.5103323E-2,1.9431894E-1,-3.644055E-1,-2.938895E-2,-3.3752583E-3,2.1066679E-2,-2.037884E-4,1.126873E-2,3.240749E-3,-3.1200828E-4,7.701818E-3,-7.186476E-4,-5.5399477E-3,-1.1261697E-3,1.6751382E-2,-3.602273E-2,1.5608382E-2],"categories":[],"categories_nodes":[],"categories_segments":[],"categories_sizes":[],"default_left":[0,0,0,0,0,0,0,0,0,0,0,0,0,0,0,0,0,0,0,0,0,0,0,0,0,0,0,0,0],"id":27,"left_children":[1,3,5,7,9,11,13,15,17,19,21,23,-1,25,27,-1,-1,-1,-1,-1,-1,-1,-1,-1,-1,-1,-1,-1,-1],"loss_changes":[2.4866213E1,1.6543259E1,9.277804E0,1.9220272E1,1.3505606E1,9.249963E0,6.752807E0,1.6400324E1,7.482867E0,8.631496E0,1.1327969E1,9.928614E0,0E0,6.905307E0,6.0059385E0,0E0,0E0,0E0,0E0,0E0,0E0,0E0,0E0,0E0,0E0,0E0,0E0,0E0,0E0],"parents":[2147483647,0,0,1,1,2,2,3,3,4,4,5,5,6,6,7,7,8,8,9,9,10,10,11,11,13,13,14,14],"right_children":[2,4,6,8,10,12,14,16,18,20,22,24,-1,26,28,-1,-1,-1,-1,-1,-1,-1,-1,-1,-1,-1,-1,-1,-1],"split_conditions":[5E0,1.5384616E-1,4.664179E-1,2.1428572E-1,4.022E0,6.923077E-1,2.0833333E-1,1E0,1.3253012E-1,9.2857145E-2,1.2195122E-1,2.3943663E-1,4.5103323E-2,2.849741E-1,1E0,-2.938895E-2,-3.3752583E-3,2.1066679E-2,-2.037884E-4,1.126873E-2,3.240749E-3,-3.1200828E-4,7.701818E-3,-7.186476E-4,-5.5399477E-3,-1.1261697E-3,1.6751382E-2,-3.602273E-2,1.5608382E-2],"split_indices":[9,15,1,8,14,15,3,11,6,5,5,0,0,0,11,0,0,0,0,0,0,0,0,0,0,0,0,0,0],"split_type":[0,0,0,0,0,0,0,0,0,0,0,0,0,0,0,0,0,0,0,0,0,0,0,0,0,0,0,0,0],"sum_hessian":[8.714533E3,4.168916E3,4.5456167E3,5.0897296E2,3.6599434E3,4.2975483E3,2.4806839E2,2.4293361E2,2.6603937E2,1.397327E3,2.2626162E3,4.2885176E3,9.031046E0,2.2507005E2,2.2998337E1,1.1305041E2,1.298832E2,5.0136852E1,2.1590253E2,8.386391E2,5.58688E2,1.663634E3,5.989822E2,2.2820134E3,2.0065039E3,8.890339E1,1.3616666E2,1.5025995E1,7.9723415E0],"tree_param":{"num_deleted":"0","num_feature":"16","num_nodes":"29","size_leaf_vector":"1"}},{"base_weights":[5.063503E-3,-5.1685587E-2,7.1168534E-2,-1.21688E-1,8.004639E-3,6.39968E-4,1.2165369E-1,-2.2783197E-1,-4.6840936E-2,2.6089668E-2,-1.2191664E-1,-5.950003E-2,4.9739566E-2,9.8868445E-2,3.4622708E-1,-7.6872385E-3,-2.0784892E-2,-1.9250301E-3,-4.005349E-2,3.6733937E-3,-1.1813483E-3,-9.07153E-3,6.8338597E-3,-3.4920406E-3,3.6472853E-2,3.5910686E-3,-1.4816999E-2,-8.932802E-3,5.5533326E-3,8.873059E-3,2.7431566E-2],"categories":[],"categories_nodes":[],"categories_segments":[],"categories_sizes":[],"default_left":[0,0,0,0,0,0,0,0,0,0,0,0,0,0,0,0,0,0,0,0,0,0,0,0,0,0,0,0,0,0,0],"id":28,"left_children":[1,3,5,7,9,11,13,15,17,19,21,23,25,27,29,-1,-1,-1,-1,-1,-1,-1,-1,-1,-1,-1,-1,-1,-1,-1,-1],"loss_changes":[3.276481E1,1.963819E1,1.4365025E1,1.7173721E1,5.9655867E0,4.9758587E0,1.1997307E1,1.2382584E1,7.956816E0,5.2505717E0,4.799484E0,6.230171E0,7.1108084E0,7.25124E0,7.28743E0,0E0,0E0,0E0,0E0,0E0,0E0,0E0,0E0,0E0,0E0,0E0,0E0,0E0,0E0,0E0,0E0],"parents":[2147483647,0,0,1,1,2,2,3,3,4,4,5,5,6,6,7,7,8,8,9,9,10,10,11,11,12,12,13,13,14,14],"right_children":[2,4,6,8,10,12,14,16,18,20,22,24,26,28,30,-1,-1,-1,-1,-1,-1,-1,-1,-1,-1,-1,-1,-1,-1,-1,-1],"split_conditions":[3.3333334E-1,1E0,3.8709676E-1,4.6E1,9E0,1E0,1.4084508E-1,1.2631579E-1,1.8773006E-1,1.14503816E-1,1.01E2,1.94E2,2.8787878E-1,1.15207374E-1,1.6695958E-1,-7.6872385E-3,-2.0784892E-2,-1.9250301E-3,-4.005349E-2,3.6733937E-3,-1.1813483E-3,-9.07153E-3,6.8338597E-3,-3.4920406E-3,3.6472853E-2,3.5910686E-3,-1.4816999E-2,-8.932802E-3,5.5533326E-3,8.873059E-3,2.7431566E-2],"split_indices":[15,11,1,10,9,11,5,3,3,3,10,10,0,6,3,0,0,0,0,0,0,0,0,0,0,0,0,0,0,0,0],"split_type":[0,0,0,0,0,0,0,0,0,0,0,0,0,0,0,0,0,0,0,0,0,0,0,0,0,0,0,0,0,0,0],"sum_hessian":[8.73204E3,4.698631E3,4.0334087E3,2.1620376E3,2.5365933E3,1.6831016E3,2.3503071E3,8.932441E2,1.2687935E3,2.2273462E3,3.092472E2,7.5640344E2,9.2669806E2,2.1351182E3,2.1518909E2,6.419153E2,2.5132878E2,1.255956E3,1.2837428E1,1.1402501E3,1.0870961E3,2.5163351E2,5.7613678E1,7.475173E2,8.886155E0,8.7186096E2,5.4837116E1,8.93204E1,2.0457977E3,1.1836904E2,9.682004E1],"tree_param":{"num_deleted":"0","num_feature":"16","num_nodes":"31","size_leaf_vector":"1"}},{"base_weights":[-3.0655428E-3,-6.562629E-2,3.4505486E-2,-4.586103E-2,-2.2534047E-1,3.6618385E-2,-7.866824E-1,-1.0187209E-1,-8.578312E-3,-1.2040637E-1,-6.517402E-1,4.0249478E-2,-3.5198453E-1,-2.4585027E-2,-5.397287E-2,-5.9401123E-3,1.549684E-2,-1.0263181E-3,9.22417E-3,-2.4911558E-2,-2.7617502E-3,-3.746501E-2,1.3394228E-2,6.4377405E-4,4.1517373E-3,-2.281241E-2,2.306701E-2],"categories":[],"categories_nodes":[],"categories_segments":[],"categories_sizes":[],"default_left":[0,0,0,0,0,0,0,0,0,0,0,0,0,0,0,0,0,0,0,0,0,0,0,0,0,0,0],"id":29,"left_children":[1,3,5,7,9,11,13,15,17,19,21,23,25,-1,-1,-1,-1,-1,-1,-1,-1,-1,-1,-1,-1,-1,-1],"loss_changes":[2.051341E1,1.0326981E1,9.489836E0,6.086906E0,1.6045616E1,7.6899095E0,6.816273E-1,8.15867E0,4.043613E0,7.123642E0,6.565584E0,6.3120346E0,4.4895625E0,0E0,0E0,0E0,0E0,0E0,0E0,0E0,0E0,0E0,0E0,0E0,0E0,0E0,0E0],"parents":[2147483647,0,0,1,1,2,2,3,3,4,4,5,5,6,6,7,7,8,8,9,9,10,10,11,11,12,12],"right_children":[2,4,6,8,10,12,14,16,18,20,22,24,26,-1,-1,-1,-1,-1,-1,-1,-1,-1,-1,-1,-1,-1,-1],"split_conditions":[2.6666668E-1,1.440501E-1,1.4166666E0,9.090909E-2,2.7027026E-1,3.809524E-1,9.2857145E-2,1.493776E-1,6.666667E-1,8.3333336E-2,1.632653E-1,4.0625E-1,2.538941E-1,-2.4585027E-2,-5.397287E-2,-5.9401123E-3,1.549684E-2,-1.0263181E-3,9.22417E-3,-2.4911558E-2,-2.7617502E-3,-3.746501E-2,1.3394228E-2,6.4377405E-4,4.1517373E-3,-2.281241E-2,2.306701E-2],"split_indices":[15,3,8,2,6,6,5,5,8,8,2,1,0,0,0,0,0,0,0,0,0,0,0,0,0,0,0],"split_type":[0,0,0,0,0,0,0,0,0,0,0,0,0,0,0,0,0,0,0,0,0,0,0,0,0,0,0],"sum_hessian":[8.725395E3,3.2736262E3,5.4517686E3,2.914262E3,3.5936426E2,5.4387305E3,1.3038332E1,1.1639258E3,1.7503362E3,2.8942188E2,6.99424E1,5.3892695E3,4.9460682E1,7.8293815E0,5.2089505E0,1.1186478E3,4.5277992E1,1.6491675E3,1.01168686E2,4.160072E1,2.4782115E2,6.3401543E1,6.5408516E0,3.2873352E3,2.1019346E3,4.4229713E1,5.230967E0],"tree_param":{"num_deleted":"0","num_feature":"16","num_nodes":"27","size_leaf_vector":"1"}},{"base_weights":[-5.178361E-4,-1.422268E-1,1.2437965E-2,-4.5252647E-3,-2.3670003E-1,2.091545E-2,-2.7217403E-1,-5.9211414E-2,5.551042E-1,-1.4681837E-1,-4.5507455E-1,3.317263E-2,-1.20827235E-1,-4.5324162E-1,-8.6983494E-2,-5.4608784E-3,1.5896035E-2,9.400106E-3,7.210108E-2,9.549115E-3,-1.2054189E-2,-3.5018325E-2,-1.0881218E-2,1.7324503E-3,-3.974105E-2,-1.3193181E-3,-1.4240752E-2,-2.865584E-2,-8.180252E-3,3.6362138E-2,-8.682921E-3],"categories":[],"categories_nodes":[],"categories_segments":[],"categories_sizes":[],"default_left":[0,0,0,0,0,0,0,0,0,0,0,0,0,0,0,0,0,0,0,0,0,0,0,0,0,0,0,0,0,0,0],"id":30,"left_children":[1,3,5,7,9,11,13,15,17,19,21,23,25,27,29,-1,-1,-1,-1,-1,-1,-1,-1,-1,-1,-1,-1,-1,-1,-1,-1],"loss_changes":[1.6019974E1,9.507613E0,1.9295525E1,9.166231E0,8.441631E0,1.349377E1,7.717123E0,5.1789465E0,8.410128E0,9.871735E0,7.1817837E0,8.764596E0,9.566766E0,3.9588966E0,8.284132E0,0E0,0E0,0E0,0E0,0E0,0E0,0E0,0E0,0E0,0E0,0E0,0E0,0E0,0E0,0E0,0E0],"parents":[2147483647,0,0,1,1,2,2,3,3,4,4,5,5,6,6,7,7,8,8,9,9,10,10,11,11,12,12,13,13,14,14],"right_children":[2,4,6,8,10,12,14,16,18,20,22,24,26,28,30,-1,-1,-1,-1,-1,-1,-1,-1,-1,-1,-1,-1,-1,-1,-1,-1],"split_conditions":[3.3670033E-3,1.5E1,3.445946E-1,3.6363637E-1,2.4074075E-1,9E0,7E0,1.3970588E-1,8.3516486E-2,4.6511628E-2,8E0,1.4166666E0,2.4561404E-1,3.5714287E-1,1.6393442E-2,-5.4608784E-3,1.5896035E-2,9.400106E-3,7.210108E-2,9.549115E-3,-1.2054189E-2,-3.5018325E-2,-1.0881218E-2,1.7324503E-3,-3.974105E-2,-1.3193181E-3,-1.4240752E-2,-2.865584E-2,-8.180252E-3,3.6362138E-2,-8.682921E-3],"split_indices":[4,10,6,6,6,9,9,5,5,5,9,8,0,15,4,0,0,0,0,0,0,0,0,0,0,0,0,0,0,0,0],"split_type":[0,0,0,0,0,0,0,0,0,0,0,0,0,0,0,0,0,0,0,0,0,0,0,0,0,0,0,0,0,0,0],"sum_hessian":[8.723735E3,7.299252E2,7.99381E3,2.974371E2,4.324881E2,7.763492E3,2.3031776E2,2.7177396E2,2.5663145E1,3.075675E2,1.2492061E2,7.146284E3,6.17208E2,1.15723366E2,1.145944E2,2.4058392E2,3.119003E1,1.9007685E1,6.6554594E0,6.687926E1,2.4068823E2,6.0486755E1,6.443385E1,7.134521E3,1.1763244E1,3.923905E2,2.2481749E2,8.115577E1,3.4567596E1,1.0313997E1,1.042804E2],"tree_param":{"num_deleted":"0","num_feature":"16","num_nodes":"31","size_leaf_vector":"1"}},{"base_weights":[-8.478689E-5,-3.006015E-2,6.279382E-2,-9.1244385E-2,2.1770345E-2,5.4962333E-2,3.6964726E-1,-2.54768E-1,-5.564169E-2,1.1644687E-2,1.5643144E-1,5.791209E-2,-4.916101E-2,2.1892837E-1,1.1029338E0,-4.532298E-2,-1.0392162E-2,-4.0003408E-5,-1.0125078E-2,2.7292997E-3,-9.872079E-4,1.7917851E-3,1.9716531E-2,-7.4150534E-3,3.4452793E-3,5.404767E-2,5.848415E-3,6.819422E-2,3.2740176E-2],"categories":[],"categories_nodes":[],"categories_segments":[],"categories_sizes":[],"default_left":[0,0,0,0,0,0,0,0,0,0,0,0,0,0,0,0,0,0,0,0,0,0,0,0,0,0,0,0,0],"id":31,"left_children":[1,3,5,7,9,11,13,15,17,19,21,23,-1,25,27,-1,-1,-1,-1,-1,-1,-1,-1,-1,-1,-1,-1,-1,-1],"loss_changes":[1.6355541E1,1.863679E1,6.711569E0,1.5676607E1,4.337082E0,8.4257345E0,7.4442053E0,1.4539066E1,1.7835838E1,3.9916668E0,6.3681664E0,6.190012E0,0E0,5.0532346E0,4.644518E-1,0E0,0E0,0E0,0E0,0E0,0E0,0E0,0E0,0E0,0E0,0E0,0E0,0E0,0E0],"parents":[2147483647,0,0,1,1,2,2,3,3,4,4,5,5,6,6,7,7,8,8,9,9,10,10,11,11,13,13,14,14],"right_children":[2,4,6,8,10,12,14,16,18,20,22,24,-1,26,28,-1,-1,-1,-1,-1,-1,-1,-1,-1,-1,-1,-1,-1,-1],"split_conditions":[3.5714287E-1,1E0,7.5E-1,1E0,1.5789473E-1,1.4166666E0,1.3255814E-1,1.75E-1,1.2830189E-1,1.0852713E-1,3.3333334E-1,8.358209E-2,-4.916101E-2,2.9850746E-2,8.75E-1,-4.532298E-2,-1.0392162E-2,-4.0003408E-5,-1.0125078E-2,2.7292997E-3,-9.872079E-4,1.7917851E-3,1.9716531E-2,-7.4150534E-3,3.4452793E-3,5.404767E-2,5.848415E-3,6.819422E-2,3.2740176E-2],"split_indices":[15,11,15,12,2,8,5,0,3,3,15,2,0,5,8,0,0,0,0,0,0,0,0,0,0,0,0,0,0],"split_type":[0,0,0,0,0,0,0,0,0,0,0,0,0,0,0,0,0,0,0,0,0,0,0,0,0,0,0,0,0],"sum_hessian":[8.675558E3,5.875245E3,2.800313E3,2.6941394E3,3.1811057E3,2.7317722E3,6.854091E1,4.8059674E2,2.2135427E3,2.9596455E3,2.2146008E2,2.7249739E3,6.798161E0,5.7932156E1,1.0608754E1,3.1050468E1,4.4954626E2,1.6124236E3,6.01119E2,1.2495151E3,1.7101304E3,1.477257E2,7.373439E1,1.3728716E2,2.5876868E3,5.1118765E0,5.2820282E1,5.4131336E0,5.1956205E0],"tree_param":{"num_deleted":"0","num_feature":"16","num_nodes":"29","size_leaf_vector":"1"}},{"base_weights":[-3.5789593E-3,4.328601E-2,-4.6907082E-2,5.332433E-2,-3.7267044E-1,-4.403394E-2,-4.8644367E-1,-1.7122021E-1,6.874228E-2,-7.001832E-1,-1.16725296E-1,-5.6016143E-2,7.749197E-2,1.640156E-2,-8.340615E-1,5.1791086E-3,-1.4352991E-2,-1.0675974E-2,3.968397E-3,-4.050216E-2,4.0172804E-3,5.390872E-3,-2.181875E-2,-1.0468259E-3,-5.1234053E-3,-1.060556E-3,2.0696333E-2,-6.208381E-2,-2.8962204E-2],"categories":[],"categories_nodes":[],"categories_segments":[],"categories_sizes":[],"default_left":[0,0,0,0,0,0,0,0,0,0,0,0,0,0,0,0,0,0,0,0,0,0,0,0,0,0,0,0,0],"id":32,"left_children":[1,3,5,7,9,11,13,15,17,19,21,23,25,-1,27,-1,-1,-1,-1,-1,-1,-1,-1,-1,-1,-1,-1,-1,-1],"loss_changes":[1.7701927E1,1.7506744E1,5.69897E0,1.4171949E1,8.201232E0,6.559083E0,8.574279E0,8.40452E0,1.1498156E1,3.7647915E0,4.1142774E0,6.6756315E0,1.343833E1,0E0,1.4443579E0,0E0,0E0,0E0,0E0,0E0,0E0,0E0,0E0,0E0,0E0,0E0,0E0,0E0,0E0],"parents":[2147483647,0,0,1,1,2,2,3,3,4,4,5,5,6,6,7,7,8,8,9,9,10,10,11,11,12,12,14,14],"right_children":[2,4,6,8,10,12,14,16,18,20,22,24,26,-1,28,-1,-1,-1,-1,-1,-1,-1,-1,-1,-1,-1,-1,-1,-1],"split_conditions":[5E0,3.3333334E-1,1.1E0,9.433962E-3,1E0,1E0,1E0,1E0,3.9215688E-2,7.5E-1,2.2058824E-1,2.431611E-1,4.2857143E-1,1.640156E-2,2.3741007E-1,5.1791086E-3,-1.4352991E-2,-1.0675974E-2,3.968397E-3,-4.050216E-2,4.0172804E-3,5.390872E-3,-2.181875E-2,-1.0468259E-3,-5.1234053E-3,-1.060556E-3,2.0696333E-2,-6.208381E-2,-2.8962204E-2],"split_indices":[9,6,8,4,11,7,12,12,5,8,0,0,1,0,0,0,0,0,0,0,0,0,0,0,0,0,0,0,0],"split_type":[0,0,0,0,0,0,0,0,0,0,0,0,0,0,0,0,0,0,0,0,0,0,0,0,0,0,0,0,0],"sum_hessian":[8.71571E3,4.186966E3,4.528744E3,4.0891533E3,9.781218E1,4.500426E3,2.8317976E1,2.6208496E2,3.8270684E3,4.2145824E1,5.5666355E1,4.0970083E3,4.034175E2,8.487636E0,1.983034E1,7.774914E1,1.8433583E2,1.3814943E2,3.688919E3,3.691254E1,5.2332816E0,3.308676E1,2.2579592E1,2.335064E3,1.7619446E3,3.12634E2,9.07835E1,6.1383753E0,1.3691964E1],"tree_param":{"num_deleted":"0","num_feature":"16","num_nodes":"29","size_leaf_vector":"1"}},{"base_weights":[2.880478E-3,-9.4723105E-2,2.3878284E-2,-5.5979032E-2,-2.2221866E-1,-2.3701012E-2,5.882365E-2,-6.1821528E-2,5.2544393E-2,-1.0428071E-1,-4.5861927E-1,-3.2727078E-2,1.5234065E-1,-3.9707083E-1,6.32922E-2,4.5863842E-4,-6.8895645E-3,-2.694231E-4,-3.2341566E-2,-1.7672114E-2,-4.385791E-2,-1.0864187E-3,-1.10632805E-2,3.8252007E-2,3.4640622E-3,-3.0010543E-3,-3.1962045E-2,5.5141235E-3,1.1743712E-3],"categories":[],"categories_nodes":[],"categories_segments":[],"categories_sizes":[],"default_left":[0,0,0,0,0,0,0,0,0,0,0,0,0,0,0,0,0,0,0,0,0,0,0,0,0,0,0,0,0],"id":33,"left_children":[1,3,5,7,9,11,13,15,-1,17,19,21,23,25,27,-1,-1,-1,-1,-1,-1,-1,-1,-1,-1,-1,-1,-1,-1],"loss_changes":[1.787623E1,7.6157665E0,1.1936142E1,7.732689E0,9.977268E0,4.835877E0,8.456556E0,6.367724E0,0E0,1.2937157E1,4.9454136E0,5.9939766E0,7.502008E0,3.251923E0,7.665167E0,0E0,0E0,0E0,0E0,0E0,0E0,0E0,0E0,0E0,0E0,0E0,0E0,0E0,0E0],"parents":[2147483647,0,0,1,1,2,2,3,3,4,4,5,5,6,6,7,7,9,9,10,10,11,11,12,12,13,13,14,14],"right_children":[2,4,6,8,10,12,14,16,-1,18,20,22,24,26,28,-1,-1,-1,-1,-1,-1,-1,-1,-1,-1,-1,-1,-1,-1],"split_conditions":[8.358209E-2,2.7184466E-1,3.8319E0,4.7945205E-2,2.1588947E-1,4.871795E-1,2.4444444E-1,2.4277456E-1,5.2544393E-2,1.3402061E-1,3.9668E0,1.5555556E-1,4.9337748E-1,3.9668E0,4.022E0,4.5863842E-4,-6.8895645E-3,-2.694231E-4,-3.2341566E-2,-1.7672114E-2,-4.385791E-2,-1.0864187E-3,-1.10632805E-2,3.8252007E-2,3.4640622E-3,-3.0010543E-3,-3.1962045E-2,5.5141235E-3,1.1743712E-3],"split_indices":[2,6,14,4,0,1,1,0,0,3,14,3,1,14,14,0,0,0,0,0,0,0,0,0,0,0,0,0,0],"split_type":[0,0,0,0,0,0,0,0,0,0,0,0,0,0,0,0,0,0,0,0,0,0,0,0,0,0,0,0,0],"sum_hessian":[8.720303E3,1.543266E3,7.1770366E3,1.1846936E3,3.5857233E2,3.0392783E3,4.1377583E3,1.1794124E3,5.2812743E0,2.4018666E2,1.1838567E2,2.891822E3,1.4745634E2,3.931065E1,4.0984473E3,6.101252E2,5.692872E2,2.0401094E2,3.6175724E1,9.608452E1,2.2301151E1,2.7334753E3,1.583465E2,1.662308E1,1.3083327E2,1.6957386E1,2.2353266E1,1.8787628E3,2.2196846E3],"tree_param":{"num_deleted":"0","num_feature":"16","num_nodes":"29","size_leaf_vector":"1"}},{"base_weights":[-6.306781E-3,-9.1452576E-2,1.6441299E-2,-1.645686E-1,-3.2534435E-2,-4.676665E-2,4.381086E-2,-1.0109439E-1,-4.1754436E-1,-1.4118776E-1,4.5190673E-2,5.0802913E-2,-1.02838054E-1,-1.1653889E-1,5.7148643E-2,-2.756161E-3,-1.8623233E-2,-2.8938388E-2,-4.412521E-3,1.9414697E-2,-8.33758E-3,-4.8333714E-3,6.2720864E-3,-3.242572E-3,7.397563E-3,-1.0401861E-2,1.4371317E-3,-2.9713933E-3,-2.4107385E-2,3.4585127E-3,-1.97223E-3],"categories":[],"categories_nodes":[],"categories_segments":[],"categories_sizes":[],"default_left":[0,0,0,0,0,0,0,0,0,0,0,0,0,0,0,0,0,0,0,0,0,0,0,0,0,0,0,0,0,0,0],"id":34,"left_children":[1,3,5,7,9,11,13,15,17,19,21,23,25,27,29,-1,-1,-1,-1,-1,-1,-1,-1,-1,-1,-1,-1,-1,-1,-1,-1],"loss_changes":[1.6817099E1,7.8805237E0,1.1856022E1,1.3070614E1,8.577798E0,1.1335203E1,1.0234281E1,8.140003E0,8.6280575E0,5.7971916E0,6.7567267E0,8.50902E0,1.821532E1,7.6460795E0,5.1301327E0,0E0,0E0,0E0,0E0,0E0,0E0,0E0,0E0,0E0,0E0,0E0,0E0,0E0,0E0,0E0,0E0],"parents":[2147483647,0,0,1,1,2,2,3,3,4,4,5,5,6,6,7,7,8,8,9,9,10,10,11,11,12,12,13,13,14,14],"right_children":[2,4,6,8,10,12,14,16,18,20,22,24,26,28,30,-1,-1,-1,-1,-1,-1,-1,-1,-1,-1,-1,-1,-1,-1,-1,-1],"split_conditions":[1.6666667E-1,1E0,4E1,3.9668E0,2.2252011E-1,1.04166664E-1,8.3333336E-2,3.015873E-1,4.2241E0,9E0,8.924949E-2,1E0,3.5714287E-1,2.5316456E-2,8E0,-2.756161E-3,-1.8623233E-2,-2.8938388E-2,-4.412521E-3,1.9414697E-2,-8.33758E-3,-4.8333714E-3,6.2720864E-3,-3.242572E-3,7.397563E-3,-1.0401861E-2,1.4371317E-3,-2.9713933E-3,-2.4107385E-2,3.4585127E-3,-1.97223E-3],"split_indices":[15,11,10,14,0,2,2,6,14,10,2,11,15,4,9,0,0,0,0,0,0,0,0,0,0,0,0,0,0,0,0],"split_type":[0,0,0,0,0,0,0,0,0,0,0,0,0,0,0,0,0,0,0,0,0,0,0,0,0,0,0,0,0,0,0],"sum_hessian":[8.68069E3,1.8295785E3,6.8511113E3,8.1562006E2,1.0139585E3,2.0699675E3,4.781144E3,6.5314014E2,1.6247993E2,4.2250903E2,5.9144946E2,7.554707E2,1.3144968E3,3.6655865E2,4.414585E3,5.5955286E2,9.358729E1,1.08567375E2,5.3912548E1,1.8806068E1,4.0370297E2,2.1362482E2,3.7782462E2,3.4503806E2,4.1043268E2,7.301548E2,5.8434204E2,3.1804068E2,4.8517956E1,3.9262266E3,4.8835867E2],"tree_param":{"num_deleted":"0","num_feature":"16","num_nodes":"31","size_leaf_vector":"1"}},{"base_weights":[-5.174895E-3,-9.902693E-2,1.34213595E-2,-1.8781264E-1,-2.5047982E-2,5.1615205E-2,-2.8328987E-2,-1.3958909E-1,-4.3084145E-1,-1.4136587E-1,5.069119E-2,-3.5601966E-3,1.0164504E-1,-1.2190735E-2,-1.2244864E-1,-2.510648E-2,-5.9161615E-3,-5.2311984E-3,-2.5928719E-2,-3.3782476E-3,-2.0916507E-2,1.2746281E-2,-5.734326E-4,-7.689696E-3,1.6855532E-3,1.1034688E-2,3.2165304E-3,-1.0007484E-3,1.1287124E-2,-7.5450703E-3,1.1938638E-2],"categories":[],"categories_nodes":[],"categories_segments":[],"categories_sizes":[],"default_left":[0,0,0,0,0,0,0,0,0,0,0,0,0,0,0,0,0,0,0,0,0,0,0,0,0,0,0,0,0,0,0],"id":35,"left_children":[1,3,5,7,9,11,13,15,17,19,21,23,25,27,29,-1,-1,-1,-1,-1,-1,-1,-1,-1,-1,-1,-1,-1,-1,-1,-1],"loss_changes":[1.5170607E1,9.43711E0,1.1570381E1,7.5952473E0,6.925364E0,1.0460263E1,5.264296E0,4.1542015E0,3.0273762E0,6.307101E0,6.050099E0,1.010048E1,8.813961E0,5.515855E0,5.250099E0,0E0,0E0,0E0,0E0,0E0,0E0,0E0,0E0,0E0,0E0,0E0,0E0,0E0,0E0,0E0,0E0],"parents":[2147483647,0,0,1,1,2,2,3,3,4,4,5,5,6,6,7,7,8,8,9,9,10,10,11,11,12,12,13,13,14,14],"right_children":[2,4,6,8,10,12,14,16,18,20,22,24,26,28,30,-1,-1,-1,-1,-1,-1,-1,-1,-1,-1,-1,-1,-1,-1,-1,-1],"split_conditions":[1.2987013E-2,1E0,5E0,1.328125E-1,2.2252011E-1,3E0,9E0,1.5789473E-1,4.522613E-2,1.17082536E-1,2.431611E-1,2.3943663E-1,1.0824742E-1,1.66E2,1E0,-2.510648E-2,-5.9161615E-3,-5.2311984E-3,-2.5928719E-2,-3.3782476E-3,-2.0916507E-2,1.2746281E-2,-5.734326E-4,-7.689696E-3,1.6855532E-3,1.1034688E-2,3.2165304E-3,-1.0007484E-3,1.1287124E-2,-7.5450703E-3,1.1938638E-2],"split_indices":[4,11,9,3,0,9,9,1,5,3,0,0,3,10,7,0,0,0,0,0,0,0,0,0,0,0,0,0,0,0,0],"split_type":[0,0,0,0,0,0,0,0,0,0,0,0,0,0,0,0,0,0,0,0,0,0,0,0,0,0,0,0,0,0,0],"sum_hessian":[8.69052E3,1.4364884E3,7.254031E3,6.52206E2,7.842825E2,3.788248E3,3.4657827E3,5.455319E2,1.0667406E2,3.0894608E2,4.7533636E2,1.8019244E3,1.9863236E3,2.9594666E3,5.0631622E2,2.8973822E1,5.165581E2,2.3073257E1,8.36008E1,2.449261E2,6.401997E1,1.1019032E2,3.6514606E2,3.575557E2,1.4443688E3,4.7284265E2,1.513481E3,2.866132E3,9.3334435E1,4.6988635E2,3.6429863E1],"tree_param":{"num_deleted":"0","num_feature":"16","num_nodes":"31","size_leaf_vector":"1"}},{"base_weights":[1.653161E-3,-2.2326779E-2,6.0516324E-2,-1.3621213E-2,-2.017451E-1,-3.3616014E-2,9.572307E-2,-8.541501E-2,6.2261564E-3,-1.0590003E-1,-6.7282814E-1,-1.2747069E-1,1.302804E-1,-5.6254E-1,1.0170448E-1,-4.6653566E-3,2.3293905E-2,1.0259736E-2,3.1588756E-5,-2.7455369E-2,-1.9228052E-3,7.015229E-3,-3.996926E-2,1.3064486E-2,-9.4289025E-3,2.709047E-2,1.8018177E-3,-4.565164E-2,-8.064041E-3,6.7698294E-3,-4.1959316E-5],"categories":[],"categories_nodes":[],"categories_segments":[],"categories_sizes":[],"default_left":[0,0,0,0,0,0,0,0,0,0,0,0,0,0,0,0,0,0,0,0,0,0,0,0,0,0,0,0,0,0,0],"id":36,"left_children":[1,3,5,7,9,11,13,15,17,19,21,23,25,27,29,-1,-1,-1,-1,-1,-1,-1,-1,-1,-1,-1,-1,-1,-1,-1,-1],"loss_changes":[1.226597E1,9.64142E0,8.339367E0,8.393061E0,1.2826417E1,1.0560266E1,7.266199E0,5.593745E0,5.137035E0,7.109536E0,5.0626755E0,1.0415336E1,9.679663E0,2.1930118E0,6.271776E0,0E0,0E0,0E0,0E0,0E0,0E0,0E0,0E0,0E0,0E0,0E0,0E0,0E0,0E0,0E0,0E0],"parents":[2147483647,0,0,1,1,2,2,3,3,4,4,5,5,6,6,7,7,8,8,9,9,10,10,11,11,12,12,13,13,14,14],"right_children":[2,4,6,8,10,12,14,16,18,20,22,24,26,28,30,-1,-1,-1,-1,-1,-1,-1,-1,-1,-1,-1,-1,-1,-1,-1,-1],"split_conditions":[5.555556E-1,3.36E-1,4E1,1.2987013E-2,1.4314115E-1,5.3398058E-2,2.7777778E-2,3.241895E-1,6.25E-2,4E0,1.875E-2,3.1111112E-1,1.2830189E-1,1.3868614E-1,1.28E2,-4.6653566E-3,2.3293905E-2,1.0259736E-2,3.1588756E-5,-2.7455369E-2,-1.9228052E-3,7.015229E-3,-3.996926E-2,1.3064486E-2,-9.4289025E-3,2.709047E-2,1.8018177E-3,-4.565164E-2,-8.064041E-3,6.7698294E-3,-4.1959316E-5],"split_indices":[8,6,10,4,3,4,5,6,2,9,4,1,3,2,10,0,0,0,0,0,0,0,0,0,0,0,0,0,0,0,0],"split_type":[0,0,0,0,0,0,0,0,0,0,0,0,0,0,0,0,0,0,0,0,0,0,0,0,0,0,0,0,0,0,0],"sum_hessian":[8.687852E3,6.173489E3,2.514363E3,5.8888325E3,2.8465643E2,6.844345E2,1.8299285E3,1.2746702E3,4.614162E3,2.3755005E2,4.7106388E1,4.353533E2,2.4908119E2,1.56403055E1,1.8142882E3,1.257499E3,1.7171164E1,1.2521223E2,4.48895E3,3.0431028E1,2.0711902E2,6.3296404E0,4.0776745E1,5.869082E1,3.7666248E2,4.552804E1,2.0355316E2,7.667479E0,7.9728265E0,1.3653601E3,4.48928E2],"tree_param":{"num_deleted":"0","num_feature":"16","num_nodes":"31","size_leaf_vector":"1"}},{"base_weights":[-1.9318556E-3,-4.9540337E-2,3.829465E-2,-1.0622821E-1,1.4567286E-2,-1.3016939E-1,4.8032086E-2,-5.8342367E-2,-1.8157405E-1,-4.1466914E-2,1.2706687E-1,-2.5239962E-1,2.5006148E-1,2.8662112E-1,3.8251042E-2,6.5865973E-4,-7.5990628E-3,-2.036164E-2,-5.317835E-3,1.9449119E-2,-2.9630128E-3,7.3552625E-3,-2.7832229E-2,-9.962047E-3,-4.5100123E-2,3.4524642E-2,-5.546432E-3,5.5817332E-2,1.2261923E-2,1.1996586E-3,7.993492E-3],"categories":[],"categories_nodes":[],"categories_segments":[],"categories_sizes":[],"default_left":[0,0,0,0,0,0,0,0,0,0,0,0,0,0,0,0,0,0,0,0,0,0,0,0,0,0,0,0,0,0,0],"id":37,"left_children":[1,3,5,7,9,11,13,15,17,19,21,23,25,27,29,-1,-1,-1,-1,-1,-1,-1,-1,-1,-1,-1,-1,-1,-1,-1,-1],"loss_changes":[1.6642817E1,1.4465029E1,7.7330813E0,7.6106014E0,1.178461E1,1.2037783E1,1.0382312E1,8.660561E0,1.3880596E1,9.582278E0,8.597001E0,6.570407E0,1.0121687E1,5.743142E0,7.4167857E0,0E0,0E0,0E0,0E0,0E0,0E0,0E0,0E0,0E0,0E0,0E0,0E0,0E0,0E0,0E0,0E0],"parents":[2147483647,0,0,1,1,2,2,3,3,4,4,5,5,6,6,7,7,8,8,9,9,10,10,11,11,12,12,13,13,14,14],"right_children":[2,4,6,8,10,12,14,16,18,20,22,24,26,28,30,-1,-1,-1,-1,-1,-1,-1,-1,-1,-1,-1,-1,-1,-1,-1,-1],"split_conditions":[1E0,6.9E1,1.1363637E-1,1.25E-1,4E-1,2.9677418E-1,1.2765957E-1,2.4074075E-1,2.1097047E-2,1.015625E-1,2.952381E-1,1.61E2,1.7021276E-2,2.8846154E-2,5.5900622E-2,6.5865973E-4,-7.5990628E-3,-2.036164E-2,-5.317835E-3,1.9449119E-2,-2.9630128E-3,7.3552625E-3,-2.7832229E-2,-9.962047E-3,-4.5100123E-2,3.4524642E-2,-5.546432E-3,5.5817332E-2,1.2261923E-2,1.1996586E-3,7.993492E-3],"split_indices":[11,10,6,3,1,0,6,6,4,6,6,10,4,5,4,0,0,0,0,0,0,0,0,0,0,0,0,0,0,0,0],"split_type":[0,0,0,0,0,0,0,0,0,0,0,0,0,0,0,0,0,0,0,0,0,0,0,0,0,0,0,0,0,0,0],"sum_hessian":[8.688218E3,3.978908E3,4.70931E3,2.1113057E3,1.8676024E3,2.5665433E2,4.452656E3,1.2919712E3,8.193345E2,1.2470825E3,6.2051996E2,1.9447421E2,6.218011E1,1.742351E2,4.2784204E3,7.33006E2,5.5896515E2,2.0372556E2,6.1560895E2,4.867581E1,1.1984066E3,6.0361395E2,1.6906021E1,1.8097156E2,1.350266E1,2.7597094E1,3.4583015E1,7.0431504E0,1.6719197E2,3.830547E3,4.4787338E2],"tree_param":{"num_deleted":"0","num_feature":"16","num_nodes":"31","size_leaf_vector":"1"}},{"base_weights":[1.1957856E-3,-2.3808038E-2,5.3004377E-2,-1.938364E-2,-3.5728446E-1,5.61265E-2,-6.2786794E-1,2.3743356E-2,-4.99087E-2,-4.7705966E-1,2.3472475E-1,4.8610993E-2,3.5672387E-1,-5.2517813E-2,-8.612154E-3,5.6666704E-3,-5.8239786E-4,-8.999657E-3,-1.3849078E-3,-3.2501984E-2,-9.456498E-3,-1.6478168E-2,4.358727E-2,2.7698777E-3,-1.7820813E-2,2.6479412E-2,-1.1979059E-2],"categories":[],"categories_nodes":[],"categories_segments":[],"categories_sizes":[],"default_left":[0,0,0,0,0,0,0,0,0,0,0,0,0,0,0,0,0,0,0,0,0,0,0,0,0,0,0],"id":38,"left_children":[1,3,5,7,9,11,13,15,17,19,21,23,25,-1,-1,-1,-1,-1,-1,-1,-1,-1,-1,-1,-1,-1,-1],"loss_changes":[1.1296965E1,8.671597E0,6.0697727E0,7.6445937E0,5.5690937E0,6.3686047E0,2.3291726E0,7.6332045E0,9.81863E0,3.0815697E0,5.183444E0,7.6033034E0,7.217908E0,0E0,0E0,0E0,0E0,0E0,0E0,0E0,0E0,0E0,0E0,0E0,0E0,0E0,0E0],"parents":[2147483647,0,0,1,1,2,2,3,3,4,4,5,5,6,6,7,7,8,8,9,9,10,10,11,11,12,12],"right_children":[2,4,6,8,10,12,14,16,18,20,22,24,26,-1,-1,-1,-1,-1,-1,-1,-1,-1,-1,-1,-1,-1,-1],"split_conditions":[3.5714287E-1,1.9444445E-1,1.4166666E0,2.0253165E-1,1.2E0,7.5E-1,1E0,2.3913044E-1,3E0,7E0,1.6E1,6E-1,2.6273885E-1,-5.2517813E-2,-8.612154E-3,5.6666704E-3,-5.8239786E-4,-8.999657E-3,-1.3849078E-3,-3.2501984E-2,-9.456498E-3,-1.6478168E-2,4.358727E-2,2.7698777E-3,-1.7820813E-2,2.6479412E-2,-1.1979059E-2],"split_indices":[15,2,8,6,7,15,13,0,9,9,10,1,6,0,0,0,0,0,0,0,0,0,0,0,0,0,0],"split_type":[0,0,0,0,0,0,0,0,0,0,0,0,0,0,0,0,0,0,0,0,0,0,0,0,0,0,0],"sum_hessian":[8.7187705E3,5.8810186E3,2.8377522E3,5.805058E3,7.596049E1,2.8257126E3,1.2039684E1,2.4059958E3,3.3990623E3,6.3339764E1,1.2620725E1,2.7579211E3,6.779158E1,5.569724E0,6.46996E0,6.806887E2,1.725307E3,4.9467972E2,2.9043826E3,3.8782627E1,2.4557137E1,6.9483547E0,5.6723695E0,2.7133203E3,4.4600643E1,5.264273E1,1.5148847E1],"tree_param":{"num_deleted":"0","num_feature":"16","num_nodes":"27","size_leaf_vector":"1"}},{"base_weights":[6.9030984E-3,-1.2294797E-1,1.8389141E-2,-8.383477E-2,-4.1589558E-1,-1.7356962E-2,4.862714E-2,-1.0772615E-1,3.5201976E-1,-6.0922915E-1,-1.8624413E-1,-1.07774325E-1,1.5393228E-2,-1.22620255E-1,5.8627788E-2,-8.8069466E-4,-1.04510365E-2,-8.737186E-3,3.2571133E-2,-1.8744586E-2,-4.8944633E-2,4.9811807E-3,-2.0838298E-2,-2.9120264E-3,-1.0530124E-2,-9.833782E-4,5.2265623E-3,-2.5676567E-2,-8.426821E-4,3.987118E-2,2.7999496E-3],"categories":[],"categories_nodes":[],"categories_segments":[],"categories_sizes":[],"default_left":[0,0,0,0,0,0,0,0,0,0,0,0,0,0,0,0,0,0,0,0,0,0,0,0,0,0,0,0,0,0,0],"id":39,"left_children":[1,3,5,7,9,11,13,15,17,19,21,23,25,27,29,-1,-1,-1,-1,-1,-1,-1,-1,-1,-1,-1,-1,-1,-1,-1,-1],"loss_changes":[1.2986283E1,8.072889E0,8.646772E0,6.5514E0,3.5759048E0,1.0858325E1,7.42879E0,5.416131E0,5.2773385E0,3.5030022E0,2.6392863E0,4.9538603E0,8.416243E0,9.890863E0,7.9086733E0,0E0,0E0,0E0,0E0,0E0,0E0,0E0,0E0,0E0,0E0,0E0,0E0,0E0,0E0,0E0,0E0],"parents":[2147483647,0,0,1,1,2,2,3,3,4,4,5,5,6,6,7,7,8,8,9,9,10,10,11,11,12,12,13,13,14,14],"right_children":[2,4,6,8,10,12,14,16,18,20,22,24,26,28,30,-1,-1,-1,-1,-1,-1,-1,-1,-1,-1,-1,-1,-1,-1,-1,-1],"split_conditions":[3.030303E-3,1.4492753E-1,1E0,1.493776E-1,2.7631578E-1,3.3333334E-1,3.75E-2,2.3529412E-1,1E0,3.8319E0,2.2222222E-1,1.2631579E-1,4.4444446E-2,1.4285715E-1,4.901961E-3,-8.8069466E-4,-1.04510365E-2,-8.737186E-3,3.2571133E-2,-1.8744586E-2,-4.8944633E-2,4.9811807E-3,-2.0838298E-2,-2.9120264E-3,-1.0530124E-2,-9.833782E-4,5.2265623E-3,-2.5676567E-2,-8.426821E-4,3.987118E-2,2.7999496E-3],"split_indices":[4,3,11,5,1,8,5,0,11,14,15,3,4,15,4,0,0,0,0,0,0,0,0,0,0,0,0,0,0,0,0],"split_type":[0,0,0,0,0,0,0,0,0,0,0,0,0,0,0,0,0,0,0,0,0,0,0,0,0,0,0,0,0,0,0],"sum_hessian":[8.704491E3,7.0659924E2,7.9978916E3,6.245041E2,8.209514E1,3.665324E3,4.3325674E3,5.927645E2,3.1739573E1,4.367457E1,3.842057E1,9.739987E2,2.6913252E3,2.384349E2,4.0941326E3,3.1431866E2,2.7844586E2,1.1653318E1,2.0086254E1,2.7962618E1,1.5711951E1,1.7404842E1,2.101573E1,6.5840295E2,3.1559573E2,1.932135E3,7.5919025E2,4.9953297E1,1.884816E2,1.344417E1,4.0806885E3],"tree_param":{"num_deleted":"0","num_feature":"16","num_nodes":"31","size_leaf_vector":"1"}},{"base_weights":[9.6426427E-4,-7.15799E-2,1.9691162E-2,2.672433E-1,-8.45009E-2,1.2238017E-2,1.593066E-1,1.435338E-1,8.2050717E-1,-1.2905037E-1,1.2057321E-2,-4.056192E-2,3.488611E-2,2.5041738E-1,-4.4091713E-2,-5.9294165E-3,1.8437577E-2,6.478441E-2,8.939984E-3,-9.852927E-3,-8.328572E-4,-2.1692151E-2,2.1719958E-3,-6.4276904E-3,-3.7052287E-4,2.0031503E-3,-1.3577798E-2,3.0419633E-2,8.402578E-3,-1.8432448E-2,6.802325E-3],"categories":[],"categories_nodes":[],"categories_segments":[],"categories_sizes":[],"default_left":[0,0,0,0,0,0,0,0,0,0,0,0,0,0,0,0,0,0,0,0,0,0,0,0,0,0,0,0,0,0,0],"id":40,"left_children":[1,3,5,7,9,11,13,15,17,19,21,23,25,27,29,-1,-1,-1,-1,-1,-1,-1,-1,-1,-1,-1,-1,-1,-1,-1,-1],"loss_changes":[1.1793937E1,7.8207617E0,7.1781464E0,4.37713E0,7.385597E0,7.83585E0,6.4897823E0,3.2837663E0,3.3631E0,8.975836E0,7.6153383E0,5.7372236E0,7.285271E0,7.021228E0,6.4231358E0,0E0,0E0,0E0,0E0,0E0,0E0,0E0,0E0,0E0,0E0,0E0,0E0,0E0,0E0,0E0,0E0],"parents":[2147483647,0,0,1,1,2,2,3,3,4,4,5,5,6,6,7,7,8,8,9,9,10,10,11,11,12,12,13,13,14,14],"right_children":[2,4,6,8,10,12,14,16,18,20,22,24,26,28,30,-1,-1,-1,-1,-1,-1,-1,-1,-1,-1,-1,-1,-1,-1,-1,-1],"split_conditions":[1.4285715E-1,1E1,1.65E2,4.022E0,3.0769232E-1,3.6561E0,4.56621E-2,1E0,6.7961164E-2,6.9E1,2E0,1E0,3.4868422E-1,3.6883E0,1.74E2,-5.9294165E-3,1.8437577E-2,6.478441E-2,8.939984E-3,-9.852927E-3,-8.328572E-4,-2.1692151E-2,2.1719958E-3,-6.4276904E-3,-3.7052287E-4,2.0031503E-3,-1.3577798E-2,3.0419633E-2,8.402578E-3,-1.8432448E-2,6.802325E-3],"split_indices":[15,10,10,14,8,14,4,13,2,10,9,12,6,14,10,0,0,0,0,0,0,0,0,0,0,0,0,0,0,0,0],"split_type":[0,0,0,0,0,0,0,0,0,0,0,0,0,0,0,0,0,0,0,0,0,0,0,0,0,0,0,0,0,0,0],"sum_hessian":[8.679377E3,1.7802458E3,6.8991304E3,6.4672676E1,1.7155732E3,6.550529E3,3.486017E2,5.388374E1,1.0788941E1,1.173715E3,5.418583E2,1.9661094E3,4.5844194E3,2.4059692E2,1.08004776E2,2.5120462E1,2.8763277E1,5.6132407E0,5.175701E0,7.3077563E2,4.429393E2,3.478536E1,5.070729E2,5.3724774E2,1.4288617E3,4.509114E3,7.530566E1,4.3809074E1,1.9678784E2,3.8176044E1,6.982873E1],"tree_param":{"num_deleted":"0","num_feature":"16","num_nodes":"31","size_leaf_vector":"1"}},{"base_weights":[-7.3676384E-3,-1.22958615E-1,5.1622926E-3,1.2713063E-2,-2.1662231E-1,5.597313E-1,2.3357235E-3,-1.7858539E-2,8.181425E-1,-2.9488754E-1,-1.1269708E-1,-6.7270175E-4,7.2979367E-1,-3.170745E-2,3.2720227E-2,2.2494218E-3,-1.8084329E-2,1.5335015E-2,6.2582225E-2,-1.8520834E-2,4.2353957E-3,3.2983657E-3,-1.201716E-2,4.62902E-2,-4.490367E-3,-1.1966693E-3,-1.4609127E-2,2.9712258E-2,1.4408595E-3],"categories":[],"categories_nodes":[],"categories_segments":[],"categories_sizes":[],"default_left":[0,0,0,0,0,0,0,0,0,0,0,0,0,0,0,0,0,0,0,0,0,0,0,0,0,0,0,0,0],"id":41,"left_children":[1,3,5,7,9,11,13,15,17,19,21,-1,23,25,27,-1,-1,-1,-1,-1,-1,-1,-1,-1,-1,-1,-1,-1,-1],"loss_changes":[1.2607436E1,1.0820629E1,1.2310009E1,8.598926E0,4.0634975E0,3.8917036E0,8.0849085E0,7.2952414E0,2.447423E0,8.250816E0,4.987191E0,0E0,5.019863E0,7.4573402E0,9.034325E0,0E0,0E0,0E0,0E0,0E0,0E0,0E0,0E0,0E0,0E0,0E0,0E0,0E0,0E0],"parents":[2147483647,0,0,1,1,2,2,3,3,4,4,5,5,6,6,7,7,8,8,9,9,10,10,12,12,13,13,14,14],"right_children":[2,4,6,8,10,12,14,16,18,20,22,-1,24,26,28,-1,-1,-1,-1,-1,-1,-1,-1,-1,-1,-1,-1,-1,-1],"split_conditions":[1.1111111E-1,2.0253165E-1,1.3333334E-1,3.357664E-2,8E0,1.8181819E-1,2.9850746E-2,1.3461539E-1,1.76781E-1,3.5416666E-1,9.90099E-2,-6.7270175E-4,9E0,1.6666667E-1,6.1068702E-2,2.2494218E-3,-1.8084329E-2,1.5335015E-2,6.2582225E-2,-1.8520834E-2,4.2353957E-3,3.2983657E-3,-1.201716E-2,4.62902E-2,-4.490367E-3,-1.1966693E-3,-1.4609127E-2,2.9712258E-2,1.4408595E-3],"split_indices":[15,6,15,4,9,1,4,3,6,1,3,0,9,3,2,0,0,0,0,0,0,0,0,0,0,0,0,0,0],"split_type":[0,0,0,0,0,0,0,0,0,0,0,0,0,0,0,0,0,0,0,0,0,0,0,0,0,0,0,0,0],"sum_hessian":[8.703269E3,8.502978E2,7.8529707E3,3.476262E2,5.026716E2,3.8823517E1,7.814147E3,3.3585596E2,1.1770223E1,2.8568616E2,2.1698544E2,9.093907E0,2.972961E1,3.6851812E3,4.1289663E3,2.8468808E2,5.1167862E1,6.1830297E0,5.587193E0,2.3829596E2,4.7390205E1,9.062382E1,1.26361626E2,2.3887304E1,5.842306E0,3.579442E3,1.0573911E2,2.7457369E1,4.101509E3],"tree_param":{"num_deleted":"0","num_feature":"16","num_nodes":"29","size_leaf_vector":"1"}},{"base_weights":[-8.612837E-3,-3.6883663E-2,3.5147592E-2,-3.401953E-2,-7.4450284E-1,-2.9637638E-2,7.79059E-2,-2.4217147E-2,-1.6083212E-1,-4.6724893E-2,-1.4679889E-2,-2.2498682E-2,-8.63357E-1,-5.257323E-1,8.207661E-2,-1.0219064E-3,-2.5408408E-2,-1.0751201E-2,6.0987114E-3,-2.7287188E-3,7.1266307E-3,-2.7681036E-2,-5.1964846E-2,-5.3653087E-2,2.8883945E-3,1.8763613E-2,3.698114E-3],"categories":[],"categories_nodes":[],"categories_segments":[],"categories_sizes":[],"default_left":[0,0,0,0,0,0,0,0,0,0,0,0,0,0,0,0,0,0,0,0,0,0,0,0,0,0,0],"id":42,"left_children":[1,3,5,7,9,11,13,15,17,-1,-1,19,21,23,25,-1,-1,-1,-1,-1,-1,-1,-1,-1,-1,-1,-1],"loss_changes":[1.0757381E1,1.0680672E1,9.456261E0,6.537362E0,1.5458527E0,8.061098E0,5.219859E0,8.925064E0,5.810116E0,0E0,0E0,7.1388593E0,5.130005E-2,4.6112046E0,4.832629E0,0E0,0E0,0E0,0E0,0E0,0E0,0E0,0E0,0E0,0E0,0E0,0E0],"parents":[2147483647,0,0,1,1,2,2,3,3,4,4,5,5,6,6,7,7,8,8,11,11,12,12,13,13,14,14],"right_children":[2,4,6,8,10,12,14,16,18,-1,-1,20,22,24,26,-1,-1,-1,-1,-1,-1,-1,-1,-1,-1,-1,-1],"split_conditions":[3.4146342E-2,1.9444445E-1,2.4390244E-1,2.9885057E-1,2.195122E-1,5.283688E-1,8.092485E-2,1.9090909E-1,1.1805555E-1,-4.6724893E-2,-1.4679889E-2,4.2553192E-1,2.2510822E-1,4.189189E-1,2.4528302E-1,-1.0219064E-3,-2.5408408E-2,-1.0751201E-2,6.0987114E-3,-2.7287188E-3,7.1266307E-3,-2.7681036E-2,-5.1964846E-2,-5.3653087E-2,2.8883945E-3,1.8763613E-2,3.698114E-3],"split_indices":[4,2,0,0,2,1,3,3,5,0,0,1,0,1,0,0,0,0,0,0,0,0,0,0,0,0,0],"split_type":[0,0,0,0,0,0,0,0,0,0,0,0,0,0,0,0,0,0,0,0,0,0,0,0,0,0,0],"sum_hessian":[8.693291E3,5.2814434E3,3.4118472E3,5.261197E3,2.0246931E1,1.3566406E3,2.0552065E3,4.8848013E3,3.7639532E2,1.3490169E1,6.7567616E0,1.346141E3,1.04997225E1,1.3244485E1,2.0419622E3,4.8479873E3,3.6814163E1,3.160692E2,6.0326103E1,1.1276406E3,2.1850035E2,5.3057575E0,5.1939654E0,6.401139E0,6.843346E0,5.3771877E1,1.9881902E3],"tree_param":{"num_deleted":"0","num_feature":"16","num_nodes":"27","size_leaf_vector":"1"}},{"base_weights":[2.608739E-3,-6.2096193E-2,2.9046286E-2,-1.3923097E-1,3.11988E-3,2.1426372E-2,2.0313892E-1,-3.2108933E-1,-1.0107258E-1,-4.762146E-2,1.3508728E-1,4.9670705E-1,1.8605566E-2,3.3066118E-1,3.279337E-2,-2.8182447E-2,-1.0425164E-2,-6.2873885E-3,7.368788E-3,-1.988007E-3,-4.5007333E-2,2.8873414E-3,1.83432E-2,-4.1301404E-3,3.251209E-2,-7.84422E-3,1.274893E-3,7.612406E-3,3.350152E-2,-7.044052E-3,1.5675725E-2],"categories":[],"categories_nodes":[],"categories_segments":[],"categories_sizes":[],"default_left":[0,0,0,0,0,0,0,0,0,0,0,0,0,0,0,0,0,0,0,0,0,0,0,0,0,0,0,0,0,0,0],"id":43,"left_children":[1,3,5,7,9,11,13,15,17,19,21,23,25,27,29,-1,-1,-1,-1,-1,-1,-1,-1,-1,-1,-1,-1,-1,-1,-1,-1],"loss_changes":[1.4854515E1,1.2671331E1,8.173555E0,7.97563E0,9.152457E0,7.910537E0,5.6021624E0,5.335594E0,5.875105E0,6.580875E0,6.78308E0,3.15024E0,7.1081557E0,8.83848E0,5.49156E0,0E0,0E0,0E0,0E0,0E0,0E0,0E0,0E0,0E0,0E0,0E0,0E0,0E0,0E0,0E0,0E0],"parents":[2147483647,0,0,1,1,2,2,3,3,4,4,5,5,6,6,7,7,8,8,9,9,10,10,11,11,12,12,13,13,14,14],"right_children":[2,4,6,8,10,12,14,16,18,20,22,24,26,28,30,-1,-1,-1,-1,-1,-1,-1,-1,-1,-1,-1,-1,-1,-1,-1,-1],"split_conditions":[2.7272728E-1,1E0,1.5625E-1,1E0,2.3076923E-1,3E-1,2.5915492E-1,2.1472393E-1,1.1881188E-1,6.048387E-2,1.0606061E-1,1E0,2.8328612E-3,6.1538464E-1,3.1428573E-1,-2.8182447E-2,-1.0425164E-2,-6.2873885E-3,7.368788E-3,-1.988007E-3,-4.5007333E-2,2.8873414E-3,1.83432E-2,-4.1301404E-3,3.251209E-2,-7.84422E-3,1.274893E-3,7.612406E-3,3.350152E-2,-7.044052E-3,1.5675725E-2],"split_indices":[8,11,5,12,15,8,0,0,5,4,5,12,4,8,0,0,0,0,0,0,0,0,0,0,0,0,0,0,0,0,0],"split_type":[0,0,0,0,0,0,0,0,0,0,0,0,0,0,0,0,0,0,0,0,0,0,0,0,0,0,0,0,0,0,0],"sum_hessian":[8.681549E3,2.517851E3,6.1636978E3,1.1529987E3,1.3648524E3,5.906306E3,2.573918E2,1.9868329E2,9.543154E2,9.8627124E2,3.785812E2,3.3814297E1,5.8724917E3,1.466598E2,1.1073202E2,6.171525E1,1.3696803E2,8.6854755E2,8.576786E1,9.7829675E2,7.9744477E0,2.847976E2,9.378358E1,7.181059E0,2.6633236E1,2.2110124E2,5.6513906E3,9.707446E1,4.9585335E1,6.871691E1,4.2015106E1],"tree_param":{"num_deleted":"0","num_feature":"16","num_nodes":"31","size_leaf_vector":"1"}},{"base_weights":[-1.1077199E-2,-4.9662005E-2,2.1391036E-2,-1.3955742E-1,-1.1959831E-2,-2.574081E-3,8.388986E-2,-1.0743587E-1,-2.986593E-1,2.9704973E-2,-6.535902E-2,4.237186E-3,-2.869866E-1,3.502676E-1,5.5608436E-2,-3.253501E-3,-1.2531685E-2,-2.6701426E-2,-6.330398E-3,-1.0834377E-2,2.2350962E-3,-6.192248E-3,3.0191496E-3,4.729813E-4,-1.263238E-2,3.840458E-2,-1.8489085E-2,3.5558943E-2,8.182206E-3,1.7930428E-3,1.7831264E-2],"categories":[],"categories_nodes":[],"categories_segments":[],"categories_sizes":[],"default_left":[0,0,0,0,0,0,0,0,0,0,0,0,0,0,0,0,0,0,0,0,0,0,0,0,0,0,0,0,0,0,0],"id":44,"left_children":[1,3,5,7,9,11,13,15,17,19,21,23,25,27,29,-1,-1,-1,-1,-1,-1,-1,-1,-1,-1,-1,-1,-1,-1,-1,-1],"loss_changes":[1.0898195E1,1.3470889E1,7.076195E0,5.970068E0,6.2351966E0,6.618381E0,9.845333E0,5.9213543E0,7.8987503E0,5.8273644E0,9.0399475E0,4.4790835E0,7.2641797E0,8.336114E0,7.031029E0,0E0,0E0,0E0,0E0,0E0,0E0,0E0,0E0,0E0,0E0,0E0,0E0,0E0,0E0,0E0,0E0],"parents":[2147483647,0,0,1,1,2,2,3,3,4,4,5,5,6,6,7,7,8,8,9,9,10,10,11,11,12,12,13,13,14,14],"right_children":[2,4,6,8,10,12,14,16,18,20,22,24,26,28,30,-1,-1,-1,-1,-1,-1,-1,-1,-1,-1,-1,-1,-1,-1,-1,-1],"split_conditions":[1E0,3.3333334E-1,4.0350878E-1,1.3870968E-1,8.3333336E-2,4E-1,4.1025642E-1,3.9668E0,2E-1,1.3E1,1.2033195E-1,8.888889E-1,1.5E1,1E0,7.2727275E-1,-3.253501E-3,-1.2531685E-2,-2.6701426E-2,-6.330398E-3,-1.0834377E-2,2.2350962E-3,-6.192248E-3,3.0191496E-3,4.729813E-4,-1.263238E-2,3.840458E-2,-1.8489085E-2,3.5558943E-2,8.182206E-3,1.7930428E-3,1.7831264E-2],"split_indices":[11,8,1,3,5,1,1,14,7,10,5,8,10,12,15,0,0,0,0,0,0,0,0,0,0,0,0,0,0,0,0],"split_type":[0,0,0,0,0,0,0,0,0,0,0,0,0,0,0,0,0,0,0,0,0,0,0,0,0,0,0,0,0,0,0],"sum_hessian":[8.697358E3,3.974083E3,4.7232754E3,1.1734525E3,2.8006306E3,3.4148232E3,1.308452E3,9.777308E2,1.9572171E2,1.5734148E3,1.2272157E3,3.335918E3,7.89053E1,1.2449264E2,1.1839594E3,7.556284E2,2.2210236E2,8.176367E1,1.1395804E2,8.950144E1,1.4839133E3,8.376279E2,3.8958783E2,3.2703943E3,6.552358E1,5.1391287E0,7.376617E1,4.1474434E1,8.30182E1,1.1121202E3,7.183919E1],"tree_param":{"num_deleted":"0","num_feature":"16","num_nodes":"31","size_leaf_vector":"1"}},{"base_weights":[-1.857268E-3,-2.8712407E-2,5.353735E-2,-7.56765E-2,1.0681935E-2,2.1576038E-2,1.1404703E-1,-6.0432006E-2,-3.0640957E-1,-1.1676572E-2,1.4401789E-1,1.5605318E-2,5.653142E-1,2.713626E-1,5.09935E-2,-3.3062107E-3,3.213355E-2,-1.2635921E-2,-4.5789488E-2,1.2336917E-3,-3.6859985E-3,-2.5535848E-3,1.6024362E-2,1.0797111E-3,-2.6417522E-2,-1.0877886E-2,5.3065903E-2,1.8415714E-2,-1.207088E-3,1.6608669E-3,3.2740276E-2],"categories":[],"categories_nodes":[],"categories_segments":[],"categories_sizes":[],"default_left":[0,0,0,0,0,0,0,0,0,0,0,0,0,0,0,0,0,0,0,0,0,0,0,0,0,0,0,0,0,0,0],"id":45,"left_children":[1,3,5,7,9,11,13,15,17,19,21,23,25,27,29,-1,-1,-1,-1,-1,-1,-1,-1,-1,-1,-1,-1,-1,-1,-1,-1],"loss_changes":[1.2928578E1,1.082973E1,5.485358E0,9.3734665E0,9.493648E0,6.0233607E0,9.712452E0,1.0071662E1,5.1748314E0,6.153479E0,1.5760196E1,6.001991E0,8.056477E0,8.040188E0,7.5047E0,0E0,0E0,0E0,0E0,0E0,0E0,0E0,0E0,0E0,0E0,0E0,0E0,0E0,0E0,0E0,0E0],"parents":[2147483647,0,0,1,1,2,2,3,3,4,4,5,5,6,6,7,7,8,8,9,9,10,10,11,11,12,12,13,13,14,14],"right_children":[2,4,6,8,10,12,14,16,18,20,22,24,26,28,30,-1,-1,-1,-1,-1,-1,-1,-1,-1,-1,-1,-1,-1,-1,-1,-1],"split_conditions":[3.5714287E-1,1E0,1.4102565E-1,2.9885057E-1,4.025974E-1,2.195122E-1,1.4893617E-1,2.9677418E-1,6.923077E-1,1.1904762E-1,6.4E1,5.37037E-1,1.3E1,1.28E2,8.5714287E-1,-3.3062107E-3,3.213355E-2,-1.2635921E-2,-4.5789488E-2,1.2336917E-3,-3.6859985E-3,-2.5535848E-3,1.6024362E-2,1.0797111E-3,-2.6417522E-2,-1.0877886E-2,5.3065903E-2,1.8415714E-2,-1.207088E-3,1.6608669E-3,3.2740276E-2],"split_indices":[15,11,3,0,1,2,3,0,8,3,10,1,10,10,15,0,0,0,0,0,0,0,0,0,0,0,0,0,0,0,0],"split_type":[0,0,0,0,0,0,0,0,0,0,0,0,0,0,0,0,0,0,0,0,0,0,0,0,0,0,0,0,0,0,0],"sum_hessian":[8.6886875E3,5.852093E3,2.8365947E3,2.6691436E3,3.182949E3,1.857053E3,9.795419E2,2.5049067E3,1.6423682E2,2.726643E3,4.5630606E2,1.8378999E3,1.9153046E1,2.79328E2,7.002138E2,2.485689E3,1.9217793E1,1.5223817E2,1.19986515E1,1.7196973E3,1.0069456E3,2.170569E2,2.3924916E2,1.818835E3,1.9064907E1,7.6461143E0,1.150693E1,2.1013777E2,6.919024E1,6.81214E2,1.8999853E1],"tree_param":{"num_deleted":"0","num_feature":"16","num_nodes":"31","size_leaf_vector":"1"}},{"base_weights":[-5.553908E-4,-3.424817E-2,2.787767E-2,-9.4637E-3,-1.6951326E-1,-1.3895296E-1,3.7279256E-2,-8.3219096E-2,1.9866252E-2,-1.05999075E-1,-3.2638842E-1,9.180013E-2,-3.2311273E-1,1.0539354E-2,