{"learner":{"attributes":{"best_iteration":"76","best_score":"0.37339962754819084"},"feature_names":["hr_rate","tb_per_pa","season_slg","iso","recent5_hr","recent15_hr","recent_xbh_avg","so_rate","bb_rate","batting_order","games_played","platoon_advantage","pitcher_is_R","is_home","expected_pa_v1"],"feature_types":[],"gradient_booster":{"model":{"cats":{"enc":[],"feature_segments":[],"sorted_idx":[]},"gbtree_model_param":{"num_parallel_tree":"1","num_trees":"117"},"iteration_indptr":[0,1,2,3,4,5,6,7,8,9,10,11,12,13,14,15,16,17,18,19,20,21,22,23,24,25,26,27,28,29,30,31,32,33,34,35,36,37,38,39,40,41,42,43,44,45,46,47,48,49,50,51,52,53,54,55,56,57,58,59,60,61,62,63,64,65,66,67,68,69,70,71,72,73,74,75,76,77,78,79,80,81,82,83,84,85,86,87,88,89,90,91,92,93,94,95,96,97,98,99,100,101,102,103,104,105,106,107,108,109,110,111,112,113,114,115,116,117],"tree_info":[0,0,0,0,0,0,0,0,0,0,0,0,0,0,0,0,0,0,0,0,0,0,0,0,0,0,0,0,0,0,0,0,0,0,0,0,0,0,0,0,0,0,0,0,0,0,0,0,0,0,0,0,0,0,0,0,0,0,0,0,0,0,0,0,0,0,0,0,0,0,0,0,0,0,0,0,0,0,0,0,0,0,0,0,0,0,0,0,0,0,0,0,0,0,0,0,0,0,0,0,0,0,0,0,0,0,0,0,0,0,0,0,0,0,0,0,0],"trees":[{"base_weights":[6.4857067E-3,-1.9782604E-1,4.5946705E-1,-4.5651948E-1,-3.4044076E-2,-1.7886807E-1,5.4648304E-1,-6.3377666E-1,-4.0373087E-1,-2.4771152E-1,8.095088E-2,3.4045157E-1,-2.2701967E-1,4.4118562E-1,9.3916225E-1,-2.3616051E-2,-4.4395242E-2,-1.149756E-2,-2.2626227E-2,-1.7455464E-2,-6.586241E-3,-1.1595071E-3,8.032776E-3,3.7022736E-2,-8.989433E-3,-2.274579E-2,-6.261248E-3,1.1527394E-2,2.874645E-2,2.5787726E-2,5.7387836E-2],"categories":[],"categories_nodes":[],"categories_segments":[],"categories_sizes":[],"default_left":[0,0,0,0,0,0,0,0,0,0,0,0,0,0,0,0,0,0,0,0,0,0,0,0,0,0,0,0,0,0,0],"id":0,"left_children":[1,3,5,7,9,11,13,15,17,19,21,23,25,27,29,-1,-1,-1,-1,-1,-1,-1,-1,-1,-1,-1,-1,-1,-1,-1,-1],"loss_changes":[3.678644E2,1.16046524E2,6.872464E1,9.680191E0,4.1260147E1,3.8024492E0,4.4553406E1,9.506378E0,6.8571167E0,6.8635674E0,9.06723E0,2.846848E0,3.1196122E0,2.4079834E1,1.9640076E1,0E0,0E0,0E0,0E0,0E0,0E0,0E0,0E0,0E0,0E0,0E0,0E0,0E0,0E0,0E0,0E0],"parents":[2147483647,0,0,1,1,2,2,3,3,4,4,5,5,6,6,7,7,8,8,9,9,10,10,11,11,12,12,13,13,14,14],"right_children":[2,4,6,8,10,12,14,16,18,20,22,24,26,28,30,-1,-1,-1,-1,-1,-1,-1,-1,-1,-1,-1,-1,-1,-1,-1,-1],"split_conditions":[3.7549406E-2,1.8779343E-2,3.5457E0,3.3670033E-3,3.6561E0,1.8E1,6.09319E-2,3.3E1,3.114754E-1,1E0,1E0,5.2805282E-2,1E0,6.6E1,3.6E1,-2.3616051E-2,-4.4395242E-2,-1.149756E-2,-2.2626227E-2,-1.7455464E-2,-6.586241E-3,-1.1595071E-3,8.032776E-3,3.7022736E-2,-8.989433E-3,-2.274579E-2,-6.261248E-3,1.1527394E-2,2.874645E-2,2.5787726E-2,5.7387836E-2],"split_indices":[0,0,14,0,14,10,0,10,2,11,11,0,12,10,10,0,0,0,0,0,0,0,0,0,0,0,0,0,0,0,0],"split_type":[0,0,0,0,0,0,0,0,0,0,0,0,0,0,0,0,0,0,0,0,0,0,0,0,0,0,0,0,0,0,0],"sum_hessian":[3.972807E3,2.7382952E3,1.2345116E3,1.060868E3,1.6774272E3,1.4797025E2,1.0865414E3,2.4091187E2,8.199561E2,5.8650745E2,1.0909198E3,1.2040618E1,1.3592963E2,8.584662E2,2.2807518E2,1.4906483E2,9.184703E1,1.8100731E2,6.3894885E2,3.1186197E2,2.746455E2,4.7326593E2,6.176539E2,6.56761E0,5.473008E0,4.0898296E1,9.503133E1,3.3445056E2,5.240156E2,7.6423096E1,1.5165208E2],"tree_param":{"num_deleted":"0","num_feature":"15","num_nodes":"31","size_leaf_vector":"1"}},{"base_weights":[-4.7380314E-3,-1.9408812E-1,4.1010398E-1,-4.4942635E-1,-3.8862247E-2,4.9923965E-1,-8.929894E-2,-5.305945E-1,-3.379724E-1,-2.3449174E-1,6.669531E-2,3.901484E-1,8.988522E-1,3.9796874E-2,-1.2701786E-1,-2.8951485E-2,-1.2233723E-2,6.474433E-3,-1.8262638E-2,-2.8512483E-2,-8.2610445E-3,-1.165405E-2,5.9611844E-3,1.9217195E-3,2.2154E-2,-8.94004E-3,4.9084436E-2,3.5557956E-3,-1.414129E-2],"categories":[],"categories_nodes":[],"categories_segments":[],"categories_sizes":[],"default_left":[0,0,0,0,0,0,0,0,0,0,0,0,0,0,0,0,0,0,0,0,0,0,0,0,0,0,0,0,0],"id":1,"left_children":[1,3,5,7,9,11,13,15,17,19,21,23,25,-1,27,-1,-1,-1,-1,-1,-1,-1,-1,-1,-1,-1,-1,-1,-1],"loss_changes":[3.1167938E2,1.0796291E2,5.539926E1,9.137939E0,3.502659E1,4.5655823E1,6.417918E0,8.086853E0,5.6169853E0,1.3730995E1,1.7380863E1,1.5449516E1,2.0310043E1,0E0,5.6482654E0,0E0,0E0,0E0,0E0,0E0,0E0,0E0,0E0,0E0,0E0,0E0,0E0,0E0,0E0],"parents":[2147483647,0,0,1,1,2,2,3,3,4,4,5,5,6,6,7,7,8,8,9,9,10,10,11,11,12,12,14,14],"right_children":[2,4,6,8,10,12,14,16,18,20,22,24,26,-1,28,-1,-1,-1,-1,-1,-1,-1,-1,-1,-1,-1,-1,-1,-1],"split_conditions":[3.7549406E-2,1.8518519E-2,7E0,1.25E-2,3.6561E0,6.09319E-2,3.8004752E-2,4.1571E0,7.8125E-2,1.6863905E-1,1.438849E-1,1.8181819E-1,3.8961038E-2,3.9796874E-2,8E0,-2.8951485E-2,-1.2233723E-2,6.474433E-3,-1.8262638E-2,-2.8512483E-2,-8.2610445E-3,-1.165405E-2,5.9611844E-3,1.9217195E-3,2.2154E-2,-8.94004E-3,4.9084436E-2,3.5557956E-3,-1.414129E-2],"split_indices":[0,0,9,0,14,0,0,14,3,7,7,3,8,0,9,0,0,0,0,0,0,0,0,0,0,0,0,0,0],"split_type":[0,0,0,0,0,0,0,0,0,0,0,0,0,0,0,0,0,0,0,0,0,0,0,0,0,0,0,0,0],"sum_hessian":[3.9658787E3,2.723362E3,1.2425166E3,1.0289307E3,1.6944313E3,1.0543345E3,1.8818207E2,5.931783E2,4.357524E2,5.9342224E2,1.101009E3,8.297855E2,2.24549E2,6.869028E0,1.8131305E2,5.0637302E2,8.680528E1,2.3821077E1,4.1193134E2,1.0025431E2,4.9316794E2,1.6364717E2,9.373619E2,1.08769844E2,7.210157E2,1.5945748E1,2.0860324E2,8.005472E1,1.0125832E2],"tree_param":{"num_deleted":"0","num_feature":"15","num_nodes":"29","size_leaf_vector":"1"}},{"base_weights":[4.156615E-3,-1.866591E-1,4.0989566E-1,-4.4737977E-1,-3.1534534E-2,4.8630327E-1,-2.689996E-2,-6.196464E-1,-3.9670298E-1,-2.0654897E-1,6.0328677E-2,3.627877E-1,7.276153E-1,-1.8327615E-1,1.6213402E-1,-2.3430483E-2,-4.172784E-2,2.8266344E-2,-2.0294089E-2,-2.3823943E-2,-7.6825405E-3,-8.658538E-3,5.0081047E-3,1.9187886E-2,-2.313376E-2,2.1510307E-2,4.982299E-2,-1.6161572E-2,4.295518E-3,-3.4196984E-2,1.1732379E-2],"categories":[],"categories_nodes":[],"categories_segments":[],"categories_sizes":[],"default_left":[0,0,0,0,0,0,0,0,0,0,0,0,0,0,0,0,0,0,0,0,0,0,0,0,0,0,0,0,0,0,0],"id":2,"left_children":[1,3,5,7,9,11,13,15,17,19,21,23,25,27,29,-1,-1,-1,-1,-1,-1,-1,-1,-1,-1,-1,-1,-1,-1,-1,-1],"loss_changes":[3.0644907E2,1.0886694E2,4.226776E1,8.520599E0,2.7166359E1,3.1855713E1,5.6298137E0,6.9602814E0,7.1056213E0,8.231157E0,1.0326313E1,1.2550453E1,2.866336E1,3.9514546E0,5.4550037E0,0E0,0E0,0E0,0E0,0E0,0E0,0E0,0E0,0E0,0E0,0E0,0E0,0E0,0E0,0E0,0E0],"parents":[2147483647,0,0,1,1,2,2,3,3,4,4,5,5,6,6,7,7,8,8,9,9,10,10,11,11,12,12,13,13,14,14],"right_children":[2,4,6,8,10,12,14,16,18,20,22,24,26,28,30,-1,-1,-1,-1,-1,-1,-1,-1,-1,-1,-1,-1,-1,-1,-1,-1],"split_conditions":[3.7549406E-2,1.8518519E-2,7E0,3.3670033E-3,3.6561E0,5.4545455E-2,1E0,3.1E1,1.5E1,1.6863905E-1,1.438849E-1,3.3333334E-1,6.3E1,3.5714287E-1,1.7283951E-1,-2.3430483E-2,-4.172784E-2,2.8266344E-2,-2.0294089E-2,-2.3823943E-2,-7.6825405E-3,-8.658538E-3,5.0081047E-3,1.9187886E-2,-2.313376E-2,2.1510307E-2,4.982299E-2,-1.6161572E-2,4.295518E-3,-3.4196984E-2,1.1732379E-2],"split_indices":[0,0,9,0,14,0,11,10,10,7,7,7,10,6,3,0,0,0,0,0,0,0,0,0,0,0,0,0,0,0,0],"split_type":[0,0,0,0,0,0,0,0,0,0,0,0,0,0,0,0,0,0,0,0,0,0,0,0,0,0,0,0,0,0,0],"sum_hessian":[3.9562083E3,2.6911313E3,1.2650769E3,1.00318176E3,1.6879496E3,1.0766311E3,1.8844586E2,2.2547899E2,7.7770276E2,5.8058734E2,1.1073623E3,7.1378406E2,3.62847E2,1.0314817E2,8.529768E1,1.3428526E2,9.1193726E1,6.7773542E0,7.709254E2,9.382217E1,4.8676517E2,1.6089062E2,9.464716E2,6.966222E2,1.716186E1,1.7350609E2,1.8934091E2,6.773215E1,3.5416023E1,6.06781E0,7.922987E1],"tree_param":{"num_deleted":"0","num_feature":"15","num_nodes":"31","size_leaf_vector":"1"}},{"base_weights":[-1.2250388E-2,-2.6011065E-1,2.55214E-1,-4.4009313E-1,-9.4103E-2,3.78592E-1,-7.64723E-2,-4.762191E-1,-2.5787812E-1,-2.2390597E-1,1.931322E-2,2.7516708E-1,8.509622E-1,2.9988056E-2,-2.4828903E-1,-1.753875E-2,-2.6492013E-2,-2.9263848E-2,-9.988802E-3,-2.4276605E-2,-7.642653E-3,2.7111433E-3,-2.1346828E-2,5.917922E-3,1.8805979E-2,3.1987127E-2,6.0953688E-2,-1.8705635E-3,2.8417239E-2,-6.735045E-3,-2.6365984E-2],"categories":[],"categories_nodes":[],"categories_segments":[],"categories_sizes":[],"default_left":[0,0,0,0,0,0,0,0,0,0,0,0,0,0,0,0,0,0,0,0,0,0,0,0,0,0,0,0,0,0,0],"id":3,"left_children":[1,3,5,7,9,11,13,15,17,19,21,23,25,27,29,-1,-1,-1,-1,-1,-1,-1,-1,-1,-1,-1,-1,-1,-1,-1,-1],"loss_changes":[2.6400693E2,6.1714798E1,7.8415054E1,6.4035645E0,1.5851874E1,6.798216E1,9.52197E0,5.3716736E0,3.045041E0,9.258572E0,8.987276E0,1.8112411E1,1.8683731E1,1.1706897E1,6.239477E0,0E0,0E0,0E0,0E0,0E0,0E0,0E0,0E0,0E0,0E0,0E0,0E0,0E0,0E0,0E0,0E0],"parents":[2147483647,0,0,1,1,2,2,3,3,4,4,5,5,6,6,7,7,8,8,9,9,10,10,11,11,12,12,13,13,14,14],"right_children":[2,4,6,8,10,12,14,16,18,20,22,24,26,28,30,-1,-1,-1,-1,-1,-1,-1,-1,-1,-1,-1,-1,-1,-1,-1,-1],"split_conditions":[3.0303031E-2,1.8518519E-2,6E0,2E-1,1E0,5.9210528E-2,8E0,3.2E1,2.9032257E-1,1.5384616E-1,9E0,1.8699187E-1,1.2307692E-1,2.5221238E-1,4.4444446E-2,-1.753875E-2,-2.6492013E-2,-2.9263848E-2,-9.988802E-3,-2.4276605E-2,-7.642653E-3,2.7111433E-3,-2.1346828E-2,5.917922E-3,1.8805979E-2,3.1987127E-2,6.0953688E-2,-1.8705635E-3,2.8417239E-2,-6.735045E-3,-2.6365984E-2],"split_indices":[0,0,9,4,11,0,9,10,2,6,9,3,8,3,0,0,0,0,0,0,0,0,0,0,0,0,0,0,0,0,0],"split_type":[0,0,0,0,0,0,0,0,0,0,0,0,0,0,0,0,0,0,0,0,0,0,0,0,0,0,0,0,0,0,0],"sum_hessian":[3.9803762E3,2.0659138E3,1.9144625E3,9.9044275E2,1.075471E3,1.3953063E3,5.191561E2,8.252208E2,1.6522191E2,5.010516E2,5.744194E2,1.1459783E3,2.4932811E2,3.2105246E2,1.981037E2,2.4937091E2,5.758499E2,2.3534481E1,1.4168744E2,1.0576771E2,3.952839E2,5.3355817E2,4.08612E1,4.4967468E2,6.963035E2,1.6016469E2,8.916342E1,2.861576E2,3.4894863E1,1.4184428E2,5.6259407E1],"tree_param":{"num_deleted":"0","num_feature":"15","num_nodes":"31","size_leaf_vector":"1"}},{"base_weights":[-2.223019E-3,-2.4760789E-1,2.5393155E-1,-4.167643E-1,-7.7774055E-2,1.1468987E-1,5.265925E-1,-5.3550965E-1,-3.092068E-1,-2.1871628E-1,4.5035183E-2,-3.2669224E-2,2.312706E-1,3.009338E-1,7.1465564E-1,-3.307741E-2,-2.2274707E-2,-3.0201524E-2,-1.2823653E-2,-2.1006903E-2,-8.213114E-3,7.2463084E-4,2.5984297E-2,-6.5436177E-3,2.6936516E-2,-1.2207444E-2,1.2483421E-2,3.868587E-4,2.647579E-2,2.6816284E-2,5.504753E-2],"categories":[],"categories_nodes":[],"categories_segments":[],"categories_sizes":[],"default_left":[0,0,0,0,0,0,0,0,0,0,0,0,0,0,0,0,0,0,0,0,0,0,0,0,0,0,0,0,0,0,0],"id":4,"left_children":[1,3,5,7,9,11,13,15,17,19,21,23,25,27,29,-1,-1,-1,-1,-1,-1,-1,-1,-1,-1,-1,-1,-1,-1,-1,-1],"loss_changes":[2.5034155E2,5.8405106E1,7.392038E1,1.2847351E1,1.7600351E1,2.2188953E1,2.7727966E1,5.183792E0,8.193691E0,5.1229935E0,7.8773413E0,3.212132E1,6.3672714E0,2.0170893E1,2.4099716E1,0E0,0E0,0E0,0E0,0E0,0E0,0E0,0E0,0E0,0E0,0E0,0E0,0E0,0E0,0E0,0E0],"parents":[2147483647,0,0,1,1,2,2,3,3,4,4,5,5,6,6,7,7,8,8,9,9,10,10,11,11,12,12,13,13,14,14],"right_children":[2,4,6,8,10,12,14,16,18,20,22,24,26,28,30,-1,-1,-1,-1,-1,-1,-1,-1,-1,-1,-1,-1,-1,-1,-1,-1],"split_conditions":[3.0075189E-2,1.898734E-2,2.2222222E-1,1E0,1E0,7.2E1,6.4E1,9.478673E-3,5.487805E-2,1.5384616E-1,5.3333336E-1,1.2153518E-1,3.272727E-1,1E0,6.315789E-2,-3.307741E-2,-2.2274707E-2,-3.0201524E-2,-1.2823653E-2,-2.1006903E-2,-8.213114E-3,7.2463084E-4,2.5984297E-2,-6.5436177E-3,2.6936516E-2,-1.2207444E-2,1.2483421E-2,3.868587E-4,2.647579E-2,2.6816284E-2,5.504753E-2],"split_indices":[0,0,3,11,11,10,10,0,3,6,6,8,1,11,0,0,0,0,0,0,0,0,0,0,0,0,0,0,0,0,0],"split_type":[0,0,0,0,0,0,0,0,0,0,0,0,0,0,0,0,0,0,0,0,0,0,0,0,0,0,0,0,0,0,0],"sum_hessian":[3.9807498E3,2.033132E3,1.9476179E3,1.01786896E3,1.01526294E3,1.2901755E3,6.5744244E2,4.8188293E2,5.359861E2,4.7236804E2,5.428949E2,5.7018115E2,7.199944E2,3.000318E2,3.5741064E2,1.9812358E2,2.8375934E2,7.973721E1,4.5624884E2,9.909749E1,3.7327054E2,5.110412E2,3.185367E1,4.8721695E2,8.2964195E1,2.6367208E1,6.936272E2,1.3189153E2,1.6814026E2,2.4616086E2,1.1124978E2],"tree_param":{"num_deleted":"0","num_feature":"15","num_nodes":"31","size_leaf_vector":"1"}},{"base_weights":[1.1949156E-3,-1.3573152E-1,3.2017493E-1,-3.2409212E-1,-7.8466407E-4,2.0984174E-1,7.406376E-1,-4.300477E-1,-2.180547E-1,-4.1255203E-1,5.5882066E-2,2.6214445E-1,-3.6291996E-1,4.8597774E-1,9.653288E-1,-3.266336E-2,-1.7301604E-2,-1.2621827E-2,2.1384789E-2,-2.709314E-2,-8.024548E-3,-3.7662906E-3,1.0886513E-2,7.253542E-3,2.0677015E-2,-1.0182104E-2,-3.4394212E-2,-5.861404E-3,2.9750345E-2,2.9191524E-2,6.0124613E-2],"categories":[],"categories_nodes":[],"categories_segments":[],"categories_sizes":[],"default_left":[0,0,0,0,0,0,0,0,0,0,0,0,0,0,0,0,0,0,0,0,0,0,0,0,0,0,0,0,0,0,0],"id":5,"left_children":[1,3,5,7,9,11,13,15,17,19,21,23,25,27,29,-1,-1,-1,-1,-1,-1,-1,-1,-1,-1,-1,-1,-1,-1,-1,-1],"loss_changes":[1.7283658E2,7.0376045E1,5.4979897E1,1.2890053E1,3.7684574E1,2.8339848E1,1.3644058E1,1.0595154E1,1.2976786E1,6.2810364E0,3.0164394E1,1.5263329E1,3.9650974E0,7.805805E0,1.106189E1,0E0,0E0,0E0,0E0,0E0,0E0,0E0,0E0,0E0,0E0,0E0,0E0,0E0,0E0,0E0,0E0],"parents":[2147483647,0,0,1,1,2,2,3,3,4,4,5,5,6,6,7,7,8,8,9,9,10,10,11,11,12,12,13,13,14,14],"right_children":[2,4,6,8,10,12,14,16,18,20,22,24,26,28,30,-1,-1,-1,-1,-1,-1,-1,-1,-1,-1,-1,-1,-1,-1,-1,-1],"split_conditions":[2E-1,3.6561E0,1.2153518E-1,1E0,1.3084112E-1,8E0,2.3529412E-1,1.7660551E-1,4.1624364E-1,8.978328E-2,3.6981758E-1,4.2424244E-1,8.292683E-2,3.8319E0,4.2666668E-1,-3.266336E-2,-1.7301604E-2,-1.2621827E-2,2.1384789E-2,-2.709314E-2,-8.024548E-3,-3.7662906E-3,1.0886513E-2,7.253542E-3,2.0677015E-2,-1.0182104E-2,-3.4394212E-2,-5.861404E-3,2.9750345E-2,2.9191524E-2,6.0124613E-2],"split_indices":[5,14,8,11,7,9,7,7,1,8,1,1,8,14,1,0,0,0,0,0,0,0,0,0,0,0,0,0,0,0,0],"split_type":[0,0,0,0,0,0,0,0,0,0,0,0,0,0,0,0,0,0,0,0,0,0,0,0,0,0,0,0,0,0,0],"sum_hessian":[3.9551768E3,2.7676855E3,1.1874915E3,1.1546324E3,1.613053E3,9.4184247E2,2.4564891E2,5.7601074E2,5.7862177E2,1.9437218E2,1.4186808E3,8.635301E2,7.831237E1,1.1662814E2,1.2902077E2,1.5566136E2,4.203494E2,5.499497E2,2.8672014E1,1.27707E2,6.666517E1,7.838003E2,6.348805E2,4.8806802E2,3.754621E2,5.364533E1,2.4667044E1,1.7841965E1,9.878618E1,5.0787037E1,7.8233734E1],"tree_param":{"num_deleted":"0","num_feature":"15","num_nodes":"31","size_leaf_vector":"1"}},{"base_weights":[-5.146532E-4,-2.2929464E-1,2.3044059E-1,-3.8400954E-1,-8.728447E-2,3.351292E-1,-5.7916965E-2,-4.7415772E-1,-2.7691355E-1,-2.3643248E-1,2.890129E-4,1.8537697E-1,5.347618E-1,-1.8709269E-1,8.113725E-2,-1.5696706E-2,-2.6503269E-2,-1.4901618E-2,2.197305E-2,-2.98409E-2,-9.322179E-3,1.5247591E-3,-1.320856E-2,5.0011175E-3,1.5130624E-2,1.4033685E-2,3.009206E-2,1.7642496E-2,-1.051465E-2,-3.1766233E-3,1.4340842E-2],"categories":[],"categories_nodes":[],"categories_segments":[],"categories_sizes":[],"default_left":[0,0,0,0,0,0,0,0,0,0,0,0,0,0,0,0,0,0,0,0,0,0,0,0,0,0,0,0,0,0,0],"id":6,"left_children":[1,3,5,7,9,11,13,15,17,19,21,23,25,27,29,-1,-1,-1,-1,-1,-1,-1,-1,-1,-1,-1,-1,-1,-1,-1,-1],"loss_changes":[2.0939755E2,4.370833E1,5.955368E1,9.06488E0,1.357553E1,4.31595E1,9.465827E0,4.4538116E0,6.753605E0,6.8156757E0,5.2472224E0,8.2584095E0,1.0392914E1,3.494753E0,7.578415E0,0E0,0E0,0E0,0E0,0E0,0E0,0E0,0E0,0E0,0E0,0E0,0E0,0E0,0E0,0E0,0E0],"parents":[2147483647,0,0,1,1,2,2,3,3,4,4,5,5,6,6,7,7,8,8,9,9,10,10,11,11,12,12,13,13,14,14],"right_children":[2,4,6,8,10,12,14,16,18,20,22,24,26,28,30,-1,-1,-1,-1,-1,-1,-1,-1,-1,-1,-1,-1,-1,-1,-1,-1],"split_conditions":[3.0075189E-2,1.8518519E-2,6E0,1.2048192E-2,3.6561E0,2.1686748E-1,3.5457E0,2.8455284E-1,4E-1,3.1681E0,2.8901733E-2,4E-1,3.5E1,3.0612245E-2,8E1,-1.5696706E-2,-2.6503269E-2,-1.4901618E-2,2.197305E-2,-2.98409E-2,-9.322179E-3,1.5247591E-3,-1.320856E-2,5.0011175E-3,1.5130624E-2,1.4033685E-2,3.009206E-2,1.7642496E-2,-1.051465E-2,-3.1766233E-3,1.4340842E-2],"split_indices":[0,0,9,0,14,3,14,2,4,14,0,6,10,0,10,0,0,0,0,0,0,0,0,0,0,0,0,0,0,0,0],"split_type":[0,0,0,0,0,0,0,0,0,0,0,0,0,0,0,0,0,0,0,0,0,0,0,0,0,0,0,0,0,0,0],"sum_hessian":[3.9610156E3,1.9898822E3,1.9711333E3,9.5152563E2,1.0383566E3,1.4459991E3,5.251342E2,5.147808E2,4.3674475E2,3.8350403E2,6.548526E2,8.2732153E2,6.186776E2,2.7205795E2,2.5307625E2,1.3487186E2,3.79909E2,4.2480542E2,1.19393425E1,4.5383236E1,3.381208E2,5.885178E2,6.6334755E1,4.798295E2,3.4749203E2,1.303005E2,4.883771E2,1.0622838E1,2.614351E2,1.4897922E2,1.0409702E2],"tree_param":{"num_deleted":"0","num_feature":"15","num_nodes":"31","size_leaf_vector":"1"}},{"base_weights":[-8.894722E-3,-2.2350988E-1,2.004435E-1,-3.78614E-1,-7.2215505E-2,1.2774242E-1,5.0093794E-1,-5.1431453E-1,-3.1034103E-1,-6.292546E-1,-4.7733933E-2,4.6673685E-2,3.4521666E-1,4.3261465E-1,1.219792E0,-1.8059112E-2,-3.1136278E-2,-1.7784024E-2,-2.8202755E-3,-3.6237627E-2,1.4306587E-3,-1.0167868E-2,1.2757475E-3,-6.907566E-3,9.182042E-3,-2.4733728E-2,2.0376427E-2,-9.449157E-3,2.4046397E-2,1.2784182E-2,7.008248E-2],"categories":[],"categories_nodes":[],"categories_segments":[],"categories_sizes":[],"default_left":[0,0,0,0,0,0,0,0,0,0,0,0,0,0,0,0,0,0,0,0,0,0,0,0,0,0,0,0,0,0,0],"id":7,"left_children":[1,3,5,7,9,11,13,15,17,19,21,23,25,27,29,-1,-1,-1,-1,-1,-1,-1,-1,-1,-1,-1,-1,-1,-1,-1,-1],"loss_changes":[1.77458E2,4.5740326E1,4.3618866E1,8.760559E0,1.3450825E1,2.8392952E1,1.8586937E1,5.099869E0,7.3837624E0,2.630148E0,1.0811691E1,2.9769516E1,2.3093452E1,1.0810768E1,5.4678345E0,0E0,0E0,0E0,0E0,0E0,0E0,0E0,0E0,0E0,0E0,0E0,0E0,0E0,0E0,0E0,0E0],"parents":[2147483647,0,0,1,1,2,2,3,3,4,4,5,5,6,6,7,7,8,8,9,9,10,10,11,11,12,12,13,13,14,14],"right_children":[2,4,6,8,10,12,14,16,18,20,22,24,26,28,30,-1,-1,-1,-1,-1,-1,-1,-1,-1,-1,-1,-1,-1,-1,-1,-1],"split_conditions":[2.9900333E-2,1.898734E-2,1.2153518E-1,8.264462E-3,3.1681E0,5.033557E-2,6.4285713E-1,3.3E1,2.7173913E-1,2.8409092E-2,1.7368421E-1,7.3E1,3.3774E0,1.438849E-1,3E-1,-1.8059112E-2,-3.1136278E-2,-1.7784024E-2,-2.8202755E-3,-3.6237627E-2,1.4306587E-3,-1.0167868E-2,1.2757475E-3,-6.907566E-3,9.182042E-3,-2.4733728E-2,2.0376427E-2,-9.449157E-3,2.4046397E-2,1.2784182E-2,7.008248E-2],"split_indices":[0,0,8,0,14,0,6,10,7,0,7,10,14,7,5,0,0,0,0,0,0,0,0,0,0,0,0,0,0,0,0],"split_type":[0,0,0,0,0,0,0,0,0,0,0,0,0,0,0,0,0,0,0,0,0,0,0,0,0,0,0,0,0,0,0],"sum_hessian":[3.9479077E3,1.9493507E3,1.998557E3,9.618143E2,9.8753644E2,1.6103717E3,3.8818527E2,3.197469E2,6.420674E2,4.0534542E1,9.470019E2,1.1739633E3,4.3640842E2,3.5595538E2,3.222988E1,1.3433214E2,1.8541475E2,5.4445575E2,9.761166E1,3.530753E1,5.2270117E0,3.0251245E2,6.4448944E2,4.9968042E2,6.742829E2,2.966191E1,4.067465E2,2.5461155E1,3.3049423E2,5.49649E0,2.6733389E1],"tree_param":{"num_deleted":"0","num_feature":"15","num_nodes":"31","size_leaf_vector":"1"}},{"base_weights":[-1.4402538E-2,-1.69256E-1,2.8311425E-1,-3.5137326E-1,-6.3754745E-2,3.7381124E-1,-3.247485E-2,-3.911399E-1,-8.180039E-2,-3.4204322E-1,-2.979407E-2,3.0094406E-1,5.916589E-1,7.409758E-2,-2.4072497E-1,-2.4076227E-2,-1.39715625E-2,6.9715925E-3,-1.574911E-2,2.947842E-2,-1.9754682E-2,2.983864E-3,-5.5304943E-3,1.583807E-2,-1.8858833E-2,1.2302087E-2,3.618652E-2,-6.098098E-4,2.1355985E-2,-2.8900595E-3,-2.5001982E-2],"categories":[],"categories_nodes":[],"categories_segments":[],"categories_sizes":[],"default_left":[0,0,0,0,0,0,0,0,0,0,0,0,0,0,0,0,0,0,0,0,0,0,0,0,0,0,0,0,0,0,0],"id":8,"left_children":[1,3,5,7,9,11,13,15,17,19,21,23,25,27,29,-1,-1,-1,-1,-1,-1,-1,-1,-1,-1,-1,-1,-1,-1,-1,-1],"loss_changes":[1.8183281E2,4.984954E1,3.8683327E1,1.0172287E1,1.5534283E1,1.6482162E1,6.7319155E0,8.238251E0,6.4218235E0,9.069252E0,1.061386E1,8.577019E0,1.17825165E1,6.124674E0,4.839985E0,0E0,0E0,0E0,0E0,0E0,0E0,0E0,0E0,0E0,0E0,0E0,0E0,0E0,0E0,0E0,0E0],"parents":[2147483647,0,0,1,1,2,2,3,3,4,4,5,5,6,6,7,7,8,8,9,9,10,10,11,11,12,12,13,13,14,14],"right_children":[2,4,6,8,10,12,14,16,18,20,22,24,26,28,30,-1,-1,-1,-1,-1,-1,-1,-1,-1,-1,-1,-1,-1,-1,-1,-1],"split_conditions":[3.7549406E-2,1.898734E-2,6E0,2.792793E-1,1.4030612E-1,6E-2,8E0,1.25E-2,2.845304E-1,3.125E-1,5E0,5.170843E-1,2.3529412E-1,2.5221238E-1,4.7058824E-2,-2.4076227E-2,-1.39715625E-2,6.9715925E-3,-1.574911E-2,2.947842E-2,-1.9754682E-2,2.983864E-3,-5.5304943E-3,1.583807E-2,-1.8858833E-2,1.2302087E-2,3.618652E-2,-6.098098E-4,2.1355985E-2,-2.8900595E-3,-2.5001982E-2],"split_indices":[0,0,9,7,7,0,9,0,1,1,9,1,7,3,0,0,0,0,0,0,0,0,0,0,0,0,0,0,0,0,0],"split_type":[0,0,0,0,0,0,0,0,0,0,0,0,0,0,0,0,0,0,0,0,0,0,0,0,0,0,0,0,0,0,0],"sum_hessian":[3.944712E3,2.5946584E3,1.3500536E3,9.50891E2,1.6437675E3,1.048532E3,3.0152158E2,8.282578E2,1.2263317E2,1.7779189E2,1.4659756E3,7.875038E2,2.6102823E2,1.9987785E2,1.0164372E2,4.5599606E2,3.7226178E2,6.313532E1,5.9497856E1,9.0339775E0,1.6875792E2,6.958548E2,7.701207E2,7.7007446E2,1.7429306E1,7.2960686E1,1.8806754E2,1.6139214E2,3.848572E1,6.031774E1,4.1325977E1],"tree_param":{"num_deleted":"0","num_feature":"15","num_nodes":"31","size_leaf_vector":"1"}},{"base_weights":[3.375084E-3,-3.5205758E-1,1.0991914E-1,-3.8929078E-1,-4.4203427E-2,2.206039E-2,3.6916384E-1,-5.7679135E-1,-3.3577618E-1,-4.0375907E-2,4.415675E-2,1.2612872E-1,-8.457656E-2,4.329827E-1,4.921209E-2,-2.240877E-2,-3.8469777E-2,-2.0957567E-2,-1.31536005E-2,1.4455669E-2,-1.100213E-2,1.2893972E-3,1.0023407E-2,-1.902124E-2,-1.4998105E-3,9.162615E-3,2.4873098E-2,-9.552104E-3,1.7980255E-2],"categories":[],"categories_nodes":[],"categories_segments":[],"categories_sizes":[],"default_left":[0,0,0,0,0,0,0,0,0,0,0,0,0,0,0,0,0,0,0,0,0,0,0,0,0,0,0,0,0],"id":9,"left_children":[1,3,5,7,9,11,13,15,17,-1,19,21,23,25,27,-1,-1,-1,-1,-1,-1,-1,-1,-1,-1,-1,-1,-1,-1],"loss_changes":[1.4992178E2,1.0448395E1,6.936749E1,7.977989E0,6.756056E0,2.5268276E1,1.5719818E1,4.1001205E0,3.7447586E0,0E0,5.904416E0,8.589842E0,1.8149834E1,1.0255959E1,9.712938E0,0E0,0E0,0E0,0E0,0E0,0E0,0E0,0E0,0E0,0E0,0E0,0E0,0E0,0E0],"parents":[2147483647,0,0,1,1,2,2,3,3,4,4,5,5,6,6,7,7,8,8,10,10,11,11,12,12,13,13,14,14],"right_children":[2,4,6,8,10,12,14,16,18,-1,20,22,24,26,28,-1,-1,-1,-1,-1,-1,-1,-1,-1,-1,-1,-1,-1,-1],"split_conditions":[1.8518519E-2,2.865275E-1,2.1686748E-1,3.0959751E-3,4.347826E-2,5E0,6E0,3.3E1,1E0,-4.0375907E-2,1E0,1E0,1.7E-1,3.5E1,2.5221238E-1,-2.240877E-2,-3.8469777E-2,-2.0957567E-2,-1.31536005E-2,1.4455669E-2,-1.100213E-2,1.2893972E-3,1.0023407E-2,-1.902124E-2,-1.4998105E-3,9.162615E-3,2.4873098E-2,-9.552104E-3,1.7980255E-2],"split_indices":[0,7,3,0,3,9,9,10,11,0,13,11,7,10,3,0,0,0,0,0,0,0,0,0,0,0,0,0,0],"split_type":[0,0,0,0,0,0,0,0,0,0,0,0,0,0,0,0,0,0,0,0,0,0,0,0,0,0,0,0,0],"sum_hessian":[3.9569119E3,9.120371E2,3.0448745E3,8.1339685E2,9.864026E1,2.274967E3,7.6990753E2,1.7843416E2,6.349627E2,9.389396E0,8.925086E1,1.1512577E3,1.1237095E3,6.415818E2,1.2832576E2,1.0898428E2,6.944987E1,2.9355576E2,3.4140695E2,4.6263042E1,4.298782E1,4.9051904E2,6.607386E2,1.7409143E2,9.49618E2,1.32448E2,5.091338E2,7.255239E1,5.577337E1],"tree_param":{"num_deleted":"0","num_feature":"15","num_nodes":"29","size_leaf_vector":"1"}},{"base_weights":[4.6834745E-3,-3.319624E-1,1.08236164E-1,-5.0485975E-1,-2.84567E-1,5.650951E-2,4.5206216E-1,-3.4075642E-1,-7.435666E-1,-3.3287492E-1,-6.570416E-2,-1.0595509E-1,1.2015687E-1,4.911304E-1,-3.5231522E-1,7.0264945E-3,-2.081613E-2,-2.8808543E-3,-4.0815886E-2,-7.7279345E-3,-2.0074932E-2,-2.2220014E-2,2.2900684E-3,-1.8389605E-2,-2.933791E-3,3.8889998E-3,1.6248424E-2,-7.5200903E-3,2.65884E-2,-3.094096E-2,1.2526976E-2],"categories":[],"categories_nodes":[],"categories_segments":[],"categories_sizes":[],"default_left":[0,0,0,0,0,0,0,0,0,0,0,0,0,0,0,0,0,0,0,0,0,0,0,0,0,0,0,0,0,0,0],"id":10,"left_children":[1,3,5,7,9,11,13,15,17,19,21,23,25,27,29,-1,-1,-1,-1,-1,-1,-1,-1,-1,-1,-1,-1,-1,-1,-1,-1],"loss_changes":[1.3777933E2,7.4751663E0,5.372987E1,7.5317993E0,7.717476E0,2.7191614E1,1.2589745E1,4.4089727E0,3.9512482E0,7.272667E0,5.6619177E0,9.144062E0,1.6370007E1,9.914482E0,3.188986E0,0E0,0E0,0E0,0E0,0E0,0E0,0E0,0E0,0E0,0E0,0E0,0E0,0E0,0E0,0E0,0E0],"parents":[2147483647,0,0,1,1,2,2,3,3,4,4,5,5,6,6,7,7,8,8,9,9,10,10,11,11,12,12,13,13,14,14],"right_children":[2,4,6,8,10,12,14,16,18,20,22,24,26,28,30,-1,-1,-1,-1,-1,-1,-1,-1,-1,-1,-1,-1,-1,-1,-1,-1],"split_conditions":[1.898734E-2,3.3670033E-3,2.5221238E-1,3.1E1,4.1035E0,3.6561E0,6E-1,3.3898305E-2,2.413793E-1,2.857143E-1,1.1007026E-1,1.7368421E-1,1.2153518E-1,5.0724637E-2,1.1016949E-1,7.0264945E-3,-2.081613E-2,-2.8808543E-3,-4.0815886E-2,-7.7279345E-3,-2.0074932E-2,-2.2220014E-2,2.2900684E-3,-1.8389605E-2,-2.933791E-3,3.8889998E-3,1.6248424E-2,-7.5200903E-3,2.65884E-2,-3.094096E-2,1.2526976E-2],"split_indices":[0,0,3,10,14,14,1,8,2,1,7,7,8,0,8,0,0,0,0,0,0,0,0,0,0,0,0,0,0,0,0],"split_type":[0,0,0,0,0,0,0,0,0,0,0,0,0,0,0,0,0,0,0,0,0,0,0,0,0,0,0,0,0,0,0],"sum_hessian":[3.9502646E3,9.2874475E2,3.0215198E3,1.9774036E2,7.310044E2,2.627406E3,3.9411383E2,1.1862024E2,7.9120125E1,5.984026E2,1.3260178E2,7.39391E2,1.888015E3,3.7622995E2,1.7883902E1,1.5980387E1,1.0263985E2,7.7585936E0,7.1361534E1,1.6719765E2,4.3120496E2,2.9483656E1,1.0311812E2,1.1205283E2,6.273382E2,1.5654855E3,3.2252957E2,2.2251516E1,3.5397842E2,1.2383186E1,5.500716E0],"tree_param":{"num_deleted":"0","num_feature":"15","num_nodes":"31","size_leaf_vector":"1"}},{"base_weights":[-5.0383196E-3,-1.9303785E-1,1.9218902E-1,-3.407927E-1,-8.23053E-2,9.790291E-2,3.4743997E-1,-4.555772E-1,-2.3979998E-1,-1.7822541E-1,3.7087547E-3,-1.30551E-1,1.3837048E-1,-2.3988794E-1,3.8760537E-1,-2.3629991E-2,1.677028E-2,-1.4502852E-2,5.3626234E-3,-2.2223657E-2,-6.5150745E-3,-1.0293897E-3,2.6237404E-2,1.567869E-2,-8.95454E-3,8.558298E-3,-1.3517931E-2,-2.4488274E-2,7.4483487E-3,2.160494E-2,-3.1702023E-3],"categories":[],"categories_nodes":[],"categories_segments":[],"categories_sizes":[],"default_left":[0,0,0,0,0,0,0,0,0,0,0,0,0,0,0,0,0,0,0,0,0,0,0,0,0,0,0,0,0,0,0],"id":11,"left_children":[1,3,5,7,9,11,13,15,17,19,21,23,25,27,29,-1,-1,-1,-1,-1,-1,-1,-1,-1,-1,-1,-1,-1,-1,-1,-1],"loss_changes":[1.4662268E2,3.3095894E1,2.821495E1,9.9409485E0,9.559406E0,1.1130997E1,1.7285202E1,5.607155E0,8.1119175E0,6.931347E0,7.755925E0,3.966739E0,1.3740953E1,4.665679E0,1.3723465E1,0E0,0E0,0E0,0E0,0E0,0E0,0E0,0E0,0E0,0E0,0E0,0E0,0E0,0E0,0E0,0E0],"parents":[2147483647,0,0,1,1,2,2,3,3,4,4,5,5,6,6,7,7,8,8,9,9,10,10,11,11,12,12,13,13,14,14],"right_children":[2,4,6,8,10,12,14,16,18,20,22,24,26,28,30,-1,-1,-1,-1,-1,-1,-1,-1,-1,-1,-1,-1,-1,-1,-1,-1],"split_conditions":[1.6176471E-1,1.8518519E-2,2.2222222E-1,1E0,1E0,3.5457E0,1.5384616E-1,4.0065145E-1,2.783505E-1,1E0,1.65E2,3.3561644E-1,4.4554454E-1,4.1035E0,7E0,-2.3629991E-2,1.677028E-2,-1.4502852E-2,5.3626234E-3,-2.2223657E-2,-6.5150745E-3,-1.0293897E-3,2.6237404E-2,1.567869E-2,-8.95454E-3,8.558298E-3,-1.3517931E-2,-2.4488274E-2,7.4483487E-3,2.160494E-2,-3.1702023E-3],"split_indices":[3,0,3,11,11,14,7,1,7,12,10,1,1,14,9,0,0,0,0,0,0,0,0,0,0,0,0,0,0,0,0],"split_type":[0,0,0,0,0,0,0,0,0,0,0,0,0,0,0,0,0,0,0,0,0,0,0,0,0,0,0,0,0,0,0],"sum_hessian":[3.9523691E3,2.0235334E3,1.9288357E3,8.659648E2,1.1575687E3,1.201051E3,7.277847E2,4.0366418E2,4.6230057E2,5.467635E2,6.1080524E2,1.8040039E2,1.02065063E3,4.62667E1,6.8151807E2,3.9555405E2,8.110133E0,4.0396603E2,5.833453E1,8.214141E1,4.646221E2,5.845095E2,2.629573E1,1.7235992E1,1.6316438E2,9.45377E2,7.527361E1,2.8008793E1,1.825791E1,6.203596E2,6.115841E1],"tree_param":{"num_deleted":"0","num_feature":"15","num_nodes":"31","size_leaf_vector":"1"}},{"base_weights":[-5.563607E-3,-1.399368E-1,2.379339E-1,-3.480354E-1,-6.232468E-2,2.726417E-1,-2.1305515E-1,-3.894089E-1,-6.6108875E-2,-2.1883532E-1,2.183508E-2,-1.665805E-2,3.1125548E-1,-1.2144362E-2,-4.8345706E-1,-2.7026076E-2,-1.7022362E-2,-7.3695662E-3,3.3772256E-2,-1.171097E-2,4.5340467E-2,3.417463E-2,6.282438E-4,-3.784204E-3,2.9382378E-2,1.1391606E-2,2.5251154E-2,-8.996575E-3,2.4551243E-2,4.4310247E-3,-3.193937E-2],"categories":[],"categories_nodes":[],"categories_segments":[],"categories_sizes":[],"default_left":[0,0,0,0,0,0,0,0,0,0,0,0,0,0,0,0,0,0,0,0,0,0,0,0,0,0,0,0,0,0,0],"id":12,"left_children":[1,3,5,7,9,11,13,15,17,19,21,23,25,27,29,-1,-1,-1,-1,-1,-1,-1,-1,-1,-1,-1,-1,-1,-1,-1,-1],"loss_changes":[1.2913185E2,4.1052753E1,2.2026115E1,8.029839E0,2.4419374E1,1.456768E1,5.473072E0,4.2702713E0,5.4993052E0,1.1438164E1,7.390401E0,5.5538945E0,1.8476768E1,5.0598674E0,3.874545E0,0E0,0E0,0E0,0E0,0E0,0E0,0E0,0E0,0E0,0E0,0E0,0E0,0E0,0E0,0E0,0E0],"parents":[2147483647,0,0,1,1,2,2,3,3,4,4,5,5,6,6,7,7,8,8,9,9,10,10,11,11,12,12,13,13,14,14],"right_children":[2,4,6,8,10,12,14,16,18,20,22,24,26,28,30,-1,-1,-1,-1,-1,-1,-1,-1,-1,-1,-1,-1,-1,-1,-1,-1],"split_conditions":[3.7549406E-2,1.5789473E-2,8E0,2.792793E-1,3.6561E0,2.6E1,4.676259E-2,7.692308E-2,4.1035E0,5.3846157E-1,1.4E1,4.3117E0,5.574913E-2,4.456522E-1,2.1E1,-2.7026076E-2,-1.7022362E-2,-7.3695662E-3,3.3772256E-2,-1.171097E-2,4.5340467E-2,3.417463E-2,6.282438E-4,-3.784204E-3,2.9382378E-2,1.1391606E-2,2.5251154E-2,-8.996575E-3,2.4551243E-2,4.4310247E-3,-3.193937E-2],"split_indices":[0,0,9,7,14,10,0,6,14,6,10,14,0,2,10,0,0,0,0,0,0,0,0,0,0,0,0,0,0,0,0],"split_type":[0,0,0,0,0,0,0,0,0,0,0,0,0,0,0,0,0,0,0,0,0,0,0,0,0,0,0,0,0,0,0],"sum_hessian":[3.9446104E3,2.5421562E3,1.4024542E3,6.896197E2,1.8525366E3,1.3026024E3,9.985182E1,6.010349E2,8.858476E1,6.4725183E2,1.2052848E3,1.534563E2,1.1491461E3,5.7886562E1,4.1965263E1,1.4462688E2,4.5640802E2,8.055617E1,8.028598E0,6.3930646E2,7.9454117E0,1.5648501E1,1.1896362E3,1.4059802E2,1.2858266E1,8.048201E2,3.4432596E2,4.3892532E1,1.3994028E1,9.052951E0,3.291231E1],"tree_param":{"num_deleted":"0","num_feature":"15","num_nodes":"31","size_leaf_vector":"1"}},{"base_weights":[1.3337504E-2,-1.6292933E-1,1.766299E-1,-3.6632106E-1,-9.36353E-2,-1.2029459E-1,2.1934816E-1,-5.1210773E-1,-2.3706895E-1,-1.9127455E-1,-1.6190967E-2,-1.1143498E-2,-3.188443E-1,1.6421628E-1,4.151791E-1,-1.456966E-2,-3.0230796E-2,-5.131954E-3,-1.7676061E-2,-1.0412066E-2,2.9647255E-2,4.9035833E-4,-1.7518876E-2,3.1801574E-2,-2.0566317E-3,-4.1832436E-2,-1.078431E-2,3.4986862E-3,1.2505363E-2,1.5237342E-2,3.4004264E-2],"categories":[],"categories_nodes":[],"categories_segments":[],"categories_sizes":[],"default_left":[0,0,0,0,0,0,0,0,0,0,0,0,0,0,0,0,0,0,0,0,0,0,0,0,0,0,0,0,0,0,0],"id":13,"left_children":[1,3,5,7,9,11,13,15,17,19,21,23,25,27,29,-1,-1,-1,-1,-1,-1,-1,-1,-1,-1,-1,-1,-1,-1,-1,-1],"loss_changes":[1.1336665E2,2.666116E1,2.5959538E1,8.94191E0,1.06900625E1,5.5833817E0,1.9233261E1,4.421383E0,3.984027E0,8.44511E0,6.864686E0,3.2747853E0,4.7023897E0,1.128791E1,1.1262726E1,0E0,0E0,0E0,0E0,0E0,0E0,0E0,0E0,0E0,0E0,0E0,0E0,0E0,0E0,0E0,0E0],"parents":[2147483647,0,0,1,1,2,2,3,3,4,4,5,5,6,6,7,7,8,8,9,9,10,10,11,11,12,12,13,13,14,14],"right_children":[2,4,6,8,10,12,14,16,18,20,22,24,26,28,30,-1,-1,-1,-1,-1,-1,-1,-1,-1,-1,-1,-1,-1,-1,-1,-1],"split_conditions":[3.0303031E-2,1.25E-2,3.5457E0,1E0,2.1428572E-1,3.9433295E-1,1.2153518E-1,2.9E1,7E0,1.69E2,9E0,3.0612245E-2,1.7857143E-1,4.255319E-2,2.7272728E-1,-1.456966E-2,-3.0230796E-2,-5.131954E-3,-1.7676061E-2,-1.0412066E-2,2.9647255E-2,4.9035833E-4,-1.7518876E-2,3.1801574E-2,-2.0566317E-3,-4.1832436E-2,-1.078431E-2,3.4986862E-3,1.2505363E-2,1.5237342E-2,3.4004264E-2],"split_indices":[0,0,14,11,6,1,8,10,9,10,9,0,3,0,5,0,0,0,0,0,0,0,0,0,0,0,0,0,0,0,0],"split_type":[0,0,0,0,0,0,0,0,0,0,0,0,0,0,0,0,0,0,0,0,0,0,0,0,0,0,0,0,0,0,0],"sum_hessian":[3.936663E3,1.8931234E3,2.0435398E3,4.7998514E2,1.4131383E3,2.5679605E2,1.7867438E3,2.2417287E2,2.5581226E2,6.244201E2,7.8871814E2,1.6638394E2,9.04121E1,1.3956638E3,3.9107986E2,6.743357E1,1.567393E2,1.1961398E2,1.3619827E2,6.1191565E2,1.2504474E1,7.32689E2,5.6029087E1,6.473569E0,1.5991037E2,1.3838595E1,7.65735E1,6.6634344E2,7.2932043E2,2.775338E2,1.1354604E2],"tree_param":{"num_deleted":"0","num_feature":"15","num_nodes":"31","size_leaf_vector":"1"}},{"base_weights":[-1.6478356E-4,-1.5107393E-1,1.5257876E-1,-2.57404E-1,-5.845951E-2,2.1895224E-1,-6.2437613E-2,-4.107074E-1,-1.797274E-1,-1.8530507E-1,5.9161987E-2,1.6582546E-1,3.6996084E-1,-2.2925794E-1,2.016815E-2,-2.5437389E-2,-1.0201941E-2,-2.3235016E-2,-6.2433905E-3,-1.0998877E-2,1.08319735E-2,-3.7468064E-3,1.1347235E-2,-7.24277E-3,9.431927E-3,7.773141E-2,1.7357415E-2,-1.3966337E-2,1.642198E-2,-8.6718966E-4,3.7168942E-2],"categories":[],"categories_nodes":[],"categories_segments":[],"categories_sizes":[],"default_left":[0,0,0,0,0,0,0,0,0,0,0,0,0,0,0,0,0,0,0,0,0,0,0,0,0,0,0,0,0,0,0],"id":14,"left_children":[1,3,5,7,9,11,13,15,17,19,21,23,25,27,29,-1,-1,-1,-1,-1,-1,-1,-1,-1,-1,-1,-1,-1,-1,-1,-1],"loss_changes":[9.124652E1,1.9594074E1,2.8090145E1,1.0961239E1,1.5908775E1,1.2000633E1,6.4100723E0,6.194763E0,9.585148E0,7.1958656E0,1.2473482E1,7.9230595E0,1.00131035E1,4.3925753E0,8.471791E0,0E0,0E0,0E0,0E0,0E0,0E0,0E0,0E0,0E0,0E0,0E0,0E0,0E0,0E0,0E0,0E0],"parents":[2147483647,0,0,1,1,2,2,3,3,4,4,5,5,6,6,7,7,8,8,9,9,10,10,11,11,12,12,13,13,14,14],"right_children":[2,4,6,8,10,12,14,16,18,20,22,24,26,28,30,-1,-1,-1,-1,-1,-1,-1,-1,-1,-1,-1,-1,-1,-1,-1,-1],"split_conditions":[1.6176471E-1,1E0,6E0,6.666667E-2,3.6883E0,1.2153518E-1,4.1E1,1.16071425E-1,1E0,1.5294118E-1,8.978328E-2,2.2E1,3.1728664E-1,1.3402061E-1,5.263158E-1,-2.5437389E-2,-1.0201941E-2,-2.3235016E-2,-6.2433905E-3,-1.0998877E-2,1.08319735E-2,-3.7468064E-3,1.1347235E-2,-7.24277E-3,9.431927E-3,7.773141E-2,1.7357415E-2,-1.3966337E-2,1.642198E-2,-8.6718966E-4,3.7168942E-2],"split_indices":[3,11,9,5,14,8,10,3,12,3,8,10,1,8,2,0,0,0,0,0,0,0,0,0,0,0,0,0,0,0,0],"split_type":[0,0,0,0,0,0,0,0,0,0,0,0,0,0,0,0,0,0,0,0,0,0,0,0,0,0,0,0,0,0,0],"sum_hessian":[3.9565662E3,1.9902395E3,1.9663265E3,9.2568585E2,1.0645537E3,1.5025007E3,4.638258E2,3.0985837E2,6.158275E2,5.1191647E2,5.5263727E2,1.1130231E3,3.8947775E2,1.530234E2,3.108024E2,2.091698E2,1.0068857E2,9.820782E1,5.176197E2,4.7168112E2,4.023534E1,3.074585E2,2.4517876E2,7.5771805E1,1.0372512E3,6.0896893E0,3.8338806E2,1.408751E2,1.2148301E1,2.9640433E2,1.43980665E1],"tree_param":{"num_deleted":"0","num_feature":"15","num_nodes":"31","size_leaf_vector":"1"}},{"base_weights":[-6.447995E-3,-1.250578E-1,1.8052007E-1,-3.4445864E-1,-7.1753554E-2,-1.666053E-1,2.2086185E-1,-3.86582E-1,-3.297466E-2,-2.8534833E-1,-4.09295E-2,-3.3908555E-1,-1.0346769E-2,9.277404E-2,2.9250088E-1,-1.4405596E-2,-2.384263E-2,7.2855065E-3,-2.278204E-2,2.5065204E-3,-1.6952006E-2,-7.826491E-3,1.4162505E-3,-1.5628511E-3,-2.5273843E-2,4.7210976E-3,-4.4480156E-2,-2.3198246E-3,1.28873335E-2,1.206923E-2,2.859123E-2],"categories":[],"categories_nodes":[],"categories_segments":[],"categories_sizes":[],"default_left":[0,0,0,0,0,0,0,0,0,0,0,0,0,0,0,0,0,0,0,0,0,0,0,0,0,0,0,0,0,0,0],"id":15,"left_children":[1,3,5,7,9,11,13,15,17,19,21,23,25,27,29,-1,-1,-1,-1,-1,-1,-1,-1,-1,-1,-1,-1,-1,-1,-1,-1],"loss_changes":[8.7458405E1,2.8195045E1,2.147348E1,6.1722336E0,1.2778047E1,4.307411E0,1.2560997E1,3.552784E0,4.38994E0,4.4267273E0,1.3604544E1,3.8767948E0,7.90978E0,1.1342926E1,1.2416855E1,0E0,0E0,0E0,0E0,0E0,0E0,0E0,0E0,0E0,0E0,0E0,0E0,0E0,0E0,0E0,0E0],"parents":[2147483647,0,0,1,1,2,2,3,3,4,4,5,5,6,6,7,7,8,8,9,9,10,10,11,11,12,12,13,13,14,14],"right_children":[2,4,6,8,10,12,14,16,18,20,22,24,26,28,30,-1,-1,-1,-1,-1,-1,-1,-1,-1,-1,-1,-1,-1,-1,-1,-1],"split_conditions":[3.6144577E-2,1.25E-2,3.5457E0,2.792793E-1,1.3766234E-1,2E-1,5.9E1,7E0,3.237705E-1,3.2098764E-1,3.6561E0,4.048583E-2,6.818182E-2,2.4489796E-1,6.451613E-2,-1.4405596E-2,-2.384263E-2,7.2855065E-3,-2.278204E-2,2.5065204E-3,-1.6952006E-2,-7.826491E-3,1.4162505E-3,-1.5628511E-3,-2.5273843E-2,4.7210976E-3,-4.4480156E-2,-2.3198246E-3,1.28873335E-2,1.206923E-2,2.859123E-2],"split_indices":[0,0,14,7,7,4,10,9,2,1,14,0,0,7,0,0,0,0,0,0,0,0,0,0,0,0,0,0,0,0,0],"split_type":[0,0,0,0,0,0,0,0,0,0,0,0,0,0,0,0,0,0,0,0,0,0,0,0,0,0,0,0,0,0,0],"sum_hessian":[3.9417695E3,2.4119775E3,1.5297921E3,4.7038907E2,1.9415884E3,1.5895094E2,1.3708412E3,4.1414172E2,5.624734E1,2.4381555E2,1.6977728E3,7.499758E1,8.395336E1,4.9252344E2,8.783177E2,2.0007983E2,2.1406189E2,3.999462E1,1.625272E1,3.36471E1,2.1016846E2,6.3558606E2,1.0621868E3,2.6731466E1,4.8266113E1,7.581246E1,8.1409025E0,2.675433E2,2.2498015E2,7.4402515E2,1.3429256E2],"tree_param":{"num_deleted":"0","num_feature":"15","num_nodes":"31","size_leaf_vector":"1"}},{"base_weights":[5.9383647E-3,-2.581903E-1,8.050847E-2,-2.9784846E-1,-2.7088074E-3,1.2294408E-2,2.6307058E-1,-3.3628416E-1,-8.115045E-2,1.2355764E-1,-3.7167048E-1,-4.2207485E-1,2.6520172E-2,3.0973953E-1,-2.0977884E-4,-1.8556742E-2,-3.5461192E-3,-1.213298E-2,1.1140586E-2,-3.717285E-2,1.0822808E-2,-4.16128E-2,-4.2295363E-3,1.7412953E-3,-2.8587101E-2,-7.08623E-3,3.017858E-3,8.0860965E-3,2.3570653E-2,3.7471045E-2,-2.3566491E-3],"categories":[],"categories_nodes":[],"categories_segments":[],"categories_sizes":[],"default_left":[0,0,0,0,0,0,0,0,0,0,0,0,0,0,0,0,0,0,0,0,0,0,0,0,0,0,0,0,0,0,0],"id":16,"left_children":[1,3,5,7,9,11,13,15,17,19,21,23,25,27,29,-1,-1,-1,-1,-1,-1,-1,-1,-1,-1,-1,-1,-1,-1,-1,-1],"loss_changes":[7.737713E1,8.762707E0,3.814814E1,6.2086563E0,5.507462E0,1.3798798E1,1.023851E1,5.851715E0,5.6560526E0,7.256259E0,3.9148107E0,4.8625984E0,1.2313541E1,1.6862E1,4.4837365E0,0E0,0E0,0E0,0E0,0E0,0E0,0E0,0E0,0E0,0E0,0E0,0E0,0E0,0E0,0E0,0E0],"parents":[2147483647,0,0,1,1,2,2,3,3,4,4,5,5,6,6,7,7,8,8,9,9,10,10,11,11,12,12,13,13,14,14],"right_children":[2,4,6,8,10,12,14,16,18,20,22,24,26,28,30,-1,-1,-1,-1,-1,-1,-1,-1,-1,-1,-1,-1,-1,-1,-1,-1],"split_conditions":[1.898734E-2,2.792793E-1,2.1686748E-1,1.0869565E-1,1.1340206E-1,1.1363637E-1,6E0,4E-1,2.6666668E-1,4.054054E-2,2.6666668E-1,1.2962963E-1,1.4285715E-1,2.4761905E-1,3.2786883E-2,-1.8556742E-2,-3.5461192E-3,-1.213298E-2,1.1140586E-2,-3.717285E-2,1.0822808E-2,-4.16128E-2,-4.2295363E-3,1.7412953E-3,-2.8587101E-2,-7.08623E-3,3.017858E-3,8.0860965E-3,2.3570653E-2,3.7471045E-2,-2.3566491E-3],"split_indices":[0,7,3,8,3,7,9,6,6,3,6,3,6,7,8,0,0,0,0,0,0,0,0,0,0,0,0,0,0,0,0],"split_type":[0,0,0,0,0,0,0,0,0,0,0,0,0,0,0,0,0,0,0,0,0,0,0,0,0,0,0,0,0,0,0],"sum_hessian":[3.9264944E3,8.639402E2,3.0625542E3,7.477083E2,1.162319E2,2.2302805E3,8.322737E2,6.345979E2,1.1311041E2,8.709223E1,2.9139671E1,6.981708E1,2.1604634E3,7.068087E2,1.2546498E2,5.6057715E2,7.402076E1,7.399509E1,3.911533E1,7.750889E0,7.934134E1,1.0459538E1,1.8680134E1,1.7416292E1,5.2400784E1,3.6121857E2,1.7992449E3,3.7003207E2,3.367766E2,6.5089397E0,1.1895604E2],"tree_param":{"num_deleted":"0","num_feature":"15","num_nodes":"31","size_leaf_vector":"1"}},{"base_weights":[-1.0764431E-2,-2.8478387E-1,6.154309E-2,-3.28417E-1,-1.1433072E-2,1.3333848E-1,-1.0348158E-1,-4.0916035E-1,-2.1488813E-1,1.0168549E-1,-4.9966085E-1,6.5353796E-2,2.747263E-1,-4.79029E-1,-7.109565E-2,-1.6833305E-2,-2.9181693E-2,-1.1981549E-2,2.6729925E-2,-3.8703486E-2,9.988524E-3,-3.7668273E-2,9.6065516E-4,-1.8593632E-3,7.068434E-3,-1.7195456E-2,1.4944503E-2,4.139686E-2,-2.9465115E-2,-7.4711456E-3,6.690047E-4],"categories":[],"categories_nodes":[],"categories_segments":[],"categories_sizes":[],"default_left":[0,0,0,0,0,0,0,0,0,0,0,0,0,0,0,0,0,0,0,0,0,0,0,0,0,0,0,0,0,0,0],"id":17,"left_children":[1,3,5,7,9,11,13,15,17,19,21,23,25,27,29,-1,-1,-1,-1,-1,-1,-1,-1,-1,-1,-1,-1,-1,-1,-1,-1],"loss_changes":[7.827976E1,9.834427E0,3.705134E1,6.4321365E0,6.3786964E0,2.0924969E1,1.1499249E1,5.0468903E0,5.6492863E0,8.216723E0,2.8740125E0,1.1483887E1,1.06737175E1,1.131291E1,5.786116E0,0E0,0E0,0E0,0E0,0E0,0E0,0E0,0E0,0E0,0E0,0E0,0E0,0E0,0E0,0E0,0E0],"parents":[2147483647,0,0,1,1,2,2,3,3,4,4,5,5,6,6,7,7,8,8,9,9,10,10,11,11,12,12,13,13,14,14],"right_children":[2,4,6,8,10,12,14,16,18,20,22,24,26,28,30,-1,-1,-1,-1,-1,-1,-1,-1,-1,-1,-1,-1,-1,-1,-1,-1],"split_conditions":[1.8518519E-2,2.792793E-1,6E0,1.2820513E-2,1.1904762E-1,2.1686748E-1,1.4589666E-1,3.2038835E-1,4E-1,4.054054E-2,9.677419E-2,1E0,3.8961038E-2,3.131313E-1,1E0,-1.6833305E-2,-2.9181693E-2,-1.1981549E-2,2.6729925E-2,-3.8703486E-2,9.988524E-3,-3.7668273E-2,9.6065516E-4,-1.8593632E-3,7.068434E-3,-1.7195456E-2,1.4944503E-2,4.139686E-2,-2.9465115E-2,-7.4711456E-3,6.690047E-4],"split_indices":[0,7,9,0,3,3,7,1,4,3,8,11,8,1,11,0,0,0,0,0,0,0,0,0,0,0,0,0,0,0,0],"split_type":[0,0,0,0,0,0,0,0,0,0,0,0,0,0,0,0,0,0,0,0,0,0,0,0,0,0,0,0,0,0,0],"sum_hessian":[3.9489119E3,8.23856E2,3.125056E3,7.102777E2,1.13578316E2,2.1777842E3,9.4727155E2,4.1355072E2,2.9672702E2,9.2856026E1,2.072229E1,1.4716304E3,7.0615393E2,7.410924E1,8.731623E2,2.9422784E2,1.19322876E2,2.8790274E2,8.82428E0,8.658297E0,8.419773E1,1.3613845E1,7.1084447E0,6.267202E2,8.449101E2,2.6047926E1,6.80106E2,5.2599487E0,6.884929E1,4.5267032E2,4.20492E2],"tree_param":{"num_deleted":"0","num_feature":"15","num_nodes":"31","size_leaf_vector":"1"}},{"base_weights":[-1.0310148E-3,-2.62638E-1,6.7065716E-2,-4.6260327E-1,-2.0476398E-1,2.0056901E-2,2.63759E-1,-5.4192364E-1,-5.339328E-2,-3.053137E-1,-1.1624292E-1,-4.526854E-2,8.2187355E-2,2.9489797E-1,-4.0570974E-1,-1.6434688E-2,-3.092154E-2,-2.1220906E-2,2.1549672E-2,-2.0547558E-2,-9.078814E-3,-8.370996E-3,9.1711795E-3,-1.3345689E-2,8.083917E-4,1.3005139E-3,8.8725565E-3,7.148988E-2,1.4098092E-2,-2.8903633E-2,-4.8728823E-3],"categories":[],"categories_nodes":[],"categories_segments":[],"categories_sizes":[],"default_left":[0,0,0,0,0,0,0,0,0,0,0,0,0,0,0,0,0,0,0,0,0,0,0,0,0,0,0,0,0,0,0],"id":18,"left_children":[1,3,5,7,9,11,13,15,17,19,21,23,25,27,29,-1,-1,-1,-1,-1,-1,-1,-1,-1,-1,-1,-1,-1,-1,-1,-1],"loss_changes":[7.008771E1,9.309147E0,2.885909E1,5.865448E0,5.589678E0,1.0234224E1,1.2670937E1,2.276432E0,5.681309E0,3.785017E0,5.2098722E0,1.6744745E1,6.911127E0,8.051739E0,1.3878093E0,0E0,0E0,0E0,0E0,0E0,0E0,0E0,0E0,0E0,0E0,0E0,0E0,0E0,0E0,0E0,0E0],"parents":[2147483647,0,0,1,1,2,2,3,3,4,4,5,5,6,6,7,7,8,8,9,9,10,10,11,11,12,12,13,13,14,14],"right_children":[2,4,6,8,10,12,14,16,18,20,22,24,26,28,30,-1,-1,-1,-1,-1,-1,-1,-1,-1,-1,-1,-1,-1,-1,-1,-1],"split_conditions":[1.8518519E-2,9.090909E-2,5.1948052E-2,2.792793E-1,1E0,3.3333334E-1,8E0,6.666667E-2,8E0,1.2820513E-2,2.7173913E-1,1.7368421E-1,3.9473683E-2,3.6734694E-1,4E-1,-1.6434688E-2,-3.092154E-2,-2.1220906E-2,2.1549672E-2,-2.0547558E-2,-9.078814E-3,-8.370996E-3,9.1711795E-3,-1.3345689E-2,8.083917E-4,1.3005139E-3,8.8725565E-3,7.148988E-2,1.4098092E-2,-2.8903633E-2,-4.8728823E-3],"split_indices":[0,6,0,7,11,6,9,6,9,0,7,7,0,1,6,0,0,0,0,0,0,0,0,0,0,0,0,0,0,0,0],"split_type":[0,0,0,0,0,0,0,0,0,0,0,0,0,0,0,0,0,0,0,0,0,0,0,0,0,0,0,0,0,0,0],"sum_hessian":[3.9323E3,8.115839E2,3.120716E3,1.805966E2,6.309873E2,2.5196362E3,6.0107983E2,1.5100233E2,2.9594276E1,2.9427533E2,3.3671198E2,1.22837E3,1.2912662E3,5.748991E2,2.6180746E1,4.127175E1,1.09730576E2,1.6828209E1,1.2766069E1,1.5749617E2,1.3677916E2,2.8797324E2,4.873872E1,2.658637E2,9.625063E2,8.13071E2,4.7819522E2,5.244743E0,5.6965436E2,1.6230139E1,9.950606E0],"tree_param":{"num_deleted":"0","num_feature":"15","num_nodes":"31","size_leaf_vector":"1"}},{"base_weights":[-8.039975E-3,-1.2938131E-1,1.0876901E-1,-5.522264E-2,-2.488645E-1,1.2407436E-2,1.8688244E-1,-1.6528551E-1,3.3570003E-2,-5.307939E-1,-1.829839E-1,-5.967587E-1,4.325439E-2,8.951516E-2,3.0327976E-1,-1.2054899E-2,1.9237705E-3,-2.1692436E-2,3.819155E-3,-1.5956668E-2,-3.2986682E-2,-1.7935494E-2,-5.221497E-3,-3.5940398E-2,-4.4666165E-3,-3.3145496E-3,6.5355464E-3,1.2223494E-2,2.2694736E-3,2.7117252E-2,1.06678745E-2],"categories":[],"categories_nodes":[],"categories_segments":[],"categories_sizes":[],"default_left":[0,0,0,0,0,0,0,0,0,0,0,0,0,0,0,0,0,0,0,0,0,0,0,0,0,0,0,0,0,0,0],"id":19,"left_children":[1,3,5,7,9,11,13,15,17,19,21,23,25,27,29,-1,-1,-1,-1,-1,-1,-1,-1,-1,-1,-1,-1,-1,-1,-1,-1],"loss_changes":[5.5828663E1,1.71045E1,1.5104307E1,1.166784E1,1.3639614E1,1.6930063E1,1.2534214E1,8.243155E0,1.3267354E1,3.5983047E0,8.258991E0,2.6251907E0,8.220757E0,4.1251264E0,1.0728088E1,0E0,0E0,0E0,0E0,0E0,0E0,0E0,0E0,0E0,0E0,0E0,0E0,0E0,0E0,0E0,0E0],"parents":[2147483647,0,0,1,1,2,2,3,3,4,4,5,5,6,6,7,7,8,8,9,9,10,10,11,11,12,12,13,13,14,14],"right_children":[2,4,6,8,10,12,14,16,18,20,22,24,26,28,30,-1,-1,-1,-1,-1,-1,-1,-1,-1,-1,-1,-1,-1,-1,-1,-1],"split_conditions":[1.6176471E-1,7E0,1E0,1E0,1.6363636E-1,1.438849E-1,2.413793E-1,3.6486486E-1,1.1363637E-1,3.148148E-1,1.25E-2,2.6666668E-1,2E-1,8.3333336E-2,2.5525525E-1,-1.2054899E-2,1.9237705E-3,-2.1692436E-2,3.819155E-3,-1.5956668E-2,-3.2986682E-2,-1.7935494E-2,-5.221497E-3,-3.5940398E-2,-4.4666165E-3,-3.3145496E-3,6.5355464E-3,1.2223494E-2,2.2694736E-3,2.7117252E-2,1.06678745E-2],"split_indices":[3,9,11,11,7,7,7,1,7,1,0,5,5,5,7,0,0,0,0,0,0,0,0,0,0,0,0,0,0,0,0],"split_type":[0,0,0,0,0,0,0,0,0,0,0,0,0,0,0,0,0,0,0,0,0,0,0,0,0,0,0,0,0,0,0],"sum_hessian":[3.9368826E3,1.9309261E3,2.0059564E3,1.1923451E3,7.38581E2,8.9859674E2,1.1073597E3,5.3201935E2,6.6032574E2,1.3856198E2,6.0001904E2,4.2425785E1,8.5617096E2,6.0393353E2,5.0342618E2,3.8761707E2,1.4440225E2,5.4640957E1,6.056848E2,5.3770416E1,8.479157E1,1.8426038E2,4.1575867E2,3.3864033E1,8.561753E0,3.8019382E2,4.759771E2,1.3285403E2,4.7107947E2,1.3622644E2,3.6719974E2],"tree_param":{"num_deleted":"0","num_feature":"15","num_nodes":"31","size_leaf_vector":"1"}},{"base_weights":[6.398832E-3,1.0193049E-1,-1.6130088E-1,2.8008027E-2,2.7649635E-1,-2.7776536E-1,-9.5655225E-2,-3.5340276E-1,5.1645484E-2,1.4454389E-2,3.3591467E-1,-3.856526E-1,-1.7883228E-1,-3.391332E-1,-6.1096787E-2,-3.8747754E-2,-1.3589953E-2,-8.1342375E-3,3.947991E-3,1.6202057E-2,-4.9519655E-3,3.752964E-2,1.5411988E-2,-2.0537011E-2,2.9076127E-2,1.5708039E-3,-1.1686113E-2,-2.5666231E-2,-7.7043767E-3,-6.706276E-3,1.1059627E-3],"categories":[],"categories_nodes":[],"categories_segments":[],"categories_sizes":[],"default_left":[0,0,0,0,0,0,0,0,0,0,0,0,0,0,0,0,0,0,0,0,0,0,0,0,0,0,0,0,0,0,0],"id":20,"left_children":[1,3,5,7,9,11,13,15,17,19,21,23,25,27,29,-1,-1,-1,-1,-1,-1,-1,-1,-1,-1,-1,-1,-1,-1,-1,-1],"loss_changes":[6.3094177E1,3.2368984E1,1.0900993E1,1.5919029E1,1.16147995E1,5.424721E0,7.683365E0,3.3343801E0,9.740608E0,4.9155416E0,6.7495193E0,6.191887E0,3.127387E0,3.5821247E0,4.8830395E0,0E0,0E0,0E0,0E0,0E0,0E0,0E0,0E0,0E0,0E0,0E0,0E0,0E0,0E0,0E0,0E0],"parents":[2147483647,0,0,1,1,2,2,3,3,4,4,5,5,6,6,7,7,8,8,9,9,10,10,11,11,12,12,13,13,14,14],"right_children":[2,4,6,8,10,12,14,16,18,20,22,24,26,28,30,-1,-1,-1,-1,-1,-1,-1,-1,-1,-1,-1,-1,-1,-1,-1,-1],"split_conditions":[6E0,2.1543986E-1,1.898734E-2,1.1363637E-1,1.9159664E-1,1E0,1.6863905E-1,3.526971E-1,1.5789473E-2,4.3537414E-1,2.020202E-1,1.5337424E-1,7E0,9.090909E-2,3.5457E0,-3.8747754E-2,-1.3589953E-2,-8.1342375E-3,3.947991E-3,1.6202057E-2,-4.9519655E-3,3.752964E-2,1.5411988E-2,-2.0537011E-2,2.9076127E-2,1.5708039E-3,-1.1686113E-2,-2.5666231E-2,-7.7043767E-3,-6.706276E-3,1.1059627E-3],"split_indices":[9,3,0,7,7,11,7,2,0,1,7,3,9,5,14,0,0,0,0,0,0,0,0,0,0,0,0,0,0,0,0],"split_type":[0,0,0,0,0,0,0,0,0,0,0,0,0,0,0,0,0,0,0,0,0,0,0,0,0,0,0,0,0,0,0],"sum_hessian":[3.9362815E3,2.5079802E3,1.4283014E3,1.7626997E3,7.4528046E2,5.1369824E2,9.1460315E2,1.0205197E2,1.6606478E3,1.3798647E2,6.0729395E2,2.4434268E2,2.6935556E2,1.1258483E2,8.020183E2,1.5173166E1,8.687881E1,1.8715137E2,1.4734965E3,3.6517986E1,1.01468475E2,3.6359848E1,5.7093414E2,2.3872568E2,5.6170025E0,5.5851574E1,2.13504E2,5.7079453E1,5.5505383E1,4.268295E2,3.751888E2],"tree_param":{"num_deleted":"0","num_feature":"15","num_nodes":"31","size_leaf_vector":"1"}},{"base_weights":[-9.297681E-3,7.194593E-2,-1.5381369E-1,2.504894E-2,2.5267676E-1,-4.1925487E-1,-9.8512046E-2,-4.7328018E-2,1.1757813E-1,2.0083214E-1,5.6780046E-1,-2.1967028E-1,-4.9958155E-1,-3.6748758E-1,-6.529984E-2,-3.363006E-2,-1.6986494E-3,8.10819E-3,-1.6219713E-2,1.1970059E-2,-7.3168688E-3,3.3475038E-2,-1.0537994E-2,-3.0011073E-2,-5.8885623E-4,-2.7976621E-2,-2.8500087E-3,-6.9310814E-3,-2.3713455E-2,-3.8732723E-3,2.395544E-2],"categories":[],"categories_nodes":[],"categories_segments":[],"categories_sizes":[],"default_left":[0,0,0,0,0,0,0,0,0,0,0,0,0,0,0,0,0,0,0,0,0,0,0,0,0,0,0,0,0,0,0],"id":21,"left_children":[1,3,5,7,9,11,13,15,17,19,21,23,25,27,29,-1,-1,-1,-1,-1,-1,-1,-1,-1,-1,-1,-1,-1,-1,-1,-1],"loss_changes":[4.6095463E1,2.129533E1,2.069809E1,1.337656E1,8.343586E0,3.7906647E0,1.04327545E1,9.33805E0,1.7326118E1,6.008209E0,5.8887634E0,5.657646E0,4.5500374E0,3.0729885E0,6.945676E0,0E0,0E0,0E0,0E0,0E0,0E0,0E0,0E0,0E0,0E0,0E0,0E0,0E0,0E0,0E0,0E0],"parents":[2147483647,0,0,1,1,2,2,3,3,4,4,5,5,6,6,7,7,8,8,9,9,10,10,11,11,12,12,13,13,14,14],"right_children":[2,4,6,8,10,12,14,16,18,20,22,24,26,28,30,-1,-1,-1,-1,-1,-1,-1,-1,-1,-1,-1,-1,-1,-1,-1,-1],"split_conditions":[6E0,1.2153518E-1,1.6717325E-1,1.8132612E-1,6E-1,3.148148E-1,8.264462E-3,6.666667E-2,5.1125E-1,3.2098764E-1,1.6605617E-1,3.3670033E-3,3.7549406E-2,2.6744187E-1,5.833333E-1,-3.363006E-2,-1.6986494E-3,8.10819E-3,-1.6219713E-2,1.1970059E-2,-7.3168688E-3,3.3475038E-2,-1.0537994E-2,-3.0011073E-2,-5.8885623E-4,-2.7976621E-2,-2.8500087E-3,-6.9310814E-3,-2.3713455E-2,-3.8732723E-3,2.395544E-2],"split_indices":[9,8,7,3,6,1,0,6,1,3,8,0,0,2,6,0,0,0,0,0,0,0,0,0,0,0,0,0,0,0,0],"split_type":[0,0,0,0,0,0,0,0,0,0,0,0,0,0,0,0,0,0,0,0,0,0,0,0,0,0,0,0,0,0,0],"sum_hessian":[3.924082E3,2.512253E3,1.4118291E3,1.9955704E3,5.166825E2,2.422892E2,1.1695399E3,1.1199929E3,8.755775E2,4.4509256E2,7.158996E1,7.0601944E1,1.7168724E2,1.2743314E2,1.0421068E3,2.238908E1,1.0976039E3,7.9591925E2,7.965832E1,4.0086826E2,4.4224293E1,6.3442757E1,8.147202E0,2.4276442E1,4.6325504E1,1.5097266E2,2.0714596E1,4.1272194E1,8.616095E1,1.02016736E3,2.193942E1],"tree_param":{"num_deleted":"0","num_feature":"15","num_nodes":"31","size_leaf_vector":"1"}},{"base_weights":[1.8642277E-3,-1.3799994E-1,1.10401966E-1,-3.5427728E-1,-9.050604E-2,-1.9708525E-1,1.3502407E-1,-5.1663095E-1,-2.075036E-1,-7.205686E-2,-4.979896E-1,-2.4009247E-1,3.1385448E-2,-8.801201E-2,1.6035561E-1,-1.2384103E-2,-3.1411495E-2,-3.9312344E-2,-6.901981E-3,-1.0767024E-2,-4.04024E-4,-3.373801E-2,-1.1691629E-2,-2.5719304E-2,-5.2927383E-3,-1.3514169E-2,2.8170939E-3,5.8180294E-3,1.5904352E-2],"categories":[],"categories_nodes":[],"categories_segments":[],"categories_sizes":[],"default_left":[0,0,0,0,0,0,0,0,0,0,0,0,0,0,0,0,0,0,0,0,0,0,0,0,0,0,0,0,0],"id":22,"left_children":[1,3,5,7,9,11,13,15,17,19,21,23,-1,25,27,-1,-1,-1,-1,-1,-1,-1,-1,-1,-1,-1,-1,-1,-1],"loss_changes":[5.9608208E1,1.7591553E1,1.6765274E1,7.246128E0,1.05501E1,5.979459E0,1.1582619E1,4.22184E0,6.474101E0,1.2357911E1,2.6824017E0,5.722659E0,0E0,5.5270433E0,1.2725204E1,0E0,0E0,0E0,0E0,0E0,0E0,0E0,0E0,0E0,0E0,0E0,0E0,0E0,0E0],"parents":[2147483647,0,0,1,1,2,2,3,3,4,4,5,5,6,6,7,7,8,8,9,9,10,10,11,11,13,13,14,14],"right_children":[2,4,6,8,10,12,14,16,18,20,22,24,-1,26,28,-1,-1,-1,-1,-1,-1,-1,-1,-1,-1,-1,-1,-1,-1],"split_conditions":[1.5456675E-1,9.478673E-3,1.438849E-1,1E0,3.3175357E-2,3.6363637E-1,2.6E1,2.7E1,1.2E-1,1.7156863E-1,3.539823E-2,1E0,3.1385448E-2,1E0,5.511811E-2,-1.2384103E-2,-3.1411495E-2,-3.9312344E-2,-6.901981E-3,-1.0767024E-2,-4.04024E-4,-3.373801E-2,-1.1691629E-2,-2.5719304E-2,-5.2927383E-3,-1.3514169E-2,2.8170939E-3,5.8180294E-3,1.5904352E-2],"split_indices":[3,0,7,11,0,5,10,10,7,7,0,11,0,11,0,0,0,0,0,0,0,0,0,0,0,0,0,0,0],"split_type":[0,0,0,0,0,0,0,0,0,0,0,0,0,0,0,0,0,0,0,0,0,0,0,0,0,0,0,0,0],"sum_hessian":[3.924616E3,1.714719E3,2.209897E3,3.0758438E2,1.4071346E3,1.6331926E2,2.0465776E3,1.4484464E2,1.6273976E2,1.3473108E3,5.9823845E1,1.5589911E2,7.4201365E0,2.084825E2,1.8380952E3,4.3421074E1,1.0142357E2,1.6333923E1,1.4640584E2,4.1515347E2,9.3215735E2,3.490887E1,2.4914974E1,5.029576E1,1.05603355E2,9.175448E1,1.1672802E2,1.4385791E3,3.9951605E2],"tree_param":{"num_deleted":"0","num_feature":"15","num_nodes":"29","size_leaf_vector":"1"}},{"base_weights":[-1.839339E-3,-8.625757E-2,1.3546003E-1,-1.8044639E-1,-7.988981E-3,7.168449E-2,3.37701E-1,-4.2950374E-1,-1.2419164E-1,-1.1711219E-1,5.422066E-2,1.0458495E-1,-2.8033793E-1,2.8753138E-1,7.1066904E-1,-1.1533786E-2,-2.8711367E-2,-1.7213777E-2,-4.463371E-3,-1.4945955E-3,-1.3650658E-2,-1.5489811E-2,4.052155E-3,2.222022E-4,9.842056E-3,5.2720457E-3,-1.8589353E-2,3.764672E-2,1.2814671E-2,6.819654E-2,2.714775E-2],"categories":[],"categories_nodes":[],"categories_segments":[],"categories_sizes":[],"default_left":[0,0,0,0,0,0,0,0,0,0,0,0,0,0,0,0,0,0,0,0,0,0,0,0,0,0,0,0,0,0,0],"id":23,"left_children":[1,3,5,7,9,11,13,15,17,19,21,23,25,27,29,-1,-1,-1,-1,-1,-1,-1,-1,-1,-1,-1,-1,-1,-1,-1,-1],"loss_changes":[4.5563805E1,1.7944576E1,1.9281076E1,1.5425095E1,9.039E0,1.322312E1,6.5050697E0,5.7131805E0,6.9069824E0,6.5655107E0,8.306183E0,9.630862E0,3.4839225E0,4.426317E0,3.8428802E0,0E0,0E0,0E0,0E0,0E0,0E0,0E0,0E0,0E0,0E0,0E0,0E0,0E0,0E0,0E0,0E0],"parents":[2147483647,0,0,1,1,2,2,3,3,4,4,5,5,6,6,7,7,8,8,9,9,10,10,11,11,12,12,13,13,14,14],"right_children":[2,4,6,8,10,12,14,16,18,20,22,24,26,28,30,-1,-1,-1,-1,-1,-1,-1,-1,-1,-1,-1,-1,-1,-1,-1,-1],"split_conditions":[3.7549406E-2,1E0,1.2153518E-1,1.3071896E-2,3.6561E0,5.1125E-1,6.4285713E-1,2.845304E-1,1.4285715E-1,8.8435374E-2,1.1363637E-1,4E-1,2E0,3.452381E-1,5E1,-1.1533786E-2,-2.8711367E-2,-1.7213777E-2,-4.463371E-3,-1.4945955E-3,-1.3650658E-2,-1.5489811E-2,4.052155E-3,2.222022E-4,9.842056E-3,5.2720457E-3,-1.8589353E-2,3.764672E-2,1.2814671E-2,6.819654E-2,2.714775E-2],"split_indices":[0,11,8,0,14,1,6,1,7,8,7,6,9,1,10,0,0,0,0,0,0,0,0,0,0,0,0,0,0,0,0],"split_type":[0,0,0,0,0,0,0,0,0,0,0,0,0,0,0,0,0,0,0,0,0,0,0,0,0,0,0,0,0,0,0],"sum_hessian":[3.929102E3,2.4333398E3,1.4957622E3,1.1037617E3,1.329578E3,1.1381937E3,3.5756845E2,2.0214917E2,9.016126E2,4.8243912E2,8.471389E2,1.0415519E3,9.664186E1,3.1673404E2,4.0834423E1,8.624948E1,1.1589969E2,1.22265785E2,7.793468E2,3.101272E2,1.723119E2,5.7413258E1,7.8972565E2,4.9993634E2,5.4161554E2,1.848974E1,7.8152115E1,1.8468918E1,2.9826514E2,6.8848453E0,3.3949577E1],"tree_param":{"num_deleted":"0","num_feature":"15","num_nodes":"31","size_leaf_vector":"1"}},{"base_weights":[-5.249642E-4,-8.523143E-2,1.3671769E-1,-2.1121752E-1,-2.2021659E-2,8.2025245E-2,3.0662724E-1,-2.4946946E-1,2.1946747E-2,-2.769192E-1,-1.2595125E-3,-3.2898497E-2,1.6297372E-1,2.4785216E-1,7.384358E-1,-1.724507E-2,-6.7369537E-3,5.755948E-3,-2.4220286E-2,3.0791178E-2,-2.0294404E-2,-3.7281842E-3,2.9700298E-3,-1.0461467E-2,6.4241635E-3,1.5926937E-3,1.4672843E-2,3.350308E-2,1.01625165E-2,4.225525E-2,-2.49199E-3],"categories":[],"categories_nodes":[],"categories_segments":[],"categories_sizes":[],"default_left":[0,0,0,0,0,0,0,0,0,0,0,0,0,0,0,0,0,0,0,0,0,0,0,0,0,0,0,0,0,0,0],"id":24,"left_children":[1,3,5,7,9,11,13,15,17,19,21,23,25,27,29,-1,-1,-1,-1,-1,-1,-1,-1,-1,-1,-1,-1,-1,-1,-1,-1],"loss_changes":[4.557477E1,1.9299942E1,1.3878458E1,7.2278366E0,8.548406E0,1.0547493E1,9.0542755E0,7.5710373E0,5.483324E0,1.4257402E1,6.6507487E0,1.3377443E1,1.1369005E1,5.924963E0,3.6661892E0,0E0,0E0,0E0,0E0,0E0,0E0,0E0,0E0,0E0,0E0,0E0,0E0,0E0,0E0,0E0,0E0],"parents":[2147483647,0,0,1,1,2,2,3,3,4,4,5,5,6,6,7,7,8,8,9,9,10,10,11,11,12,12,13,13,14,14],"right_children":[2,4,6,8,10,12,14,16,18,20,22,24,26,28,30,-1,-1,-1,-1,-1,-1,-1,-1,-1,-1,-1,-1,-1,-1,-1,-1],"split_conditions":[3.7549406E-2,1.898734E-2,1.2153518E-1,2.792793E-1,1.3084112E-1,6.2E1,6.4285713E-1,6.666667E-2,3.2307693E-1,1.1965812E-1,1E0,2.4489796E-1,4.2424244E-1,1.25E-1,1.79E2,-1.724507E-2,-6.7369537E-3,5.755948E-3,-2.4220286E-2,3.0791178E-2,-2.0294404E-2,-3.7281842E-3,2.9700298E-3,-1.0461467E-2,6.4241635E-3,1.5926937E-3,1.4672843E-2,3.350308E-2,1.01625165E-2,4.225525E-2,-2.49199E-3],"split_indices":[0,0,8,7,7,10,6,5,1,3,11,7,1,8,10,0,0,0,0,0,0,0,0,0,0,0,0,0,0,0,0],"split_type":[0,0,0,0,0,0,0,0,0,0,0,0,0,0,0,0,0,0,0,0,0,0,0,0,0,0,0,0,0,0,0],"sum_hessian":[3.918293E3,2.4231182E3,1.4951748E3,8.0877423E2,1.614344E3,1.132209E3,3.6296576E2,6.9472986E2,1.1404435E2,1.2065997E2,1.493684E3,4.681554E2,6.640536E2,3.2086554E2,4.2100235E1,3.7816702E2,3.1656284E2,9.6973274E1,1.7071075E1,1.47541895E1,1.05905785E2,6.762484E2,8.1743555E2,2.235744E2,2.4458101E2,3.3183923E2,3.322144E2,2.9317484E1,2.9154807E2,3.7018772E1,5.081462E0],"tree_param":{"num_deleted":"0","num_feature":"15","num_nodes":"31","size_leaf_vector":"1"}},{"base_weights":[-8.115927E-3,-1.3293338E-1,7.290698E-2,-4.5871854E-1,-1.1139165E-1,2.8243264E-2,2.4933542E-1,-2.8318277E-1,-7.3951757E-1,-3.7241846E-1,-9.329899E-2,3.8914997E-2,-4.2338526E-1,1.8476425E-1,5.355378E-1,-2.7126536E-2,2.254089E-3,-4.213342E-2,-2.7046626E-2,-5.084663E-3,-3.872132E-2,-9.361147E-3,-1.9517444E-3,2.7742274E-3,-1.3369478E-2,-4.494252E-3,-3.024649E-2,3.0615875E-2,6.6101938E-3,3.4296483E-2,5.219412E-3],"categories":[],"categories_nodes":[],"categories_segments":[],"categories_sizes":[],"default_left":[0,0,0,0,0,0,0,0,0,0,0,0,0,0,0,0,0,0,0,0,0,0,0,0,0,0,0,0,0,0,0],"id":25,"left_children":[1,3,5,7,9,11,13,15,17,19,21,23,25,27,29,-1,-1,-1,-1,-1,-1,-1,-1,-1,-1,-1,-1,-1,-1,-1,-1],"loss_changes":[3.9627213E1,1.0773033E1,1.8716606E1,4.4898033E0,6.803709E0,9.16049E0,8.769442E0,5.1568265E0,2.826805E-1,1.0100048E1,6.901164E0,9.426285E0,2.6023397E0,8.752249E0,5.6221676E0,0E0,0E0,0E0,0E0,0E0,0E0,0E0,0E0,0E0,0E0,0E0,0E0,0E0,0E0,0E0,0E0],"parents":[2147483647,0,0,1,1,2,2,3,3,4,4,5,5,6,6,7,7,8,8,9,9,10,10,11,11,12,12,13,13,14,14],"right_children":[2,4,6,8,10,12,14,16,18,20,22,24,26,28,30,-1,-1,-1,-1,-1,-1,-1,-1,-1,-1,-1,-1,-1,-1,-1,-1],"split_conditions":[2.7624309E-2,5.2054796E-2,1.2068965E-1,2.7868852E-1,3.1681E0,3.548387E-1,4.9438202E-1,3.5457E0,3.0952382E-1,1.7964073E-2,1.7518248E-1,5.1125E-1,1.7045455E-1,4.0041068E-1,3.448276E-1,-2.7126536E-2,2.254089E-3,-4.213342E-2,-2.7046626E-2,-5.084663E-3,-3.872132E-2,-9.361147E-3,-1.9517444E-3,2.7742274E-3,-1.3369478E-2,-4.494252E-3,-3.024649E-2,3.0615875E-2,6.6101938E-3,3.4296483E-2,5.219412E-3],"split_indices":[0,3,8,2,14,7,1,14,2,0,7,1,3,2,3,0,0,0,0,0,0,0,0,0,0,0,0,0,0,0,0],"split_type":[0,0,0,0,0,0,0,0,0,0,0,0,0,0,0,0,0,0,0,0,0,0,0,0,0,0,0,0,0,0,0],"sum_hessian":[3.9164568E3,1.541344E3,2.3751128E3,9.433772E1,1.4470063E3,1.8962324E3,4.788803E2,5.9285248E1,3.505248E1,9.252622E1,1.3544801E3,1.8533525E3,4.2879864E1,3.9206958E2,8.681072E1,3.2754543E1,2.6530706E1,2.0934912E1,1.4117566E1,5.6040016E1,3.6486206E1,4.9509174E2,8.5938837E2,1.7590173E3,9.433522E1,1.5641428E1,2.7238436E1,4.1755882E1,3.5031372E2,6.3922565E1,2.2888153E1],"tree_param":{"num_deleted":"0","num_feature":"15","num_nodes":"31","size_leaf_vector":"1"}},{"base_weights":[4.6720537E-3,-2.1046504E-1,5.4873787E-2,-2.5106475E-1,3.3925895E-2,-8.21689E-2,9.988813E-2,-4.5443457E-1,-1.9639309E-1,2.7129608E-1,-2.3900296E-1,-9.636526E-2,8.8566047E-1,8.225547E-2,3.4908158E-1,-1.1646622E-2,-2.6980136E-2,2.3077141E-2,-1.0316598E-2,-1.572622E-2,3.0573577E-2,1.3931833E-2,-1.7019605E-2,-2.3857012E-2,-3.2591664E-3,7.247143E-2,8.65336E-3,2.449817E-4,7.0219985E-3,1.141205E-2,2.9212479E-2],"categories":[],"categories_nodes":[],"categories_segments":[],"categories_sizes":[],"default_left":[0,0,0,0,0,0,0,0,0,0,0,0,0,0,0,0,0,0,0,0,0,0,0,0,0,0,0,0,0,0,0],"id":26,"left_children":[1,3,5,7,9,11,13,15,17,19,21,23,25,27,29,-1,-1,-1,-1,-1,-1,-1,-1,-1,-1,-1,-1,-1,-1,-1,-1],"loss_changes":[4.2467457E1,7.3901215E0,1.9675E1,7.0053368E0,6.9880204E0,1.0923323E1,1.051786E1,2.4103394E0,3.3952293E0,1.1675618E1,2.7316055E0,9.20999E0,4.369665E0,1.0094604E1,4.365406E0,0E0,0E0,0E0,0E0,0E0,0E0,0E0,0E0,0E0,0E0,0E0,0E0,0E0,0E0,0E0,0E0],"parents":[2147483647,0,0,1,1,2,2,3,3,4,4,5,5,6,6,7,7,8,8,9,9,10,10,11,11,12,12,13,13,14,14],"right_children":[2,4,6,8,10,12,14,16,18,20,22,24,26,28,30,-1,-1,-1,-1,-1,-1,-1,-1,-1,-1,-1,-1,-1,-1,-1,-1],"split_conditions":[1.8181818E-2,2.792793E-1,3.6561E0,7.692308E-2,2.845304E-1,1.78E2,1.5E-1,6.666667E-2,2.173913E-1,2.1917808E-1,2.1E1,1.4589666E-1,3.875969E-2,1E0,1.02E2,-1.1646622E-2,-2.6980136E-2,2.3077141E-2,-1.0316598E-2,-1.572622E-2,3.0573577E-2,1.3931833E-2,-1.7019605E-2,-2.3857012E-2,-3.2591664E-3,7.247143E-2,8.65336E-3,2.449817E-4,7.0219985E-3,1.141205E-2,2.9212479E-2],"split_indices":[0,7,14,6,1,10,8,6,2,1,10,7,0,11,10,0,0,0,0,0,0,0,0,0,0,0,0,0,0,0,0],"split_type":[0,0,0,0,0,0,0,0,0,0,0,0,0,0,0,0,0,0,0,0,0,0,0,0,0,0,0,0,0,0,0],"sum_hessian":[3.93001E3,7.4294836E2,3.1870618E3,6.370847E2,1.0586365E2,7.8781E2,2.3992517E3,1.3343092E2,5.0365378E2,5.6623417E1,4.9240227E1,7.7730865E2,1.0501326E1,2.241944E3,1.5730748E2,3.809356E1,9.533736E1,6.818859E0,4.9683493E2,2.0828978E1,3.579444E1,7.7786E0,4.1461628E1,5.7753674E1,7.19555E2,5.285601E0,5.215724E0,9.62883E2,1.2790612E3,1.05214005E2,5.209348E1],"tree_param":{"num_deleted":"0","num_feature":"15","num_nodes":"31","size_leaf_vector":"1"}},{"base_weights":[-1.265634E-2,4.1908465E-2,-1.7553978E-1,-2.9603657E-1,5.7381086E-2,-2.4807288E-1,-3.705473E-2,-4.8045495E-1,-4.571388E-2,2.4858803E-2,1.9812502E-1,-4.2365977E-1,-1.9433463E-1,1.7162359E-1,-1.3679653E-1,4.0327273E-3,-2.6912455E-2,-1.369024E-2,1.9214828E-2,-1.3251972E-2,2.0681617E-3,1.1211701E-2,-2.8556187E-2,-6.78531E-4,-2.749013E-2,-8.392013E-3,-3.070259E-2,1.8364176E-2,-5.948193E-3,1.3200857E-2,-9.359621E-3],"categories":[],"categories_nodes":[],"categories_segments":[],"categories_sizes":[],"default_left":[0,0,0,0,0,0,0,0,0,0,0,0,0,0,0,0,0,0,0,0,0,0,0,0,0,0,0,0,0,0,0],"id":27,"left_children":[1,3,5,7,9,11,13,15,17,19,21,23,25,27,29,-1,-1,-1,-1,-1,-1,-1,-1,-1,-1,-1,-1,-1,-1,-1,-1],"loss_changes":[3.4901836E1,1.5399151E1,9.888821E0,5.93102E0,1.2874762E1,6.0179443E0,7.0977945E0,2.4478607E0,5.578876E0,1.0952382E1,1.0732817E1,7.7856407E0,5.4220715E0,6.3183827E0,4.705839E0,0E0,0E0,0E0,0E0,0E0,0E0,0E0,0E0,0E0,0E0,0E0,0E0,0E0,0E0,0E0,0E0],"parents":[2147483647,0,0,1,1,2,2,3,3,4,4,5,5,6,6,7,7,8,8,9,9,10,10,11,11,12,12,13,13,14,14],"right_children":[2,4,6,8,10,12,14,16,18,20,22,24,26,28,30,-1,-1,-1,-1,-1,-1,-1,-1,-1,-1,-1,-1,-1,-1,-1,-1],"split_conditions":[7E0,1.1363637E-1,1.5337424E-1,8.6E1,1.2307692E-1,7.692308E-2,4.051282E-1,3.026316E-1,9.009009E-2,1.3333334E-1,1.82E2,6.666667E-2,1.22257054E-1,8.888889E-2,2.1E1,4.0327273E-3,-2.6912455E-2,-1.369024E-2,1.9214828E-2,-1.3251972E-2,2.0681617E-3,1.1211701E-2,-2.8556187E-2,-6.78531E-4,-2.749013E-2,-8.392013E-3,-3.070259E-2,1.8364176E-2,-5.948193E-3,1.3200857E-2,-9.359621E-3],"split_indices":[9,7,3,10,8,6,2,1,8,6,10,6,8,8,10,0,0,0,0,0,0,0,0,0,0,0,0,0,0,0,0],"split_type":[0,0,0,0,0,0,0,0,0,0,0,0,0,0,0,0,0,0,0,0,0,0,0,0,0,0,0,0,0,0,0],"sum_hessian":[3.9251528E3,2.9407612E3,9.843916E2,1.2795263E2,2.8128086E3,6.455081E2,3.3888345E2,7.314542E1,5.4807213E1,2.2857966E3,5.2701184E2,1.496502E2,4.958579E2,1.0936046E2,2.29523E2,6.7934875E0,6.635193E1,3.6048977E1,1.8758238E1,1.22313675E2,2.1634832E3,5.1039703E2,1.661483E1,3.5464153E1,1.1418605E2,4.6773248E2,2.812543E1,6.5197426E1,4.416303E1,2.5162134E1,2.0436086E2],"tree_param":{"num_deleted":"0","num_feature":"15","num_nodes":"31","size_leaf_vector":"1"}},{"base_weights":[1.451316E-3,5.987604E-2,-1.05477095E-1,-7.623114E-2,9.2860766E-2,-3.1415322E-1,-5.9808373E-2,-6.8063116E-1,-5.0163817E-2,7.91755E-2,4.0936854E-1,-1.0181211E-1,-3.9246953E-1,1.1454878E-1,-8.739583E-2,-4.7251172E-3,-4.3617066E-2,-5.015572E-3,1.0522745E-2,2.2329472E-3,1.0022677E-2,4.0400762E-2,1.1311595E-2,-1.2928547E-2,2.1848423E-2,2.1692123E-2,-2.1235911E-2,-1.8910965E-3,1.9571682E-2,-1.3678135E-2,-2.6322256E-3],"categories":[],"categories_nodes":[],"categories_segments":[],"categories_sizes":[],"default_left":[0,0,0,0,0,0,0,0,0,0,0,0,0,0,0,0,0,0,0,0,0,0,0,0,0,0,0,0,0,0,0],"id":28,"left_children":[1,3,5,7,9,11,13,15,17,19,21,23,25,27,29,-1,-1,-1,-1,-1,-1,-1,-1,-1,-1,-1,-1,-1,-1,-1,-1],"loss_changes":[2.4582428E1,1.1430783E1,1.3231104E1,7.794819E0,8.841276E0,4.1076145E0,5.5027876E0,2.2172546E0,6.261105E0,8.216638E0,5.9986067E0,5.9027643E0,5.0302296E0,6.6145E0,6.3678164E0,0E0,0E0,0E0,0E0,0E0,0E0,0E0,0E0,0E0,0E0,0E0,0E0,0E0,0E0,0E0,0E0],"parents":[2147483647,0,0,1,1,2,2,3,3,4,4,5,5,6,6,7,7,8,8,9,9,10,10,11,11,12,12,13,13,14,14],"right_children":[2,4,6,8,10,12,14,16,18,20,22,24,26,28,30,-1,-1,-1,-1,-1,-1,-1,-1,-1,-1,-1,-1,-1,-1,-1,-1],"split_conditions":[6E0,1.6363636E-1,1.7E-1,3.3670033E-3,1.76E2,3.131313E-1,1.9354838E-1,2E1,1.299435E-1,5.3846154E-2,1.82E2,3.015873E-1,7.692308E-2,9.2E1,1.25E-2,-4.7251172E-3,-4.3617066E-2,-5.015572E-3,1.0522745E-2,2.2329472E-3,1.0022677E-2,4.0400762E-2,1.1311595E-2,-1.2928547E-2,2.1848423E-2,2.1692123E-2,-2.1235911E-2,-1.8910965E-3,1.9571682E-2,-1.3678135E-2,-2.6322256E-3],"split_indices":[9,7,7,0,10,1,7,10,8,0,10,1,7,10,0,0,0,0,0,0,0,0,0,0,0,0,0,0,0,0,0],"split_type":[0,0,0,0,0,0,0,0,0,0,0,0,0,0,0,0,0,0,0,0,0,0,0,0,0,0,0,0,0,0,0],"sum_hessian":[3.932901E3,2.5435618E3,1.3893391E3,4.9591635E2,2.0476454E3,2.484063E2,1.1409329E3,1.9465952E1,4.764504E2,1.9639764E3,8.366886E1,6.755164E1,1.8085464E2,1.5543112E2,9.855018E2,5.1656356E0,1.4300317E1,4.0008258E2,7.636782E1,1.5299192E3,4.3405734E2,2.5263624E1,5.840524E1,5.27299E1,1.4821744E1,6.325395E0,1.7452925E2,1.0081544E2,5.461568E1,1.5394241E2,8.315593E2],"tree_param":{"num_deleted":"0","num_feature":"15","num_nodes":"31","size_leaf_vector":"1"}},{"base_weights":[-3.5125643E-3,-6.493028E-2,1.1412495E-1,-2.485986E-1,-3.998884E-2,6.492443E-2,2.7620926E-1,-6.741874E-1,-2.1816713E-1,-2.7528632E-1,-2.5137736E-2,9.283692E-2,-2.539657E-1,3.339468E-1,-6.0673725E-2,-2.2213876E-3,-4.6540998E-2,-9.924298E-3,-4.2627636E-2,-2.023125E-2,5.61678E-3,-4.9139806E-3,7.2778895E-4,3.2532495E-3,2.0445013E-2,-1.72771E-2,2.4079386E-2,1.0787774E-2,2.7996102E-2,7.073226E-3,-3.547353E-2],"categories":[],"categories_nodes":[],"categories_segments":[],"categories_sizes":[],"default_left":[0,0,0,0,0,0,0,0,0,0,0,0,0,0,0,0,0,0,0,0,0,0,0,0,0,0,0,0,0,0,0],"id":29,"left_children":[1,3,5,7,9,11,13,15,17,19,21,23,25,27,29,-1,-1,-1,-1,-1,-1,-1,-1,-1,-1,-1,-1,-1,-1,-1,-1],"loss_changes":[2.8404566E1,1.1822031E1,1.0736055E1,3.8498974E0,7.9437656E0,9.243336E0,6.122263E0,3.2097912E0,3.4453154E0,6.812557E0,6.2180834E0,8.340066E0,5.8000035E0,7.0361786E0,6.2309885E0,0E0,0E0,0E0,0E0,0E0,0E0,0E0,0E0,0E0,0E0,0E0,0E0,0E0,0E0,0E0,0E0],"parents":[2147483647,0,0,1,1,2,2,3,3,4,4,5,5,6,6,7,7,8,8,9,9,10,10,11,11,12,12,13,13,14,14],"right_children":[2,4,6,8,10,12,14,16,18,20,22,24,26,28,30,-1,-1,-1,-1,-1,-1,-1,-1,-1,-1,-1,-1,-1,-1,-1,-1],"split_conditions":[2E-1,7.692308E-2,1.2153518E-1,1.2219451E-1,1.1494253E-1,5.681818E-1,3.3333334E-1,5.3846154E-2,1.5306123E-1,9.090909E-2,3.6561E0,2.7941176E-1,4.3117E0,2.5748503E-1,1.4634146E-1,-2.2213876E-3,-4.6540998E-2,-9.924298E-3,-4.2627636E-2,-2.023125E-2,5.61678E-3,-4.9139806E-3,7.2778895E-4,3.2532495E-3,2.0445013E-2,-1.72771E-2,2.4079386E-2,1.0787774E-2,2.7996102E-2,7.073226E-3,-3.547353E-2],"split_indices":[5,6,8,7,7,2,3,8,8,5,14,3,14,3,8,0,0,0,0,0,0,0,0,0,0,0,0,0,0,0,0],"split_type":[0,0,0,0,0,0,0,0,0,0,0,0,0,0,0,0,0,0,0,0,0,0,0,0,0,0,0,0,0,0,0],"sum_hessian":[3.9293875E3,2.5818628E3,1.3475245E3,3.0761615E2,2.2742468E3,1.0348097E3,3.1271478E2,1.911638E1,2.8849976E2,1.3397896E2,2.1402678E3,9.521747E2,8.263507E1,2.6696844E2,4.574632E1,5.874313E0,1.3242068E1,2.8109204E2,7.40772E0,1.0042579E2,3.355317E1,7.523895E2,1.3878783E3,8.76375E2,7.579965E1,7.3957596E1,8.67748E0,1.7657146E2,9.039699E1,3.5475563E1,1.0270758E1],"tree_param":{"num_deleted":"0","num_feature":"15","num_nodes":"31","size_leaf_vector":"1"}},{"base_weights":[2.6902894E-3,-1.5995494E-1,4.3843523E-2,-1.7066298E-1,3.9900646E-2,-2.8820458E-1,6.235061E-2,-8.858075E-2,-2.9278225E-1,-4.156237E-1,-4.7676858E-2,-2.9459798E-1,7.806665E-2,-5.145128E-3,5.0150212E-2,-2.1779193E-2,-9.05E-3,-3.3147935E-2,-1.4260344E-2,-1.1793009E-2,2.6430324E-2,-2.1904415E-2,-1.3179875E-3,3.6488947E-2,3.6580656E-3],"categories":[],"categories_nodes":[],"categories_segments":[],"categories_sizes":[],"default_left":[0,0,0,0,0,0,0,0,0,0,0,0,0,0,0,0,0,0,0,0,0,0,0,0,0],"id":30,"left_children":[1,3,5,7,-1,9,11,13,15,17,19,21,23,-1,-1,-1,-1,-1,-1,-1,-1,-1,-1,-1,-1],"loss_changes":[2.6272306E1,8.266727E0,1.9267729E1,7.839449E0,0E0,5.053998E0,1.667245E1,7.461759E0,4.9490414E0,3.2976131E0,6.464471E0,4.8139887E0,9.037027E0,0E0,0E0,0E0,0E0,0E0,0E0,0E0,0E0,0E0,0E0,0E0,0E0],"parents":[2147483647,0,0,1,1,2,2,3,3,5,5,6,6,7,7,8,8,9,9,10,10,11,11,12,12],"right_children":[2,4,6,8,-1,10,12,14,16,18,20,22,24,-1,-1,-1,-1,-1,-1,-1,-1,-1,-1,-1,-1],"split_conditions":[3.5457E0,6E-1,7.692308E-2,8.108108E-2,3.9900646E-2,9.803922E-2,1.1363637E-1,5.714286E-1,9.836066E-2,1.1764706E-2,4.1571E0,8.978328E-2,1.1666667E-1,-5.145128E-3,5.0150212E-2,-2.1779193E-2,-9.05E-3,-3.3147935E-2,-1.4260344E-2,-1.1793009E-2,2.6430324E-2,-2.1904415E-2,-1.3179875E-3,3.6488947E-2,3.6580656E-3],"split_indices":[14,4,6,8,0,8,7,6,8,0,14,8,7,0,0,0,0,0,0,0,0,0,0,0,0],"split_type":[0,0,0,0,0,0,0,0,0,0,0,0,0,0,0,0,0,0,0,0,0,0,0,0,0],"sum_hessian":[3.9230723E3,7.916071E2,3.131465E3,7.836692E2,7.9379077E0,1.6455212E2,2.966913E3,4.6969202E2,3.1397717E2,1.0709225E2,5.745988E1,1.2437249E2,2.8425405E3,4.645034E2,5.1886415E0,1.3658868E2,1.7738849E2,3.5563267E1,7.152898E1,4.37607E1,1.3699182E1,8.0615265E1,4.3757225E1,2.013156E1,2.822409E3],"tree_param":{"num_deleted":"0","num_feature":"15","num_nodes":"25","size_leaf_vector":"1"}},{"base_weights":[1.6292702E-2,7.982082E-2,-1.0316989E-1,-2.8044206E-1,9.526834E-2,-2.7447718E-1,-6.68305E-2,-5.349419E-1,-7.915722E-2,-2.350011E-1,1.0894381E-1,1.7738087E-2,-2.984231E-1,1.832618E-2,-1.5384229E-1,1.7198715E-2,-3.380509E-2,1.8414337E-2,-1.2246608E-2,-2.2346715E-2,4.3573845E-3,5.852759E-3,-1.6865287E-2,-3.3240724E-2,-1.2352552E-2,-7.4821482E-3,4.574358E-3,-3.1988674E-3,-1.4279638E-2],"categories":[],"categories_nodes":[],"categories_segments":[],"categories_sizes":[],"default_left":[0,0,0,0,0,0,0,0,0,0,0,0,0,0,0,0,0,0,0,0,0,0,0,0,0,0,0,0,0],"id":31,"left_children":[1,3,5,7,9,11,13,15,17,19,21,-1,23,25,27,-1,-1,-1,-1,-1,-1,-1,-1,-1,-1,-1,-1,-1,-1],"loss_changes":[2.9607002E1,1.4199434E1,8.413178E0,5.334524E0,1.1058367E1,3.672535E0,8.292039E0,5.96198E0,4.5245275E0,6.6916304E0,8.532291E0,0E0,4.138052E0,6.9725194E0,6.5342436E0,0E0,0E0,0E0,0E0,0E0,0E0,0E0,0E0,0E0,0E0,0E0,0E0,0E0,0E0],"parents":[2147483647,0,0,1,1,2,2,3,3,4,4,5,5,6,6,7,7,8,8,9,9,10,10,12,12,13,13,14,14],"right_children":[2,4,6,8,10,12,14,16,18,20,22,-1,24,26,28,-1,-1,-1,-1,-1,-1,-1,-1,-1,-1,-1,-1,-1,-1],"split_conditions":[6E0,9.803922E-3,1.7E-1,6.5868266E-2,1.1363637E-1,7.692308E-2,1E0,1.7E1,3.275862E-1,9.009009E-2,3.4285715E-1,1.7738087E-2,4.201681E-3,1.898734E-2,2.5462964E-1,1.7198715E-2,-3.380509E-2,1.8414337E-2,-1.2246608E-2,-2.2346715E-2,4.3573845E-3,5.852759E-3,-1.6865287E-2,-3.3240724E-2,-1.2352552E-2,-7.4821482E-3,4.574358E-3,-3.1988674E-3,-1.4279638E-2],"split_indices":[9,0,7,3,7,7,13,10,2,8,7,0,0,0,7,0,0,0,0,0,0,0,0,0,0,0,0,0,0],"split_type":[0,0,0,0,0,0,0,0,0,0,0,0,0,0,0,0,0,0,0,0,0,0,0,0,0,0,0,0,0],"sum_hessian":[3.8990996E3,2.5456821E3,1.3534175E3,1.0396169E2,2.4417205E3,2.3570912E2,1.1177084E3,4.5179783E1,5.8781906E1,9.6440895E1,2.3452795E3,8.134697E0,2.2757443E2,5.652747E2,5.5243365E2,6.0532336E0,3.9126553E1,1.55606E1,4.3221306E1,5.7937794E1,3.8503098E1,2.3041357E3,4.1143997E1,2.651627E1,2.0105815E2,1.7119208E2,3.940826E2,3.2930527E2,2.2312836E2],"tree_param":{"num_deleted":"0","num_feature":"15","num_nodes":"29","size_leaf_vector":"1"}},{"base_weights":[-1.8007201E-3,-1.5883261E-1,3.2347254E-2,-1.0186816E-1,-3.8598925E-1,-4.359547E-2,9.5698275E-2,-6.0491085E-1,-7.735296E-2,-1.1502408E-1,-5.125908E-1,-2.0744011E-1,3.1053148E-2,7.442968E-2,3.052728E-1,-1.0438948E-2,-4.1112673E-2,-1.7667314E-2,-2.3049964E-3,-2.097E-2,2.8226087E-2,-4.855011E-4,-2.8072653E-2,-1.3034857E-2,1.3886103E-4,-4.3744007E-3,7.5577833E-3,2.3881767E-3,1.0384802E-2,5.8577843E-2,1.1482949E-2],"categories":[],"categories_nodes":[],"categories_segments":[],"categories_sizes":[],"default_left":[0,0,0,0,0,0,0,0,0,0,0,0,0,0,0,0,0,0,0,0,0,0,0,0,0,0,0,0,0,0,0],"id":32,"left_children":[1,3,5,7,9,11,13,15,17,19,21,23,25,27,29,-1,-1,-1,-1,-1,-1,-1,-1,-1,-1,-1,-1,-1,-1,-1,-1],"loss_changes":[2.1042597E1,9.030476E0,1.5511534E1,6.8807936E0,4.749563E0,1.7944593E1,7.8117065E0,2.0631647E0,4.6138687E0,9.735893E0,2.3349133E0,5.1416073E0,1.4370625E1,5.6654234E0,1.0317327E1,0E0,0E0,0E0,0E0,0E0,0E0,0E0,0E0,0E0,0E0,0E0,0E0,0E0,0E0,0E0,0E0],"parents":[2147483647,0,0,1,1,2,2,3,3,4,4,5,5,6,6,7,7,8,8,9,9,10,10,11,11,12,12,13,13,14,14],"right_children":[2,4,6,8,10,12,14,16,18,20,22,24,26,28,30,-1,-1,-1,-1,-1,-1,-1,-1,-1,-1,-1,-1,-1,-1,-1,-1],"split_conditions":[1.6363636E-1,7E0,1E0,3.3670033E-3,3.148148E-1,4.8E1,1.51E2,3.947E0,2.4E1,2.982456E-1,8.888889E-2,4.1666666E-1,4.273319E-1,5.0086355E-1,3.7254903E-1,-1.0438948E-2,-4.1112673E-2,-1.7667314E-2,-2.3049964E-3,-2.097E-2,2.8226087E-2,-4.855011E-4,-2.8072653E-2,-1.3034857E-2,1.3886103E-4,-4.3744007E-3,7.5577833E-3,2.3881767E-3,1.0384802E-2,5.8577843E-2,1.1482949E-2],"split_indices":[7,9,11,0,1,10,10,14,10,1,7,6,2,2,2,0,0,0,0,0,0,0,0,0,0,0,0,0,0,0,0],"split_type":[0,0,0,0,0,0,0,0,0,0,0,0,0,0,0,0,0,0,0,0,0,0,0,0,0,0,0,0,0,0,0],"sum_hessian":[3.9222004E3,6.9991943E2,3.222281E3,5.6074817E2,1.3917131E2,1.4656405E3,1.7566405E3,2.4957363E1,5.357908E2,4.4925617E1,9.42457E1,4.581901E2,1.0074504E3,1.5960238E3,1.6061673E2,9.536534E0,1.542083E1,5.3452217E1,4.8233856E2,3.1292288E1,1.363333E1,8.452538E0,8.579316E1,3.6538287E2,9.280723E1,5.0715753E2,5.0029282E2,1.3310446E3,2.6497916E2,1.1730466E1,1.4888626E2],"tree_param":{"num_deleted":"0","num_feature":"15","num_nodes":"31","size_leaf_vector":"1"}},{"base_weights":[6.3870163E-3,-7.722768E-2,7.3146984E-2,-2.6390776E-1,-4.615339E-2,-4.441028E-1,8.186652E-2,-1.6170494E-1,-3.6623424E-1,1.2298924E-1,-8.316012E-2,-1.2964396E-1,-6.8417484E-1,9.10777E-2,-4.1514188E-1,1.6273278E-3,-1.6646048E-2,-9.584986E-3,-2.5481379E-2,-1.0043998E-3,1.2395173E-2,-2.1369362E-2,-3.0879332E-3,-3.266285E-2,9.879647E-3,-1.8293321E-2,-4.702953E-2,-4.4943145E-3,5.6509897E-3,-2.5861172E-2,6.357795E-3],"categories":[],"categories_nodes":[],"categories_segments":[],"categories_sizes":[],"default_left":[0,0,0,0,0,0,0,0,0,0,0,0,0,0,0,0,0,0,0,0,0,0,0,0,0,0,0,0,0,0,0],"id":33,"left_children":[1,3,5,7,9,11,13,15,17,19,21,23,25,27,29,-1,-1,-1,-1,-1,-1,-1,-1,-1,-1,-1,-1,-1,-1,-1,-1],"loss_changes":[2.193034E1,1.01058655E1,9.888669E0,2.5416126E0,9.37752E0,2.656952E0,9.876437E0,4.208508E0,2.9926548E0,4.8135176E0,9.02365E0,3.0384E0,1.3201246E0,8.391609E0,2.2405229E0,0E0,0E0,0E0,0E0,0E0,0E0,0E0,0E0,0E0,0E0,0E0,0E0,0E0,0E0,0E0,0E0],"parents":[2147483647,0,0,1,1,2,2,3,3,4,4,5,5,6,6,7,7,8,8,9,9,10,10,11,11,12,12,13,13,14,14],"right_children":[2,4,6,8,10,12,14,16,18,20,22,24,26,28,30,-1,-1,-1,-1,-1,-1,-1,-1,-1,-1,-1,-1,-1,-1,-1,-1],"split_conditions":[3.0303031E-2,7.692308E-2,1.1363637E-1,1E0,2.9245284E-1,1E0,3.548387E-1,2.8301886E-1,2.0535715E-1,1.25E-2,3.015873E-1,9.045226E-2,1.0666667E-1,3.5457E0,7.317073E-2,1.6273278E-3,-1.6646048E-2,-9.584986E-3,-2.5481379E-2,-1.0043998E-3,1.2395173E-2,-2.1369362E-2,-3.0879332E-3,-3.266285E-2,9.879647E-3,-1.8293321E-2,-4.702953E-2,-4.4943145E-3,5.6509897E-3,-2.5861172E-2,6.357795E-3],"split_indices":[0,6,7,13,1,13,7,1,7,0,1,8,7,14,0,0,0,0,0,0,0,0,0,0,0,0,0,0,0,0,0],"split_type":[0,0,0,0,0,0,0,0,0,0,0,0,0,0,0,0,0,0,0,0,0,0,0,0,0,0,0,0,0,0,0],"sum_hessian":[3.9266677E3,1.7432042E3,2.1834636E3,2.4769194E2,1.4955122E3,3.5369724E1,2.1480938E3,1.2521177E2,1.2248018E2,2.6804852E2,1.2274637E3,1.597927E1,1.9390455E1,2.1098088E3,3.828487E1,5.9039253E1,6.6172516E1,5.629558E1,6.618459E1,1.2533198E2,1.4271655E2,7.073715E1,1.1567266E3,5.762458E0,1.0216812E1,9.733887E0,9.656569E0,2.2781815E2,1.8819908E3,3.2258755E1,6.026114E0],"tree_param":{"num_deleted":"0","num_feature":"15","num_nodes":"31","size_leaf_vector":"1"}},{"base_weights":[-2.9096655E-3,-1.0185446E-1,5.906963E-2,-3.2678944E-1,-6.1966408E-2,-3.1657927E-2,1.0845105E-1,-3.974736E-1,3.2979738E-2,8.549891E-1,-7.196027E-2,-3.1280053E-1,1.4710758E-2,5.550268E-2,1.8386762E-1,-1.3828868E-3,-2.3291765E-2,-1.5247993E-2,1.7802322E-2,-2.8892368E-4,7.149905E-2,-7.579261E-3,-3.049433E-4,-7.2636716E-3,-3.0664891E-2,-5.2145678E-3,6.064678E-3,2.1308272E-3,3.1099407E-2,1.0219338E-2,-1.3244829E-2],"categories":[],"categories_nodes":[],"categories_segments":[],"categories_sizes":[],"default_left":[0,0,0,0,0,0,0,0,0,0,0,0,0,0,0,0,0,0,0,0,0,0,0,0,0,0,0,0,0,0,0],"id":34,"left_children":[1,3,5,7,9,11,13,15,17,19,21,23,25,27,29,-1,-1,-1,-1,-1,-1,-1,-1,-1,-1,-1,-1,-1,-1,-1,-1],"loss_changes":[2.3986422E1,1.3495752E1,1.0778155E1,5.777235E0,1.179833E1,1.1064437E1,6.209343E0,4.7784786E0,4.273027E0,6.880975E0,6.648081E0,5.9599056E0,9.261944E0,6.6638675E0,5.9660873E0,0E0,0E0,0E0,0E0,0E0,0E0,0E0,0E0,0E0,0E0,0E0,0E0,0E0,0E0,0E0,0E0],"parents":[2147483647,0,0,1,1,2,2,3,3,4,4,5,5,6,6,7,7,8,8,9,9,10,10,11,11,12,12,13,13,14,14],"right_children":[2,4,6,8,10,12,14,16,18,20,22,24,26,28,30,-1,-1,-1,-1,-1,-1,-1,-1,-1,-1,-1,-1,-1,-1,-1,-1],"split_conditions":[2.7624309E-2,7.692308E-2,2.857143E-1,2.8333333E-1,2.173913E-1,1.7218544E-1,2.4561404E-1,2.631579E-1,1E0,3.5457E0,1E0,1.5277778E-1,1E0,1.780822E-1,3.4285715E-1,-1.3828868E-3,-2.3291765E-2,-1.5247993E-2,1.7802322E-2,-2.8892368E-4,7.149905E-2,-7.579261E-3,-3.049433E-4,-7.2636716E-3,-3.0664891E-2,-5.2145678E-3,6.064678E-3,2.1308272E-3,3.1099407E-2,1.0219338E-2,-1.3244829E-2],"split_indices":[0,6,6,7,2,7,7,2,11,14,11,7,11,8,7,0,0,0,0,0,0,0,0,0,0,0,0,0,0,0,0],"split_type":[0,0,0,0,0,0,0,0,0,0,0,0,0,0,0,0,0,0,0,0,0,0,0,0,0,0,0,0,0,0,0],"sum_hessian":[3.9093623E3,1.5054281E3,2.403934E3,2.256665E2,1.2797616E3,8.473934E2,1.5565408E3,1.8852252E2,3.7143982E1,1.2886101E1,1.2668755E3,1.1915951E2,7.282338E2,9.155138E2,6.41027E2,2.963122E1,1.588913E2,1.8181507E1,1.8962475E1,5.5570707E0,7.32903E0,5.72923E2,6.939525E2,7.745938E1,4.1700123E1,3.440811E2,3.8415277E2,8.9620264E2,1.9311148E1,6.135192E2,2.750777E1],"tree_param":{"num_deleted":"0","num_feature":"15","num_nodes":"31","size_leaf_vector":"1"}},{"base_weights":[-4.91863E-3,-6.1953813E-2,8.402479E-2,-2.1174937E-1,-1.7618245E-2,-1.11537E-1,1.1746703E-1,-1.7475024E-1,-5.02914E-1,-3.7600804E-2,1.6524442E-1,-1.4207663E-1,2.6893917E-2,1.009046E-1,4.2636976E-1,-3.188291E-2,-7.2812364E-3,1.5971981E-3,-2.8086528E-2,-3.5601747E-3,3.6056687E-3,3.6812276E-2,3.5525963E-3,-8.411056E-3,3.586841E-2,1.4608195E-3,9.258909E-3,4.6354387E-2,7.4336813E-3],"categories":[],"categories_nodes":[],"categories_segments":[],"categories_sizes":[],"default_left":[0,0,0,0,0,0,0,0,0,0,0,0,0,0,0,0,0,0,0,0,0,0,0,0,0,0,0,0,0],"id":35,"left_children":[1,3,5,7,9,11,13,15,17,19,21,23,-1,25,27,-1,-1,-1,-1,-1,-1,-1,-1,-1,-1,-1,-1,-1,-1],"loss_changes":[1.9809582E1,1.57973E1,9.9914465E0,5.764719E0,6.718525E0,4.505529E0,6.625475E0,6.426628E0,1.9280863E0,6.1132407E0,9.690407E0,4.931046E0,0E0,7.4762545E0,9.041899E0,0E0,0E0,0E0,0E0,0E0,0E0,0E0,0E0,0E0,0E0,0E0,0E0,0E0,0E0],"parents":[2147483647,0,0,1,1,2,2,3,3,4,4,5,5,6,6,7,7,8,8,9,9,10,10,11,11,13,13,14,14],"right_children":[2,4,6,8,10,12,14,16,18,20,22,24,-1,26,28,-1,-1,-1,-1,-1,-1,-1,-1,-1,-1,-1,-1,-1,-1],"split_conditions":[1.8294574E-1,1.6438356E-1,3.6561E0,1.6749585E-1,4.1666666E-1,1.63E2,1.76E2,5.487805E-2,2E0,1.6060606E-1,1.3530655E-1,6.363636E-1,2.6893917E-2,2.4561404E-1,9.009009E-2,-3.188291E-2,-7.2812364E-3,1.5971981E-3,-2.8086528E-2,-3.5601747E-3,3.6056687E-3,3.6812276E-2,3.5525963E-3,-8.411056E-3,3.586841E-2,1.4608195E-3,9.258909E-3,4.6354387E-2,7.4336813E-3],"split_indices":[3,7,14,3,6,10,10,3,9,3,3,6,0,7,8,0,0,0,0,0,0,0,0,0,0,0,0,0,0],"split_type":[0,0,0,0,0,0,0,0,0,0,0,0,0,0,0,0,0,0,0,0,0,0,0,0,0,0,0,0,0],"sum_hessian":[3.902953E3,2.378218E3,1.5247347E3,5.4227386E2,1.8359442E3,2.2232123E2,1.3024135E3,4.825544E2,5.9719425E1,1.655799E3,1.8014525E2,2.1308199E2,9.239243E0,1.2373948E3,6.50187E1,2.7327642E1,4.5522678E2,5.96179E0,5.3757633E1,1.2678419E3,3.87957E2,2.4543646E1,1.5560161E2,2.0757187E2,5.5101137E0,6.69351E2,5.680438E2,2.2360914E1,4.2657787E1],"tree_param":{"num_deleted":"0","num_feature":"15","num_nodes":"29","size_leaf_vector":"1"}},{"base_weights":[1.40758725E-2,-1.3232127E-1,4.8449207E-2,-3.947707E-1,-9.9975795E-2,-1.8327326E-2,8.929562E-2,-1.8430257E-1,-6.4126945E-1,2.8176509E-2,-1.6983733E-1,-7.414305E-2,6.861882E-2,6.6843875E-2,3.5371518E-1,-4.314157E-2,1.137104E-3,1.0636881E-3,-3.784528E-2,9.710978E-3,-9.871499E-3,1.4577438E-2,-1.0560728E-2,-6.4294795E-3,7.4834838E-3,6.140386E-3,-1.0160694E-2,6.764721E-3,1.9190902E-3,2.9868787E-2,2.0705543E-3],"categories":[],"categories_nodes":[],"categories_segments":[],"categories_sizes":[],"default_left":[0,0,0,0,0,0,0,0,0,0,0,0,0,0,0,0,0,0,0,0,0,0,0,0,0,0,0,0,0,0,0],"id":36,"left_children":[1,3,5,7,9,11,13,15,17,19,21,23,25,27,29,-1,-1,-1,-1,-1,-1,-1,-1,-1,-1,-1,-1,-1,-1,-1,-1],"loss_changes":[1.970094E1,6.280298E0,8.648815E0,4.10198E0,5.9505634E0,5.848305E0,1.1655122E1,6.3811684E0,2.8555717E0,8.8477335E0,8.269714E0,8.961E0,6.9668875E0,3.5298805E0,1.1673523E1,0E0,0E0,0E0,0E0,0E0,0E0,0E0,0E0,0E0,0E0,0E0,0E0,0E0,0E0,0E0,0E0],"parents":[2147483647,0,0,1,1,2,2,3,3,4,4,5,5,6,6,7,7,8,8,9,9,10,10,11,11,12,12,13,13,14,14],"right_children":[2,4,6,8,10,12,14,16,18,20,22,24,26,28,30,-1,-1,-1,-1,-1,-1,-1,-1,-1,-1,-1,-1,-1,-1,-1,-1],"split_conditions":[1.8779343E-2,1.1494253E-1,6.1E1,6.741573E-2,3.5E1,4E-1,6.451613E-2,6.944445E-2,3.3734939E-1,3.3031675E-1,1.3513513E-1,1.16541356E-1,5.2393615E-1,8.7E1,7.317073E-2,-4.314157E-2,1.137104E-3,1.0636881E-3,-3.784528E-2,9.710978E-3,-9.871499E-3,1.4577438E-2,-1.0560728E-2,-6.4294795E-3,7.4834838E-3,6.140386E-3,-1.0160694E-2,6.764721E-3,1.9190902E-3,2.9868787E-2,2.0705543E-3],"split_indices":[0,7,10,8,10,6,0,3,2,2,7,8,1,10,0,0,0,0,0,0,0,0,0,0,0,0,0,0,0,0,0],"split_type":[0,0,0,0,0,0,0,0,0,0,0,0,0,0,0,0,0,0,0,0,0,0,0,0,0,0,0,0,0,0,0],"sum_hessian":[3.9127341E3,7.434609E2,3.1692734E3,8.034456E1,6.6311633E2,1.2030516E3,1.9662217E3,4.4282494E1,3.606206E1,2.3416548E2,4.289508E2,7.3278326E2,4.702684E2,1.8134917E3,1.5272993E2,9.612604E0,3.466989E1,5.4800205E0,3.058204E1,1.3496924E2,9.919625E1,3.4804882E1,3.9414594E2,5.89743E2,1.4304027E2,3.9256097E2,7.7707436E1,5.314984E2,1.2819933E3,8.528081E1,6.7449135E1],"tree_param":{"num_deleted":"0","num_feature":"15","num_nodes":"31","size_leaf_vector":"1"}},{"base_weights":[9.698031E-3,-6.8961605E-2,7.325206E-2,-3.5293415E-1,-4.5880638E-2,-2.6633719E-2,1.304203E-1,3.360894E-2,-4.0170595E-1,-1.7081262E-1,3.1457413E-3,-6.878122E-2,2.628902E-1,4.2312782E-2,1.2498782E-1,-4.41998E-3,-2.6966095E-2,-9.378563E-3,3.6854688E-2,-6.070963E-3,4.1065505E-3,-1.6504115E-3,-1.6566487E-2,2.4491949E-2,-2.409248E-3,4.8542987E-3,1.3478753E-2],"categories":[],"categories_nodes":[],"categories_segments":[],"categories_sizes":[],"default_left":[0,0,0,0,0,0,0,0,0,0,0,0,0,0,0,0,0,0,0,0,0,0,0,0,0,0,0],"id":37,"left_children":[1,3,5,7,9,11,13,-1,15,17,19,21,23,-1,25,-1,-1,-1,-1,-1,-1,-1,-1,-1,-1,-1,-1],"loss_changes":[1.9576653E1,1.1454544E1,1.2371422E1,6.839752E0,9.92107E0,9.648793E0,5.251686E0,0E0,5.387598E0,7.0839014E0,1.1464268E1,6.4670887E0,7.1186647E0,0E0,5.4945908E0,0E0,0E0,0E0,0E0,0E0,0E0,0E0,0E0,0E0,0E0,0E0,0E0],"parents":[2147483647,0,0,1,1,2,2,3,3,4,4,5,5,6,6,8,8,9,9,10,10,11,11,12,12,14,14],"right_children":[2,4,6,8,10,12,14,-1,16,18,20,22,24,-1,26,-1,-1,-1,-1,-1,-1,-1,-1,-1,-1,-1,-1],"split_conditions":[1E0,9.803922E-3,2.7027028E-2,2.6666667E-2,4.6E1,2.783505E-1,2.7131783E-2,3.360894E-2,2.8E1,1.780822E-1,7.1428575E-2,9E0,3.275862E-1,4.2312782E-2,6E-2,-4.41998E-3,-2.6966095E-2,-9.378563E-3,3.6854688E-2,-6.070963E-3,4.1065505E-3,-1.6504115E-3,-1.6566487E-2,2.4491949E-2,-2.409248E-3,4.8542987E-3,1.3478753E-2],"split_indices":[11,0,0,8,10,7,0,0,10,8,5,9,2,0,0,0,0,0,0,0,0,0,0,0,0,0,0],"split_type":[0,0,0,0,0,0,0,0,0,0,0,0,0,0,0,0,0,0,0,0,0,0,0,0,0,0,0],"sum_hessian":[3.9139958E3,1.7490922E3,2.1649038E3,1.3040361E2,1.6186885E3,7.8822736E2,1.3766764E3,5.3419247E0,1.2506168E2,4.5549203E2,1.1631964E3,6.88728E2,9.94993E1,9.203169E0,1.3674733E3,3.8668518E1,8.639316E1,4.4801575E2,7.4763117E0,4.511561E2,7.1204034E2,6.071305E2,8.159756E1,5.719633E1,4.2302963E1,1.1476719E3,2.1980142E2],"tree_param":{"num_deleted":"0","num_feature":"15","num_nodes":"27","size_leaf_vector":"1"}},{"base_weights":[1.0582191E-3,-7.1018964E-2,5.892352E-2,-1.5156871E-1,1.5290932E-2,-3.0503118E-1,7.3964514E-2,-3.450075E-1,-1.046223E-1,-3.959723E-3,4.5025587E-1,-2.1385849E-1,-7.8141564E-1,5.2722577E-2,2.1560644E-1,-2.1100389E-2,6.979272E-3,-9.356519E-3,7.34844E-5,-2.2338655E-2,6.428411E-4,5.409341E-2,-5.808818E-4,-1.5248949E-2,2.0874893E-2,-5.0316554E-2,-2.1123748E-2,-2.9064082E-3,4.0101567E-3,4.191992E-2,8.291951E-3],"categories":[],"categories_nodes":[],"categories_segments":[],"categories_sizes":[],"default_left":[0,0,0,0,0,0,0,0,0,0,0,0,0,0,0,0,0,0,0,0,0,0,0,0,0,0,0,0,0,0,0],"id":38,"left_children":[1,3,5,7,9,11,13,15,17,19,21,23,25,27,29,-1,-1,-1,-1,-1,-1,-1,-1,-1,-1,-1,-1,-1,-1,-1,-1],"loss_changes":[1.6388763E1,1.2167641E1,1.1954163E1,8.184402E0,7.0825157E0,3.5983477E0,6.2886353E0,6.639206E0,6.3891115E0,6.043277E0,1.047039E1,4.392874E0,6.6875744E-1,5.5553684E0,8.314603E0,0E0,0E0,0E0,0E0,0E0,0E0,0E0,0E0,0E0,0E0,0E0,0E0,0E0,0E0,0E0,0E0],"parents":[2147483647,0,0,1,1,2,2,3,3,4,4,5,5,6,6,7,7,8,8,9,9,10,10,11,11,12,12,13,13,14,14],"right_children":[2,4,6,8,10,12,14,16,18,20,22,24,26,28,30,-1,-1,-1,-1,-1,-1,-1,-1,-1,-1,-1,-1,-1,-1,-1,-1],"split_conditions":[1E0,2E-1,1.1363637E-1,1E0,1.74E2,2.2463769E-1,2.5221238E-1,1.3294798E-1,7.7E1,3.1746034E-2,1.84E2,4.3243244E-1,1.0144927E-1,3.5457E0,1.7E1,-2.1100389E-2,6.979272E-3,-9.356519E-3,7.34844E-5,-2.2338655E-2,6.428411E-4,5.409341E-2,-5.808818E-4,-1.5248949E-2,2.0874893E-2,-5.0316554E-2,-2.1123748E-2,-2.9064082E-3,4.0101567E-3,4.191992E-2,8.291951E-3],"split_indices":[11,4,7,12,10,3,3,8,10,8,10,1,8,14,10,0,0,0,0,0,0,0,0,0,0,0,0,0,0,0,0],"split_type":[0,0,0,0,0,0,0,0,0,0,0,0,0,0,0,0,0,0,0,0,0,0,0,0,0,0,0,0,0,0,0],"sum_hessian":[3.9274321E3,1.7488422E3,2.17859E3,9.042158E2,8.4462634E2,8.569535E1,2.0928945E3,1.7535033E2,7.288655E2,8.0977814E2,3.484822E1,7.314537E1,1.2549981E1,1.8211503E3,2.7174442E2,1.5141942E2,2.3930906E1,4.0957437E2,3.192911E2,2.8692026E1,7.810861E2,1.4152424E1,2.0695795E1,6.437186E1,8.7735195E0,6.6066084E0,5.9433727E0,3.6156366E2,1.4595865E3,1.89357E1,2.528087E2],"tree_param":{"num_deleted":"0","num_feature":"15","num_nodes":"31","size_leaf_vector":"1"}},{"base_weights":[1.32656675E-2,-1.1247717E-1,4.133808E-2,2.775273E-1,-1.332849E-1,-2.1468619E-2,9.144821E-2,-1.7006923E-2,8.608808E-1,-3.573054E-1,-1.0612374E-1,-1.3779855E-1,6.1469022E-2,6.425156E-2,2.087544E-1,2.3616407E-2,-1.5011496E-2,5.6847688E-2,2.2292856E-2,-9.096159E-3,-3.35879E-2,-2.5948549E-2,-4.6186773E-3,-1.9172823E-2,-3.972716E-3,2.166766E-3,1.9791478E-2,3.4809087E-3,-4.0317256E-2,2.0177256E-2,2.9706412E-3],"categories":[],"categories_nodes":[],"categories_segments":[],"categories_sizes":[],"default_left":[0,0,0,0,0,0,0,0,0,0,0,0,0,0,0,0,0,0,0,0,0,0,0,0,0,0,0,0,0,0,0],"id":39,"left_children":[1,3,5,7,9,11,13,15,17,19,21,23,25,27,29,-1,-1,-1,-1,-1,-1,-1,-1,-1,-1,-1,-1,-1,-1,-1,-1],"loss_changes":[1.3865194E1,5.854738E0,1.01068535E1,6.309308E0,4.10736E0,1.3763353E1,5.6846867E0,3.6516178E0,9.0361214E-1,3.9172277E0,3.4093146E0,8.478624E0,5.033306E0,6.8370433E0,9.741804E0,0E0,0E0,0E0,0E0,0E0,0E0,0E0,0E0,0E0,0E0,0E0,0E0,0E0,0E0,0E0,0E0],"parents":[2147483647,0,0,1,1,2,2,3,3,4,4,5,5,6,6,7,7,8,8,9,9,10,10,11,11,12,12,13,13,14,14],"right_children":[2,4,6,8,10,12,14,16,18,20,22,24,26,28,30,-1,-1,-1,-1,-1,-1,-1,-1,-1,-1,-1,-1,-1,-1,-1,-1],"split_conditions":[1.8518519E-2,1.6E1,1E0,3.9668E0,5.2054796E-2,3.3333334E-1,5.3333335E-2,2.7868852E-1,3.2089552E-1,2.8169015E-1,1.8E1,1E0,1.71E2,5.833333E-1,4.6666667E-1,2.3616407E-2,-1.5011496E-2,5.6847688E-2,2.2292856E-2,-9.096159E-3,-3.35879E-2,-2.5948549E-2,-4.6186773E-3,-1.9172823E-2,-3.972716E-3,2.166766E-3,1.9791478E-2,3.4809087E-3,-4.0317256E-2,2.0177256E-2,2.9706412E-3],"split_indices":[0,10,11,14,3,6,0,2,2,2,10,12,10,2,6,0,0,0,0,0,0,0,0,0,0,0,0,0,0,0,0],"split_type":[0,0,0,0,0,0,0,0,0,0,0,0,0,0,0,0,0,0,0,0,0,0,0,0,0,0,0,0,0,0,0],"sum_hessian":[3.925606E3,7.1590314E2,3.209703E3,3.5635757E1,6.802674E2,1.4246527E3,1.78505E3,2.4324966E1,1.131079E1,7.224536E1,6.0802203E2,5.926829E2,8.3196985E2,1.450345E3,3.3470502E2,8.672856E0,1.5652111E1,5.7478437E0,5.562946E0,4.7391727E1,2.4853638E1,1.8413614E1,5.896084E2,1.12678505E2,4.800044E2,7.902415E2,4.1728344E1,1.4423738E3,7.9711766E0,1.4451178E2,1.9019324E2],"tree_param":{"num_deleted":"0","num_feature":"15","num_nodes":"31","size_leaf_vector":"1"}},{"base_weights":[-2.5796085E-3,-1.2547556E-1,2.7566124E-2,-1.383386E-1,4.1921914E-2,3.3410678E-3,1.3522218E-1,-3.285548E-1,-9.743518E-2,1.6275324E-2,-3.3434975E-1,3.4022328E-2,2.2652622E-1,-8.212073E-3,-3.0853359E-2,-2.0369941E-4,-1.1341532E-2,1.0183342E-3,-3.460877E-2,2.0058379E-2,-1.9504836E-2,1.4674877E-2,-2.4573365E-3,2.2712832E-2,7.6553063E-3],"categories":[],"categories_nodes":[],"categories_segments":[],"categories_sizes":[],"default_left":[0,0,0,0,0,0,0,0,0,0,0,0,0,0,0,0,0,0,0,0,0,0,0,0,0],"id":40,"left_children":[1,3,5,7,-1,9,11,13,15,17,19,21,23,-1,-1,-1,-1,-1,-1,-1,-1,-1,-1,-1,-1],"loss_changes":[1.4462754E1,9.650171E0,8.175314E0,5.8787374E0,0E0,1.1187345E1,5.3128614E0,6.252425E0,7.5694585E0,7.163613E0,4.0306826E0,5.933632E0,4.988823E0,0E0,0E0,0E0,0E0,0E0,0E0,0E0,0E0,0E0,0E0,0E0,0E0],"parents":[2147483647,0,0,1,1,2,2,3,3,5,5,6,6,7,7,8,8,9,9,10,10,11,11,12,12],"right_children":[2,4,6,8,-1,10,12,14,16,18,20,22,24,-1,-1,-1,-1,-1,-1,-1,-1,-1,-1,-1,-1],"split_conditions":[3.5457E0,6E-1,1.2307692E-1,1.7156863E-1,4.1921914E-2,5.1125E-1,2E-1,7.6E1,8.108108E-2,3.9325842E-1,1.3E1,3.7721518E-1,4.310345E-2,-8.212073E-3,-3.0853359E-2,-2.0369941E-4,-1.1341532E-2,1.0183342E-3,-3.460877E-2,2.0058379E-2,-1.9504836E-2,1.4674877E-2,-2.4573365E-3,2.2712832E-2,7.6553063E-3],"split_indices":[14,4,8,7,0,1,5,10,8,7,10,2,0,0,0,0,0,0,0,0,0,0,0,0,0],"split_type":[0,0,0,0,0,0,0,0,0,0,0,0,0,0,0,0,0,0,0,0,0,0,0,0,0],"sum_hessian":[3.901867E3,7.679562E2,3.1339106E3,7.5868823E2,9.267905E0,2.5590889E3,5.74822E2,1.3302763E2,6.256606E2,2.4656028E3,9.348588E1,2.7328745E2,3.0153458E2,8.5756775E1,4.7270866E1,3.6403455E2,2.6162607E2,2.4524111E3,1.3191623E1,6.149818E0,8.733606E1,6.5720436E1,2.0756702E2,7.224912E1,2.2928545E2],"tree_param":{"num_deleted":"0","num_feature":"15","num_nodes":"25","size_leaf_vector":"1"}},{"base_weights":[-1.2104511E-2,-8.6494386E-2,4.503514E-2,-6.411194E-2,-2.4764895E-1,1.454035E-2,1.5784204E-1,-2.0471938E-1,-2.810322E-2,3.900277E-2,-3.8228232E-1,3.1198766E-2,-3.0448708E-1,1.14070825E-1,5.6181943E-1,-1.1708883E-2,2.1223268E-2,1.9778686E-3,-5.707645E-3,1.177101E-2,-3.8749035E-2,-2.290215E-2,6.778264E-4,1.9930515E-3,-2.1581542E-2,-1.9415831E-2,2.153573E-2,2.6750986E-2,3.44359E-3,3.4498014E-2,-1.9846836E-2],"categories":[],"categories_nodes":[],"categories_segments":[],"categories_sizes":[],"default_left":[0,0,0,0,0,0,0,0,0,0,0,0,0,0,0,0,0,0,0,0,0,0,0,0,0,0,0,0,0,0,0],"id":41,"left_children":[1,3,5,7,9,11,13,15,17,19,21,23,25,27,29,-1,-1,-1,-1,-1,-1,-1,-1,-1,-1,-1,-1,-1,-1,-1,-1],"loss_changes":[1.6677399E1,6.1320276E0,7.631773E0,7.578335E0,8.023162E0,9.299476E0,8.284663E0,5.7568903E0,6.9543138E0,1.0929887E1,4.243181E0,6.6812434E0,5.519328E0,8.092101E0,5.913126E0,0E0,0E0,0E0,0E0,0E0,0E0,0E0,0E0,0E0,0E0,0E0,0E0,0E0,0E0,0E0,0E0],"parents":[2147483647,0,0,1,1,2,2,3,3,4,4,5,5,6,6,7,7,8,8,9,9,10,10,11,11,12,12,13,13,14,14],"right_children":[2,4,6,8,10,12,14,16,18,20,22,24,26,28,30,-1,-1,-1,-1,-1,-1,-1,-1,-1,-1,-1,-1,-1,-1,-1,-1],"split_conditions":[3.0075189E-2,9E0,1.2153518E-1,1.25E-2,3.114754E-1,5.170843E-1,6.4285713E-1,4.2857143E-1,1.3761468E-1,1.0344828E-1,1.2E2,3.6363637E-1,4.3117E0,3.4246576E-1,1.84E2,-1.1708883E-2,2.1223268E-2,1.9778686E-3,-5.707645E-3,1.177101E-2,-3.8749035E-2,-2.290215E-2,6.778264E-4,1.9930515E-3,-2.1581542E-2,-1.9415831E-2,2.153573E-2,2.6750986E-2,3.44359E-3,3.4498014E-2,-1.9846836E-2],"split_indices":[0,9,8,0,2,1,6,6,3,8,10,7,14,1,10,0,0,0,0,0,0,0,0,0,0,0,0,0,0,0,0],"split_type":[0,0,0,0,0,0,0,0,0,0,0,0,0,0,0,0,0,0,0,0,0,0,0,0,0,0,0,0,0,0,0],"sum_hessian":[3.921613E3,1.7034216E3,2.2181914E3,1.4969158E3,2.0650589E2,1.747046E3,4.711454E2,3.042378E2,1.192678E3,6.6221695E1,1.402842E2,1.6612063E3,8.583975E1,4.2624396E2,4.490144E1,2.912303E2,1.3007519E1,6.6798425E2,5.2469366E2,5.39211E1,1.2300595E1,1.1761617E2,2.266802E1,1.6315836E3,2.9622652E1,7.74774E1,8.362345E0,4.027904E1,3.859649E2,3.9855045E1,5.0463924E0],"tree_param":{"num_deleted":"0","num_feature":"15","num_nodes":"31","size_leaf_vector":"1"}},{"base_weights":[-5.3780447E-3,-2.1465617E-1,1.1235174E-2,-3.4935814E-1,-1.1482832E-1,-9.560677E-2,3.354613E-2,-6.325799E-1,-2.5236368E-1,-2.3608273E-1,3.1605966E-2,-1.997261E-1,-2.0517088E-2,5.0474353E-2,-7.253346E-2,-5.6411587E-3,-3.6940794E-2,4.049179E-3,-2.0976007E-2,-1.7619485E-2,8.789679E-3,3.2075565E-2,-4.354547E-3,-1.5641626E-2,-2.279888E-3,-2.2454472E-2,4.9394986E-4,5.1825386E-2,2.3441666E-3,7.5181166E-4,-1.1090008E-2],"categories":[],"categories_nodes":[],"categories_segments":[],"categories_sizes":[],"default_left":[0,0,0,0,0,0,0,0,0,0,0,0,0,0,0,0,0,0,0,0,0,0,0,0,0,0,0,0,0,0,0],"id":42,"left_children":[1,3,5,7,9,11,13,15,17,19,21,23,25,27,29,-1,-1,-1,-1,-1,-1,-1,-1,-1,-1,-1,-1,-1,-1,-1,-1],"loss_changes":[1.3624335E1,3.8352757E0,8.658039E0,3.1968117E0,2.972955E0,4.9016404E0,5.3986015E0,1.6010494E0,5.1980205E0,4.444254E0,5.5965037E0,4.5670843E0,4.7679963E0,9.127361E0,5.4129906E0,0E0,0E0,0E0,0E0,0E0,0E0,0E0,0E0,0E0,0E0,0E0,0E0,0E0,0E0,0E0,0E0],"parents":[2147483647,0,0,1,1,2,2,3,3,4,4,5,5,6,6,7,7,8,8,9,9,10,10,11,11,12,12,13,13,14,14],"right_children":[2,4,6,8,10,12,14,16,18,20,22,24,26,28,30,-1,-1,-1,-1,-1,-1,-1,-1,-1,-1,-1,-1,-1,-1,-1,-1],"split_conditions":[7.692308E-2,1E0,1.6363636E-1,8.264462E-3,1.9607844E-2,1E0,8E0,2.2E1,3.3164558E-1,8.5E1,3.9E1,3.9668E0,7.2463766E-2,2.173913E-1,8.3333336E-2,-5.6411587E-3,-3.6940794E-2,4.049179E-3,-2.0976007E-2,-1.7619485E-2,8.789679E-3,3.2075565E-2,-4.354547E-3,-1.5641626E-2,-2.279888E-3,-2.2454472E-2,4.9394986E-4,5.1825386E-2,2.3441666E-3,7.5181166E-4,-1.1090008E-2],"split_indices":[6,11,7,0,0,11,9,10,2,10,10,14,3,2,8,0,0,0,0,0,0,0,0,0,0,0,0,0,0,0,0],"split_type":[0,0,0,0,0,0,0,0,0,0,0,0,0,0,0,0,0,0,0,0,0,0,0,0,0,0,0,0,0,0,0],"sum_hessian":[3.9169673E3,2.8719733E2,3.62977E3,1.2118187E2,1.6601544E2,6.264694E2,3.0033005E3,2.9505278E1,9.167659E1,9.0480865E1,7.553458E1,2.6179904E2,3.646704E2,2.590441E3,4.1285947E2,5.3572197E0,2.4148058E1,3.0789999E1,6.0886597E1,7.066943E1,1.9811432E1,1.1587812E1,6.3946766E1,1.5039943E2,1.1139962E2,2.3238762E1,3.4143164E2,8.356122E0,2.582085E3,2.607724E2,1.5208705E2],"tree_param":{"num_deleted":"0","num_feature":"15","num_nodes":"31","size_leaf_vector":"1"}},{"base_weights":[-1.1737448E-3,-1.9912496E-1,1.4314121E-2,-3.8458118E-1,-1.1909266E-1,-2.3677969E-1,2.4510887E-2,-2.6428786E-1,-6.370674E-1,-1.6447666E-1,2.7686244E-1,-5.9819873E-2,-3.9995122E-1,-2.4661171E-1,3.2886986E-2,7.969938E-3,-1.8822283E-2,-4.6554778E-2,-1.4433567E-2,1.790553E-2,-1.1316088E-2,5.3101845E-2,-1.8628994E-2,-9.590448E-3,2.8986191E-2,6.1602215E-3,-2.417859E-2,-1.0832015E-3,-2.3302384E-2,1.1537855E-3,1.1049971E-2],"categories":[],"categories_nodes":[],"categories_segments":[],"categories_sizes":[],"default_left":[0,0,0,0,0,0,0,0,0,0,0,0,0,0,0,0,0,0,0,0,0,0,0,0,0,0,0,0,0,0,0],"id":43,"left_children":[1,3,5,7,9,11,13,15,17,19,21,23,25,27,29,-1,-1,-1,-1,-1,-1,-1,-1,-1,-1,-1,-1,-1,-1,-1,-1],"loss_changes":[1.1982289E1,4.163536E0,9.286515E0,2.4146109E0,3.6315799E0,4.0632987E0,7.9206448E0,2.878384E0,2.4698048E0,5.88767E0,1.1049878E1,5.942576E0,3.2735577E0,5.149889E0,6.2344084E0,0E0,0E0,0E0,0E0,0E0,0E0,0E0,0E0,0E0,0E0,0E0,0E0,0E0,0E0,0E0,0E0],"parents":[2147483647,0,0,1,1,2,2,3,3,4,4,5,5,6,6,7,7,8,8,9,9,10,10,11,11,12,12,13,13,14,14],"right_children":[2,4,6,8,10,12,14,16,18,20,22,24,26,28,30,-1,-1,-1,-1,-1,-1,-1,-1,-1,-1,-1,-1,-1,-1,-1,-1],"split_conditions":[7.692308E-2,1.8465228E-1,1.1363637E-1,9.210526E-2,1.32E2,1.3145539E-1,3.1681E0,2.6530612E-1,3.947E0,2.004717E-1,9.411765E-2,1.2244898E-1,3.5457E0,2.1428572E-1,1.5306123E-1,7.969938E-3,-1.8822283E-2,-4.6554778E-2,-1.4433567E-2,1.790553E-2,-1.1316088E-2,5.3101845E-2,-1.8628994E-2,-9.590448E-3,2.8986191E-2,6.1602215E-3,-2.417859E-2,-1.0832015E-3,-2.3302384E-2,1.1537855E-3,1.1049971E-2],"split_indices":[6,7,7,8,10,3,14,1,14,7,8,3,14,6,8,0,0,0,0,0,0,0,0,0,0,0,0,0,0,0,0],"split_type":[0,0,0,0,0,0,0,0,0,0,0,0,0,0,0,0,0,0,0,0,0,0,0,0,0,0,0,0,0,0,0],"sum_hessian":[3.90639E3,2.8260056E2,3.6237893E3,8.404364E1,1.9855692E2,1.4054985E2,3.4832395E3,5.830962E1,2.5734022E1,1.7866331E2,1.989361E1,6.808172E1,7.246814E1,1.03534386E2,3.379705E3,1.2116648E1,4.619297E1,1.30489025E1,1.268512E1,1.8399366E1,1.6026395E2,8.718118E0,1.1175492E1,5.7015034E1,1.1066682E1,9.921689E0,6.254645E1,5.1667667E1,5.186672E1,3.2132368E3,1.6646838E2],"tree_param":{"num_deleted":"0","num_feature":"15","num_nodes":"31","size_leaf_vector":"1"}},{"base_weights":[1.0219809E-3,-2.7134922E-1,1.1612632E-2,5.5694467E-1,-3.4455466E-1,4.1257985E-2,-4.9585205E-2,-1.4694782E-2,6.41861E-2,-1.5998626E-1,-5.674006E-1,-1.2988588E-1,5.410037E-2,-2.1200866E-1,-1.8702883E-2,-2.5603652E-2,-8.701663E-4,-3.3376675E-2,-1.1979837E-2,-1.4484832E-2,1.5526409E-2,2.107185E-3,1.3661126E-2,9.9579E-3,-1.6818462E-2,-1.5849139E-3,2.473058E-2],"categories":[],"categories_nodes":[],"categories_segments":[],"categories_sizes":[],"default_left":[0,0,0,0,0,0,0,0,0,0,0,0,0,0,0,0,0,0,0,0,0,0,0,0,0,0,0],"id":44,"left_children":[1,3,5,7,9,11,13,-1,-1,15,17,19,21,23,25,-1,-1,-1,-1,-1,-1,-1,-1,-1,-1,-1,-1],"loss_changes":[1.1293478E1,9.077096E0,6.8389454E0,7.97174E0,5.4722176E0,5.588007E0,6.166953E0,0E0,0E0,3.7749195E0,1.8383884E0,1.258538E1,6.178699E0,1.0111829E1,6.9185314E0,0E0,0E0,0E0,0E0,0E0,0E0,0E0,0E0,0E0,0E0,0E0,0E0],"parents":[2147483647,0,0,1,1,2,2,3,3,4,4,5,5,6,6,9,9,10,10,11,11,12,12,13,13,14,14],"right_children":[2,4,6,8,10,12,14,-1,-1,16,18,20,22,24,26,-1,-1,-1,-1,-1,-1,-1,-1,-1,-1,-1,-1],"split_conditions":[3.3670033E-3,2.9411765E-2,6E0,2.0408163E-2,2.8E1,2.2E1,1.7E-1,-1.4694782E-2,6.41861E-2,1.8686868E-1,8.888889E-2,2.7407408E-1,1.5555556E-1,3.164557E-1,5.3846157E-1,-2.5603652E-2,-8.701663E-4,-3.3376675E-2,-1.1979837E-2,-1.4484832E-2,1.5526409E-2,2.107185E-3,1.3661126E-2,9.9579E-3,-1.6818462E-2,-1.5849139E-3,2.473058E-2],"split_indices":[0,8,9,8,10,10,7,0,0,7,8,7,8,1,6,0,0,0,0,0,0,0,0,0,0,0,0],"split_type":[0,0,0,0,0,0,0,0,0,0,0,0,0,0,0,0,0,0,0,0,0,0,0,0,0,0,0],"sum_hessian":[3.9130168E3,1.4553426E2,3.7674827E3,1.1281387E1,1.3425287E2,2.538239E3,1.2292437E3,5.471503E0,5.809885E0,7.437278E1,5.988009E1,1.765349E2,2.361704E3,1.9544563E2,1.033798E3,2.0690166E1,5.3682613E1,4.5074867E1,1.4805219E1,1.2978331E2,4.675158E1,2.2406335E3,1.2107055E2,4.5246872E1,1.5019876E2,1.009187E3,2.4610973E1],"tree_param":{"num_deleted":"0","num_feature":"15","num_nodes":"27","size_leaf_vector":"1"}},{"base_weights":[-1.2661115E-3,-3.9332908E-2,6.1215132E-2,-3.5542682E-1,-3.2013617E-2,7.454877E-2,-1.9493331E-1,2.0207053E-2,-4.5305645E-1,3.1744868E-2,-7.782733E-2,-2.1887554E-1,8.601444E-2,-2.5378808E-1,2.2984281E-2,-1.0687097E-2,-3.449711E-2,-1.3076653E-2,2.7567826E-3,-3.5641335E-2,-3.2395087E-3,5.671742E-3,-3.230538E-2,1.1401248E-2,2.6118965E-3,1.2400016E-2,-1.7292418E-2],"categories":[],"categories_nodes":[],"categories_segments":[],"categories_sizes":[],"default_left":[0,0,0,0,0,0,0,0,0,0,0,0,0,0,0,0,0,0,0,0,0,0,0,0,0,0,0],"id":45,"left_children":[1,3,5,7,9,11,13,-1,15,17,19,21,23,25,-1,-1,-1,-1,-1,-1,-1,-1,-1,-1,-1,-1,-1],"loss_changes":[9.297833E0,5.608713E0,5.0693007E0,4.252543E0,6.940737E0,4.754061E0,2.9486256E0,0E0,2.6358995E0,6.832267E0,1.13984585E1,7.6280146E0,6.4888506E0,3.2309828E0,0E0,0E0,0E0,0E0,0E0,0E0,0E0,0E0,0E0,0E0,0E0,0E0,0E0],"parents":[2147483647,0,0,1,1,2,2,3,3,4,4,5,5,6,6,8,8,9,9,10,10,11,11,12,12,13,13],"right_children":[2,4,6,8,10,12,14,-1,16,18,20,22,24,26,-1,-1,-1,-1,-1,-1,-1,-1,-1,-1,-1,-1,-1],"split_conditions":[1.8699187E-1,4.347826E-2,8E0,1.5E1,3.757764E-1,3.8961038E-2,1.3793103E-1,2.0207053E-2,1E0,2E0,9.836066E-2,2.1428572E-1,6.779661E-2,1.9215687E-1,2.2984281E-2,-1.0687097E-2,-3.449711E-2,-1.3076653E-2,2.7567826E-3,-3.5641335E-2,-3.2395087E-3,5.671742E-3,-3.230538E-2,1.1401248E-2,2.6118965E-3,1.2400016E-2,-1.7292418E-2],"split_indices":[3,3,9,10,2,8,8,0,13,9,3,5,8,3,0,0,0,0,0,0,0,0,0,0,0,0,0],"split_type":[0,0,0,0,0,0,0,0,0,0,0,0,0,0,0,0,0,0,0,0,0,0,0,0,0,0,0],"sum_hessian":[3.9071687E3,2.4281719E3,1.4789971E3,5.387655E1,2.3742952E3,1.406492E3,7.2505066E1,5.778641E0,4.8097908E1,9.928553E2,1.38144E3,5.221216E1,1.3542798E3,6.708589E1,5.419175E0,2.4872595E1,2.3225313E1,7.258538E1,9.202699E2,2.6711847E1,1.354728E3,2.9781752E1,2.2430407E1,2.591124E2,1.0951675E3,1.0137271E1,5.694862E1],"tree_param":{"num_deleted":"0","num_feature":"15","num_nodes":"27","size_leaf_vector":"1"}},{"base_weights":[-1.4995267E-2,-6.356995E-2,7.263679E-2,-2.1345092E-1,-4.4678036E-2,9.049628E-2,-2.3824191E-1,-2.6296368E-1,5.244289E-2,5.152741E-2,-7.438591E-2,3.3914447E-2,1.6462533E-1,-3.0641466E-1,2.4337042E-2,-1.1403548E-2,-3.6042117E-2,-3.2244533E-2,1.9298226E-2,9.981818E-4,4.1477434E-2,-8.733925E-3,-1.8453341E-3,2.140448E-2,7.6879666E-4,-3.7503984E-2,8.8695E-3,-6.212097E-3,-3.1309042E-2],"categories":[],"categories_nodes":[],"categories_segments":[],"categories_sizes":[],"default_left":[0,0,0,0,0,0,0,0,0,0,0,0,0,0,0,0,0,0,0,0,0,0,0,0,0,0,0,0,0],"id":46,"left_children":[1,3,5,7,9,11,13,15,17,19,21,23,25,27,-1,-1,-1,-1,-1,-1,-1,-1,-1,-1,-1,-1,-1,-1,-1],"loss_changes":[1.6663803E1,7.1216135E0,7.773268E0,3.7216873E0,