{"learner":{"attributes":{},"feature_names":[],"feature_types":[],"gradient_booster":{"model":{"cats":{"enc":[],"feature_segments":[],"sorted_idx":[]},"gbtree_model_param":{"num_parallel_tree":"1","num_trees":"460"},"iteration_indptr":[0,1,2,3,4,5,6,7,8,9,10,11,12,13,14,15,16,17,18,19,20,21,22,23,24,25,26,27,28,29,30,31,32,33,34,35,36,37,38,39,40,41,42,43,44,45,46,47,48,49,50,51,52,53,54,55,56,57,58,59,60,61,62,63,64,65,66,67,68,69,70,71,72,73,74,75,76,77,78,79,80,81,82,83,84,85,86,87,88,89,90,91,92,93,94,95,96,97,98,99,100,101,102,103,104,105,106,107,108,109,110,111,112,113,114,115,116,117,118,119,120,121,122,123,124,125,126,127,128,129,130,131,132,133,134,135,136,137,138,139,140,141,142,143,144,145,146,147,148,149,150,151,152,153,154,155,156,157,158,159,160,161,162,163,164,165,166,167,168,169,170,171,172,173,174,175,176,177,178,179,180,181,182,183,184,185,186,187,188,189,190,191,192,193,194,195,196,197,198,199,200,201,202,203,204,205,206,207,208,209,210,211,212,213,214,215,216,217,218,219,220,221,222,223,224,225,226,227,228,229,230,231,232,233,234,235,236,237,238,239,240,241,242,243,244,245,246,247,248,249,250,251,252,253,254,255,256,257,258,259,260,261,262,263,264,265,266,267,268,269,270,271,272,273,274,275,276,277,278,279,280,281,282,283,284,285,286,287,288,289,290,291,292,293,294,295,296,297,298,299,300,301,302,303,304,305,306,307,308,309,310,311,312,313,314,315,316,317,318,319,320,321,322,323,324,325,326,327,328,329,330,331,332,333,334,335,336,337,338,339,340,341,342,343,344,345,346,347,348,349,350,351,352,353,354,355,356,357,358,359,360,361,362,363,364,365,366,367,368,369,370,371,372,373,374,375,376,377,378,379,380,381,382,383,384,385,386,387,388,389,390,391,392,393,394,395,396,397,398,399,400,401,402,403,404,405,406,407,408,409,410,411,412,413,414,415,416,417,418,419,420,421,422,423,424,425,426,427,428,429,430,431,432,433,434,435,436,437,438,439,440,441,442,443,444,445,446,447,448,449,450,451,452,453,454,455,456,457,458,459,460],"tree_info":[0,0,0,0,0,0,0,0,0,0,0,0,0,0,0,0,0,0,0,0,0,0,0,0,0,0,0,0,0,0,0,0,0,0,0,0,0,0,0,0,0,0,0,0,0,0,0,0,0,0,0,0,0,0,0,0,0,0,0,0,0,0,0,0,0,0,0,0,0,0,0,0,0,0,0,0,0,0,0,0,0,0,0,0,0,0,0,0,0,0,0,0,0,0,0,0,0,0,0,0,0,0,0,0,0,0,0,0,0,0,0,0,0,0,0,0,0,0,0,0,0,0,0,0,0,0,0,0,0,0,0,0,0,0,0,0,0,0,0,0,0,0,0,0,0,0,0,0,0,0,0,0,0,0,0,0,0,0,0,0,0,0,0,0,0,0,0,0,0,0,0,0,0,0,0,0,0,0,0,0,0,0,0,0,0,0,0,0,0,0,0,0,0,0,0,0,0,0,0,0,0,0,0,0,0,0,0,0,0,0,0,0,0,0,0,0,0,0,0,0,0,0,0,0,0,0,0,0,0,0,0,0,0,0,0,0,0,0,0,0,0,0,0,0,0,0,0,0,0,0,0,0,0,0,0,0,0,0,0,0,0,0,0,0,0,0,0,0,0,0,0,0,0,0,0,0,0,0,0,0,0,0,0,0,0,0,0,0,0,0,0,0,0,0,0,0,0,0,0,0,0,0,0,0,0,0,0,0,0,0,0,0,0,0,0,0,0,0,0,0,0,0,0,0,0,0,0,0,0,0,0,0,0,0,0,0,0,0,0,0,0,0,0,0,0,0,0,0,0,0,0,0,0,0,0,0,0,0,0,0,0,0,0,0,0,0,0,0,0,0,0,0,0,0,0,0,0,0,0,0,0,0,0,0,0,0,0,0,0,0,0,0,0,0,0,0,0,0,0,0,0,0,0,0,0,0,0,0,0,0,0,0,0,0,0,0,0,0,0,0,0,0,0,0,0,0,0,0,0,0,0,0,0,0,0,0,0,0,0,0,0,0,0,0,0,0,0,0,0,0,0,0,0,0,0,0,0,0,0,0],"trees":[{"base_weights":[6.457417E-3,-6.191332E-2,1.0777411E-1,-3.196578E-2,-1.5910704E-1,1.8337709E-1,-1.1993016E-2,2.2080071E-2,-1.3785091E-1,-2.3851511E-1,-8.9961044E-2,1.4320941E-1,2.988212E-1,1.19973734E-1,-8.697642E-2,5.8299713E-3,2.502545E-1,-2.2348437E-1,-6.442072E-2,-2.603139E-1,8.2397185E-2,3.5E-2,-1.17801815E-1,2.1640518E-1,2.7879922E-2,9.768036E-2,4.0697885E-1,8.233645E-2,6.861807E-1,-5.5516683E-2,-2.316864E-1,-9.316755E-4,7.953003E-3,3.5E-2,3.273926E-4,-1.2524001E-2,-3.6560812E-3,2.657402E-2,-4.034595E-3,-1.0678717E-2,-1.9413115E-2,-1.2450303E-2,3.5E-2,-6.724398E-3,1.5255044E-2,1.2187012E-2,-2.9256567E-3,7.232824E-3,-3.981964E-3,-1.30606955E-2,1.0025066E-2,2.3286587E-2,-1.1003762E-2,-8.303691E-3,6.678331E-3,3.5E-2,3.9737443E-3,8.4344605E-3,-3.9125397E-3,1.4394109E-2,-1.3472996E-2],"categories":[],"categories_nodes":[],"categories_segments":[],"categories_sizes":[],"default_left":[0,0,0,0,0,0,0,0,0,0,0,0,0,0,0,0,0,0,0,0,0,0,0,0,0,0,0,0,0,0,0,0,0,0,0,0,0,0,0,0,0,0,0,0,0,0,0,0,0,0,0,0,0,0,0,0,0,0,0,0,0],"id":0,"left_children":[1,3,5,7,9,11,13,15,17,19,21,23,25,27,29,31,33,35,37,39,41,-1,43,45,47,49,51,53,55,57,59,-1,-1,-1,-1,-1,-1,-1,-1,-1,-1,-1,-1,-1,-1,-1,-1,-1,-1,-1,-1,-1,-1,-1,-1,-1,-1,-1,-1,-1,-1],"loss_changes":[3.759292E1,9.42669E0,1.9801386E1,1.41858635E1,4.1679974E0,6.173321E0,8.392727E0,6.085757E0,5.252862E0,2.501646E0,1.3246775E1,8.405275E0,7.4679184E0,6.4931836E0,2.4489288E0,5.751671E0,1.4231401E1,1.5496979E0,4.429033E0,1.9039001E0,6.975571E0,0E0,2.8819952E0,4.5938396E0,4.8832383E0,4.554162E0,8.35894E0,3.7041616E0,4.517252E0,2.2839732E0,1.9665737E0,0E0,0E0,0E0,0E0,0E0,0E0,0E0,0E0,0E0,0E0,0E0,0E0,0E0,0E0,0E0,0E0,0E0,0E0,0E0,0E0,0E0,0E0,0E0,0E0,0E0,0E0,0E0,0E0,0E0,0E0],"parents":[2147483647,0,0,1,1,2,2,3,3,4,4,5,5,6,6,7,7,8,8,9,9,10,10,11,11,12,12,13,13,14,14,15,15,16,16,17,17,18,18,19,19,20,20,22,22,23,23,24,24,25,25,26,26,27,27,28,28,29,29,30,30],"right_children":[2,4,6,8,10,12,14,16,18,20,22,24,26,28,30,32,34,36,38,40,42,-1,44,46,48,50,52,54,56,58,60,-1,-1,-1,-1,-1,-1,-1,-1,-1,-1,-1,-1,-1,-1,-1,-1,-1,-1,-1,-1,-1,-1,-1,-1,-1,-1,-1,-1,-1,-1],"split_conditions":[2.9411765E-2,8E0,5E0,1.255814E-1,2.6E1,4.8295453E-1,1.9148937E-1,6.1E1,1.5267176E-2,1.7021276E-1,1.7142858E-1,1.4046822E-1,6E-1,1.875E-1,9E0,1.16071425E-1,1.01123594E-1,1.0869565E-1,5.691057E-2,1.0655738E-1,1.2222222E-1,3.5E-2,2.7149322E-2,1.8604651E-1,6E-1,1.7266187E-1,3.119266E-1,1.2E1,1.8E1,1.2E1,9.146342E-2,-9.316755E-4,7.953003E-3,3.5E-2,3.273926E-4,-1.2524001E-2,-3.6560812E-3,2.657402E-2,-4.034595E-3,-1.0678717E-2,-1.9413115E-2,-1.2450303E-2,3.5E-2,-6.724398E-3,1.5255044E-2,1.2187012E-2,-2.9256567E-3,7.232824E-3,-3.981964E-3,-1.30606955E-2,1.0025066E-2,2.3286587E-2,-1.1003762E-2,-8.303691E-3,6.678331E-3,3.5E-2,3.9737443E-3,8.4344605E-3,-3.9125397E-3,1.4394109E-2,-1.3472996E-2],"split_indices":[4,9,9,3,10,1,6,10,4,3,1,3,7,6,9,3,3,2,2,2,2,0,4,2,7,6,6,10,10,10,2,0,0,0,0,0,0,0,0,0,0,0,0,0,0,0,0,0,0,0,0,0,0,0,0,0,0,0,0,0,0],"split_type":[0,0,0,0,0,0,0,0,0,0,0,0,0,0,0,0,0,0,0,0,0,0,0,0,0,0,0,0,0,0,0,0,0,0,0,0,0,0,0,0,0,0,0,0,0,0,0,0,0,0,0,0,0,0,0,0,0,0,0,0,0],"sum_hessian":[5.4249736E3,3.2393667E3,2.1856072E3,2.4773647E3,7.62002E2,1.3395103E3,8.460968E2,1.640707E3,8.366576E2,3.5354147E2,4.0846054E2,9.95408E2,3.4410226E2,3.063454E2,5.397514E2,1.5325851E3,1.0812191E2,3.8529156E2,4.5136606E2,3.312306E2,2.231087E1,6.864883E0,4.0159564E2,6.0840027E2,3.8700778E2,1.2099356E2,2.2310869E2,2.8832507E2,1.8020317E1,4.4450116E2,9.525025E1,1.322348E3,2.1023705E2,3.2608192E1,7.551371E1,3.2608194E2,5.9209614E1,1.1155435E1,4.4021063E2,2.4456146E2,8.666914E1,1.7162207E1,5.148662E0,3.8700778E2,1.4587876E1,5.534812E2,5.4919064E1,1.8535184E2,2.0165593E2,2.6601421E1,9.439214E1,2.0423027E2,1.8878428E1,4.8912292E1,2.394128E2,6.0067725E0,1.2013545E1,4.033119E1,4.0416998E2,6.0067725E0,8.924348E1],"tree_param":{"num_deleted":"0","num_feature":"11","num_nodes":"61","size_leaf_vector":"1"}},{"base_weights":[-5.204891E-3,-4.5278125E-2,1.9540307E-1,-1.4702691E-1,-6.043562E-3,2.2143458E-1,-3.8335264E-2,1.3025592E-1,-1.6013838E-1,-2.6609983E-2,1.8513761E-1,1.5171579E-1,3.214822E-1,3.5E-2,-9.887986E-2,-6.90135E-2,7E-1,-2.1837217E-1,-1.2538242E-1,-2.7531216E-1,-2.0643458E-2,4.1898856E-1,-8.364251E-3,1.845387E-1,-2.623327E-1,4.7360379E-1,1.5775338E-1,-3.9740598E-1,2.2806635E-2,-1.4502867E-2,9.88074E-3,3.5E-2,1.1864157E-2,-7.811355E-3,-1.4490432E-2,-5.172014E-3,-1.7246244E-2,-2.0186605E-2,-6.108693E-3,1.940745E-2,-1.3731084E-3,3.5E-2,1.2811649E-2,-7.587772E-3,4.340065E-3,1.4810118E-2,4.2727995E-3,7.208024E-3,-1.7397705E-2,-6.807943E-3,2.824887E-2,-1.4423079E-2,1.4043664E-2,-2.3147466E-2,-1.3887899E-2,1.3120042E-2,-1.1252624E-2],"categories":[],"categories_nodes":[],"categories_segments":[],"categories_sizes":[],"default_left":[0,0,0,0,0,0,0,0,0,0,0,0,0,0,0,0,0,0,0,0,0,0,0,0,0,0,0,0,0,0,0,0,0,0,0,0,0,0,0,0,0,0,0,0,0,0,0,0,0,0,0,0,0,0,0,0,0],"id":1,"left_children":[1,3,5,7,9,11,13,15,17,19,21,23,25,-1,27,29,31,33,35,37,39,41,43,45,47,49,51,53,55,-1,-1,-1,-1,-1,-1,-1,-1,-1,-1,-1,-1,-1,-1,-1,-1,-1,-1,-1,-1,-1,-1,-1,-1,-1,-1,-1,-1],"loss_changes":[4.4270924E1,1.8322674E1,5.587532E0,4.664654E0,1.3034012E1,5.7070236E0,4.313258E0,8.9594965E0,2.4420547E0,4.4351535E0,1.4572987E1,6.6831055E0,8.343441E0,0E0,3.159997E0,2.8825712E0,8.218832E-1,1.9732151E0,3.6563368E0,1.3279591E0,8.160203E0,8.5299015E0,2.4307742E0,4.985795E0,1.3125565E0,9.810806E0,9.106378E0,6.881809E-2,3.7746089E0,0E0,0E0,0E0,0E0,0E0,0E0,0E0,0E0,0E0,0E0,0E0,0E0,0E0,0E0,0E0,0E0,0E0,0E0,0E0,0E0,0E0,0E0,0E0,0E0,0E0,0E0,0E0,0E0],"parents":[2147483647,0,0,1,1,2,2,3,3,4,4,5,5,6,6,7,7,8,8,9,9,10,10,11,11,12,12,14,14,15,15,16,16,17,17,18,18,19,19,20,20,21,21,22,22,23,23,24,24,25,25,26,26,27,27,28,28],"right_children":[2,4,6,8,10,12,14,16,18,20,22,24,26,-1,28,30,32,34,36,38,40,42,44,46,48,50,52,54,56,-1,-1,-1,-1,-1,-1,-1,-1,-1,-1,-1,-1,-1,-1,-1,-1,-1,-1,-1,-1,-1,-1,-1,-1,-1,-1,-1,-1],"split_conditions":[4.8442908E-2,2.5E-1,3.243243E-1,1.4285715E-1,6.1E1,4.767025E-1,3.508772E-2,4E-1,6.837607E-2,4E-2,1.18421055E-1,4.6753246E-1,5.263158E-1,3.5E-2,1.7142858E-1,4.761905E-2,1.5151516E-1,5.5555556E-2,1.6923077E-1,2.2051282E-1,5E-2,2.0833334E-2,2.8037382E-2,1.388889E-1,2.4081632E-1,5.882353E-2,6E-1,5.652174E-1,7.2E-2,-1.4502867E-2,9.88074E-3,3.5E-2,1.1864157E-2,-7.811355E-3,-1.4490432E-2,-5.172014E-3,-1.7246244E-2,-2.0186605E-2,-6.108693E-3,1.940745E-2,-1.3731084E-3,3.5E-2,1.2811649E-2,-7.587772E-3,4.340065E-3,1.4810118E-2,4.2727995E-3,7.208024E-3,-1.7397705E-2,-6.807943E-3,2.824887E-2,-1.4423079E-2,1.4043664E-2,-2.3147466E-2,-1.3887899E-2,1.3120042E-2,-1.1252624E-2],"split_indices":[4,8,0,0,10,1,5,7,5,3,3,1,1,0,3,3,1,5,3,0,3,4,4,3,0,4,8,1,4,0,0,0,0,0,0,0,0,0,0,0,0,0,0,0,0,0,0,0,0,0,0,0,0,0,0,0,0],"split_type":[0,0,0,0,0,0,0,0,0,0,0,0,0,0,0,0,0,0,0,0,0,0,0,0,0,0,0,0,0,0,0,0,0,0,0,0,0,0,0,0,0,0,0,0,0,0,0,0,0,0,0,0,0,0,0,0,0],"sum_hessian":[5.5049106E3,4.588992E3,9.1591797E2,1.2763162E3,3.3126763E3,8.241813E2,9.173668E1,5.722301E1,1.2190931E3,2.9917031E3,3.209733E2,4.8719382E2,3.369875E2,5.997644E0,8.573903E1,4.6937176E1,1.0285837E1,4.5367508E2,7.65418E2,6.903373E1,2.9226692E3,1.4480646E2,1.7616684E2,4.5192276E2,3.5271038E1,1.737047E2,1.6328279E2,2.4172436E1,6.1566597E1,2.5614239E1,2.1322937E1,5.158601E0,5.1272364E0,2.4431973E2,2.0935536E2,6.972069E2,6.821111E1,3.665712E1,3.237661E1,4.703316E1,2.8756362E3,4.1536167E1,1.03270294E2,7.003963E1,1.0612722E2,2.1153683E2,2.4038594E2,6.0177364E0,2.9253302E1,2.25737E1,1.51131E2,3.5019848E1,1.2826295E2,1.3763509E1,1.0408927E1,3.1275406E1,3.029119E1],"tree_param":{"num_deleted":"0","num_feature":"11","num_nodes":"57","size_leaf_vector":"1"}},{"base_weights":[2.5176476E-3,-6.96615E-2,9.877267E-2,-1.4625713E-1,-1.9843841E-2,-5.6126867E-3,1.6604915E-1,1.0548348E-1,-1.6568476E-1,-8.792112E-2,3.728395E-2,7.567285E-2,-1.2227051E-1,1.11569166E-1,2.4788117E-1,-1.8125379E-1,3.6406726E-1,-1.3686429E-1,-3.0720973E-1,-4.6893638E-2,-2.3453502E-1,-7.796223E-2,8.655431E-2,3.4114867E-2,5.1239437E-1,3.5E-2,-1.3588351E-1,1.402804E-1,-2.3288955E-1,2.907167E-1,3.910045E-2,4.0183356E-3,-1.4285541E-2,-2.423846E-3,2.657294E-2,-4.7958065E-3,-1.1110288E-2,-1.3981298E-2,-2.385565E-2,-5.007868E-3,5.3319866E-3,-4.254285E-3,-1.5688889E-2,3.1888771E-3,-8.594556E-3,3.5E-2,3.732881E-3,1.0669146E-3,3.5E-2,3.5E-2,-1.1712336E-2,-3.2367378E-3,-1.1645078E-2,1.01923635E-2,1.8424286E-3,-1.4768833E-3,-1.647691E-2,9.503368E-3,2.0035638E-2,-6.078272E-4,3.4627978E-2],"categories":[],"categories_nodes":[],"categories_segments":[],"categories_sizes":[],"default_left":[0,0,0,0,0,0,0,0,0,0,0,0,0,0,0,0,0,0,0,0,0,0,0,0,0,0,0,0,0,0,0,0,0,0,0,0,0,0,0,0,0,0,0,0,0,0,0,0,0,0,0,0,0,0,0,0,0,0,0,0,0],"id":2,"left_children":[1,3,5,7,9,11,13,15,17,19,21,23,25,27,29,31,33,35,37,39,41,43,45,47,49,-1,51,53,55,57,59,-1,-1,-1,-1,-1,-1,-1,-1,-1,-1,-1,-1,-1,-1,-1,-1,-1,-1,-1,-1,-1,-1,-1,-1,-1,-1,-1,-1,-1,-1],"loss_changes":[3.8001976E1,1.1924732E1,1.6461828E1,6.0413494E0,7.3737154E0,8.72941E0,6.326912E0,6.654167E0,4.623461E0,5.1921797E0,5.861817E0,9.829972E0,4.4512424E0,8.513265E0,5.0760803E0,1.1926391E0,3.2750983E0,3.305933E0,7.69783E-1,5.5480294E0,2.210188E0,4.129339E0,7.149559E0,5.677113E0,9.486551E0,0E0,2.5587716E0,5.200782E0,1.2943156E0,5.1478157E0,3.2908258E0,0E0,0E0,0E0,0E0,0E0,0E0,0E0,0E0,0E0,0E0,0E0,0E0,0E0,0E0,0E0,0E0,0E0,0E0,0E0,0E0,0E0,0E0,0E0,0E0,0E0,0E0,0E0,0E0,0E0,0E0],"parents":[2147483647,0,0,1,1,2,2,3,3,4,4,5,5,6,6,7,7,8,8,9,9,10,10,11,11,12,12,13,13,14,14,15,15,16,16,17,17,18,18,19,19,20,20,21,21,22,22,23,23,24,24,26,26,27,27,28,28,29,29,30,30],"right_children":[2,4,6,8,10,12,14,16,18,20,22,24,26,28,30,32,34,36,38,40,42,44,46,48,50,-1,52,54,56,58,60,-1,-1,-1,-1,-1,-1,-1,-1,-1,-1,-1,-1,-1,-1,-1,-1,-1,-1,-1,-1,-1,-1,-1,-1,-1,-1,-1,-1,-1,-1],"split_conditions":[4.4444445E-1,2.1428572E-1,3.0674847E-2,1.5E-1,2.8E1,2.5862068E-1,1.5053764E-1,1.3043478E-1,9E0,2.804878E-1,8.571429E-2,6.1E1,3.984064E-2,1.4341085E-1,3.2142857E-1,2.4683544E-1,1E-1,2.5555557E-1,3.0864198E-2,2.4347825E-1,1.4E1,4.1E1,1.6513762E-1,1.6129032E-1,6.923077E-1,3.5E-2,5.714286E-1,5E0,3.726708E-2,2.784091E-1,2.885906E-1,4.0183356E-3,-1.4285541E-2,-2.423846E-3,2.657294E-2,-4.7958065E-3,-1.1110288E-2,-1.3981298E-2,-2.385565E-2,-5.007868E-3,5.3319866E-3,-4.254285E-3,-1.5688889E-2,3.1888771E-3,-8.594556E-3,3.5E-2,3.732881E-3,1.0669146E-3,3.5E-2,3.5E-2,-1.1712336E-2,-3.2367378E-3,-1.1645078E-2,1.01923635E-2,1.8424286E-3,-1.4768833E-3,-1.647691E-2,9.503368E-3,2.0035638E-2,-6.078272E-4,3.4627978E-2],"split_indices":[8,8,4,0,10,0,3,0,9,0,2,10,6,3,0,6,8,6,4,0,10,10,0,3,8,0,8,9,4,0,6,0,0,0,0,0,0,0,0,0,0,0,0,0,0,0,0,0,0,0,0,0,0,0,0,0,0,0,0,0,0],"split_type":[0,0,0,0,0,0,0,0,0,0,0,0,0,0,0,0,0,0,0,0,0,0,0,0,0,0,0,0,0,0,0,0,0,0,0,0,0,0,0,0,0,0,0,0,0,0,0,0,0,0,0,0,0,0,0,0,0,0,0,0,0],"sum_hessian":[5.4678047E3,3.1248425E3,2.3429622E3,1.2306925E3,1.89415E3,9.1859625E2,1.424366E3,8.785461E1,1.1428379E3,8.6400507E2,1.0301449E3,5.415813E2,3.7701495E2,8.565068E2,5.678592E2,4.1801258E1,4.605335E1,9.5111725E2,1.9172064E2,6.7612305E2,1.8788202E2,3.0833932E2,7.218056E2,4.9550745E2,4.6073875E1,5.1402173E0,3.7187473E2,7.911554E2,6.53514E1,4.7086032E2,9.699885E1,1.1993429E1,2.9807827E1,1.3497799E1,3.255555E1,6.441621E2,3.069551E2,1.6721854E2,2.4502108E1,5.022354E2,1.738876E2,6.582044E1,1.2206158E2,1.2302068E2,1.8531865E2,7.7042603E0,7.141013E2,4.9037863E2,5.128819E0,3.3745358E1,1.2328521E1,2.1550218E2,1.5637254E2,4.8940634E2,3.0174902E2,2.1474335E1,4.387707E1,2.4730106E2,2.2355927E2,9.085372E1,6.1451225E0],"tree_param":{"num_deleted":"0","num_feature":"11","num_nodes":"61","size_leaf_vector":"1"}},{"base_weights":[1.6599796E-3,-1.6247584E-1,4.9515106E-2,-1.3744812E-1,-2.778711E-1,7.808439E-2,-1.18032E-1,-1.5250504E-1,6.407801E-2,-4.3927124E-1,-2.3708189E-1,6.348708E-2,2.6271054E-1,3.0831093E-1,-1.3409047E-1,6.32584E-2,-1.6900672E-1,-3.3580524E-1,1.705788E-1,-2.4171574E-2,-6.4923987E-3,-8.972344E-2,-2.8868076E-1,4.8393503E-2,2.3402488E-1,2.1633248E-1,7E-1,6.223892E-1,-3.5405114E-2,-1.5674397E-1,1.6287307E-1,-1.3281713E-2,1.4197809E-2,-1.2059298E-2,-7.0401067E-3,-4.4465526E-3,-2.2442682E-2,2.843898E-2,1.1979791E-3,-9.350285E-3,1.899445E-2,-1.05685005E-2,-1.8283198E-2,2.956112E-3,-3.893792E-3,3.5E-2,9.766783E-3,8.743855E-3,3.5E-2,3.5E-2,6.257134E-3,3.8733426E-3,3.5E-2,7.7419686E-3,-1.2390531E-2,-2.1732105E-2,-7.1979063E-3,2.8674278E-2,-6.561124E-3],"categories":[],"categories_nodes":[],"categories_segments":[],"categories_sizes":[],"default_left":[0,0,0,0,0,0,0,0,0,0,0,0,0,0,0,0,0,0,0,0,0,0,0,0,0,0,0,0,0,0,0,0,0,0,0,0,0,0,0,0,0,0,0,0,0,0,0,0,0,0,0,0,0,0,0,0,0,0,0],"id":3,"left_children":[1,3,5,7,9,11,13,15,17,19,21,23,25,27,29,31,33,35,37,-1,-1,39,41,43,45,47,49,51,53,55,57,-1,-1,-1,-1,-1,-1,-1,-1,-1,-1,-1,-1,-1,-1,-1,-1,-1,-1,-1,-1,-1,-1,-1,-1,-1,-1,-1,-1],"loss_changes":[4.3479443E1,3.570694E0,2.0524227E1,3.1316605E0,1.3556232E0,9.85284E0,4.318557E0,3.4202423E0,3.133394E0,5.324364E-1,1.3364611E0,8.727729E0,6.8323727E0,2.5028217E0,4.0804415E0,5.0666575E0,1.7775917E0,3.9344823E-1,3.3552282E0,0E0,0E0,2.2602382E0,7.098503E-1,4.2317057E0,6.8008175E0,7.2616825E0,2.4315462E0,1.7979226E0,5.19986E-1,1.9291391E0,5.293519E0,0E0,0E0,0E0,0E0,0E0,0E0,0E0,0E0,0E0,0E0,0E0,0E0,0E0,0E0,0E0,0E0,0E0,0E0,0E0,0E0,0E0,0E0,0E0,0E0,0E0,0E0,0E0,0E0],"parents":[2147483647,0,0,1,1,2,2,3,3,4,4,5,5,6,6,7,7,8,8,9,9,10,10,11,11,12,12,13,13,14,14,15,15,16,16,17,17,18,18,21,21,22,22,23,23,24,24,25,25,26,26,27,27,28,28,29,29,30,30],"right_children":[2,4,6,8,10,12,14,16,18,20,22,24,26,28,30,32,34,36,38,-1,-1,40,42,44,46,48,50,52,54,56,58,-1,-1,-1,-1,-1,-1,-1,-1,-1,-1,-1,-1,-1,-1,-1,-1,-1,-1,-1,-1,-1,-1,-1,-1,-1,-1,-1,-1],"split_conditions":[2.2222222E-1,9E0,8E0,4.1379312E-1,1.6E1,6.4E1,2.6666668E-1,1.5E-1,2.4347825E-1,1.4893617E-1,7.7586204E-2,1.8518518E-1,7E0,1E1,5.3E1,1.23893805E-1,2.5882354E-1,1.8E1,1.3664596E-1,-2.4171574E-2,-6.4923987E-3,1.1494253E-1,2E-1,3.1851852E-1,3.2291666E-1,1.7924528E-1,1.04803495E-1,9E0,9.146342E-2,3.448276E-2,2.1794872E-1,-1.3281713E-2,1.4197809E-2,-1.2059298E-2,-7.0401067E-3,-4.4465526E-3,-2.2442682E-2,2.843898E-2,1.1979791E-3,-9.350285E-3,1.899445E-2,-1.05685005E-2,-1.8283198E-2,2.956112E-3,-3.893792E-3,3.5E-2,9.766783E-3,8.743855E-3,3.5E-2,3.5E-2,6.257134E-3,3.8733426E-3,3.5E-2,7.7419686E-3,-1.2390531E-2,-2.1732105E-2,-7.1979063E-3,2.8674278E-2,-6.561124E-3],"split_indices":[8,9,9,1,10,10,8,0,0,3,3,3,9,10,10,0,1,10,3,0,0,2,7,0,1,2,2,9,2,3,0,0,0,0,0,0,0,0,0,0,0,0,0,0,0,0,0,0,0,0,0,0,0,0,0,0,0,0,0],"split_type":[0,0,0,0,0,0,0,0,0,0,0,0,0,0,0,0,0,0,0,0,0,0,0,0,0,0,0,0,0,0,0,0,0,0,0,0,0,0,0,0,0,0,0,0,0,0,0,0,0,0,0,0,0,0,0,0,0,0,0],"sum_hessian":[5.5334155E3,1.2485802E3,4.2848354E3,1.0278452E3,2.2073497E2,3.6610977E3,6.2373785E2,9.566155E2,7.1229774E1,4.255973E1,1.7817523E2,3.3940908E3,2.67007E2,2.1980087E1,6.0175775E2,6.776309E1,8.8885236E2,1.452795E1,5.6701824E1,3.6752174E1,5.8075566E0,4.6919422E1,1.3125581E2,3.1192986E3,2.7479218E2,2.4937471E2,1.7632265E1,1.1061567E1,1.091852E1,5.5954565E2,4.2212105E1,2.7129707E1,4.063339E1,2.4761687E2,6.412355E2,5.1242714E0,9.403679E0,1.4484447E1,4.2217377E1,3.9366306E1,7.553115E0,6.735743E1,6.389838E1,2.8755068E3,2.4379166E2,1.203868E1,2.627535E2,2.3951471E2,9.860005E0,9.791445E0,7.8408203E0,5.0910587E0,5.9705086E0,5.902694E0,5.0158257E0,2.3160591E1,5.363851E2,1.72199E1,2.4992205E1],"tree_param":{"num_deleted":"0","num_feature":"11","num_nodes":"59","size_leaf_vector":"1"}},{"base_weights":[3.895853E-4,-4.1018624E-2,2.1375781E-1,-9.323157E-3,-1.6321653E-1,2.2675526E-1,-2.4000208E-1,-7.903761E-2,1.8025763E-2,1.9597183E-1,-1.7462121E-1,2.5582442E-1,4.7426436E-2,-8.6373985E-2,-2.2460612E-2,1.4385908E-2,-1.575636E-1,-4.05239E-2,3.8626324E-2,-2.2890347E-1,6.99056E-1,-4.576962E-1,-1.6204801E-1,2.3910727E-1,7E-1,3.304921E-1,-1.0442526E-1,-1.2034269E-2,6.921495E-3,3.5E-2,-5.7641766E-4,-1.0044816E-2,2.4925065E-4,1.497558E-2,-3.0668143E-3,-6.30669E-4,5.1805465E-3,-1.422859E-2,-4.102633E-3,3.5E-2,-1.39766205E-2,-1.248004E-2,-2.4086408E-2,-8.7942695E-3,1.5584173E-3,6.25968E-3,1.540532E-2,-1.2864654E-2,3.5E-2,-1.778901E-2,2.6984021E-2,2.1445652E-2,-7.670498E-3],"categories":[],"categories_nodes":[],"categories_segments":[],"categories_sizes":[],"default_left":[0,0,0,0,0,0,0,0,0,0,0,0,0,0,0,0,0,0,0,0,0,0,0,0,0,0,0,0,0,0,0,0,0,0,0,0,0,0,0,0,0,0,0,0,0,0,0,0,0,0,0,0,0],"id":4,"left_children":[1,3,5,7,9,11,13,15,17,19,21,23,25,27,-1,29,31,33,35,37,39,41,43,45,47,49,51,-1,-1,-1,-1,-1,-1,-1,-1,-1,-1,-1,-1,-1,-1,-1,-1,-1,-1,-1,-1,-1,-1,-1,-1,-1,-1],"loss_changes":[4.8480297E1,1.7796886E1,5.3141136E0,6.960529E0,3.9110413E0,4.5100822E0,7.749858E-1,7.5483785E0,3.1645422E0,6.486E0,3.192402E0,5.7411003E0,5.288607E0,5.827063E-1,0E0,8.406538E0,3.9380722E0,4.8520308E0,6.462261E0,1.1397475E-1,6.125652E0,7.221317E-2,2.359087E0,5.639801E0,5.2414274E0,6.3533344E0,2.1640792E0,0E0,0E0,0E0,0E0,0E0,0E0,0E0,0E0,0E0,0E0,0E0,0E0,0E0,0E0,0E0,0E0,0E0,0E0,0E0,0E0,0E0,0E0,0E0,0E0,0E0,0E0],"parents":[2147483647,0,0,1,1,2,2,3,3,4,4,5,5,6,6,7,7,8,8,9,9,10,10,11,11,12,12,13,13,15,15,16,16,17,17,18,18,19,19,20,20,21,21,22,22,23,23,24,24,25,25,26,26],"right_children":[2,4,6,8,10,12,14,16,18,20,22,24,26,28,-1,30,32,34,36,38,40,42,44,46,48,50,52,-1,-1,-1,-1,-1,-1,-1,-1,-1,-1,-1,-1,-1,-1,-1,-1,-1,-1,-1,-1,-1,-1,-1,-1,-1,-1],"split_conditions":[4.9586777E-2,8E0,6.5384614E-1,8.139535E-2,1.4285715E-1,3.1451613E-1,7.7586204E-2,2.3255815E-1,1.7045455E-2,1.3043478E-1,2.3809524E-2,3.0967742E-1,4.2105263E-1,5E0,-2.2460612E-2,1.5625E-1,1.2676056E-1,3.3898305E-2,9.6E-2,8.370044E-2,1.5625E-2,1.8181819E-1,1.4444445E-1,6E-1,2.2E-1,3.2323232E-1,1.21212125E-1,-1.2034269E-2,6.921495E-3,3.5E-2,-5.7641766E-4,-1.0044816E-2,2.4925065E-4,1.497558E-2,-3.0668143E-3,-6.30669E-4,5.1805465E-3,-1.422859E-2,-4.102633E-3,3.5E-2,-1.39766205E-2,-1.248004E-2,-2.4086408E-2,-8.7942695E-3,1.5584173E-3,6.25968E-3,1.540532E-2,-1.2864654E-2,3.5E-2,-1.778901E-2,2.6984021E-2,2.1445652E-2,-7.670498E-3],"split_indices":[4,9,1,2,0,6,5,0,4,1,5,6,1,9,0,6,5,5,5,5,4,1,5,7,0,6,2,0,0,0,0,0,0,0,0,0,0,0,0,0,0,0,0,0,0,0,0,0,0,0,0,0,0],"split_type":[0,0,0,0,0,0,0,0,0,0,0,0,0,0,0,0,0,0,0,0,0,0,0,0,0,0,0,0,0,0,0,0,0,0,0,0,0,0,0,0,0,0,0,0,0,0,0,0,0,0,0,0,0],"sum_hessian":[5.4851855E3,4.594368E3,8.9081775E2,3.648979E3,9.453891E2,8.664981E2,2.4319603E1,1.0276168E3,2.621362E3,2.8595514E1,9.167936E2,7.452644E2,1.21233734E2,1.4837167E1,9.482435E0,4.6966562E2,5.579512E2,6.820146E2,1.9393475E3,1.5798246E1,1.2797269E1,3.7483406E1,8.793102E2,7.2144385E2,2.3820522E1,4.191809E1,7.9315636E1,8.7561E0,6.081067E0,1.608687E1,4.5357877E2,4.4033057E2,1.1762063E2,3.856376E1,6.434508E2,1.0847997E3,8.5454785E2,1.0775596E1,5.0226507E0,6.902244E0,5.895025E0,5.0594296E0,3.2423973E1,8.206297E2,5.868047E1,2.7320773E2,4.482361E2,5.2542157E0,1.8566307E1,9.628769E0,3.228932E1,6.0195537E0,7.329608E1],"tree_param":{"num_deleted":"0","num_feature":"11","num_nodes":"53","size_leaf_vector":"1"}},{"base_weights":[-1.38303535E-2,-5.144302E-2,1.6691005E-1,-3.0420696E-2,-2.3803669E-1,3.5E-2,1.5792777E-1,-1.5853903E-1,-7.6358407E-3,-7.6886125E-2,-2.9541084E-1,1.762759E-1,-1.7022601E-1,-1.8446785E-1,3.378546E-2,-1.0598333E-2,6.052055E-1,-1.5255949E-1,6.473366E-1,-6.533996E-2,-3.1395468E-1,2.0739074E-1,-2.9065732E-2,1.0539071E-1,-2.6960307E-1,-6.253858E-3,-1.3591364E-2,-1.4839457E-2,1.1135547E-2,-1.8163156E-3,1.5914536E-3,3.5E-2,-1.6042233E-3,-1.9596945E-2,-4.335453E-3,3.5E-2,1.2428182E-2,1.6480723E-2,-1.9825429E-2,-1.8276822E-2,-1.2195753E-2,2.036614E-3,1.25242425E-2,1.1218338E-3,-1.974081E-2,-1.2834989E-2,1.7401481E-2,-1.23167E-3,-1.8302456E-2],"categories":[],"categories_nodes":[],"categories_segments":[],"categories_sizes":[],"default_left":[0,0,0,0,0,0,0,0,0,0,0,0,0,0,0,0,0,0,0,0,0,0,0,0,0,0,0,0,0,0,0,0,0,0,0,0,0,0,0,0,0,0,0,0,0,0,0,0,0],"id":5,"left_children":[1,3,5,7,9,-1,11,13,15,17,19,21,23,25,27,29,31,33,35,37,39,41,43,45,47,-1,-1,-1,-1,-1,-1,-1,-1,-1,-1,-1,-1,-1,-1,-1,-1,-1,-1,-1,-1,-1,-1,-1,-1],"loss_changes":[3.750172E1,1.7903297E1,7.131735E0,1.1981248E1,4.2505703E0,0E0,5.7196884E0,3.0966568E0,6.3354483E0,6.823188E0,1.4321213E0,5.7270546E0,1.4129039E0,2.8001728E0,4.7170305E0,3.7891827E0,4.547367E0,1.7299261E0,7.0707273E-1,3.6176033E0,1.0482292E0,5.5753784E0,2.2448947E0,1.3293995E0,8.7538385E-1,0E0,0E0,0E0,0E0,0E0,0E0,0E0,0E0,0E0,0E0,0E0,0E0,0E0,0E0,0E0,0E0,0E0,0E0,0E0,0E0,0E0,0E0,0E0,0E0],"parents":[2147483647,0,0,1,1,2,2,3,3,4,4,6,6,7,7,8,8,9,9,10,10,11,11,12,12,13,13,14,14,15,15,16,16,17,17,18,18,19,19,20,20,21,21,22,22,23,23,24,24],"right_children":[2,4,6,8,10,-1,12,14,16,18,20,22,24,26,28,30,32,34,36,38,40,42,44,46,48,-1,-1,-1,-1,-1,-1,-1,-1,-1,-1,-1,-1,-1,-1,-1,-1,-1,-1,-1,-1,-1,-1,-1,-1],"split_conditions":[4.8780486E-2,9E0,3.2051283E-1,1.8181819E-1,1.7460318E-1,3.5E-2,1.9931272E-1,3.490566E-1,1.0666667E0,1.712963E-1,1.5517241E-1,8.374384E-2,2.4242425E-1,2.3529412E-1,8.77193E-3,3.6363637E-1,4E0,1.8181819E-1,3.5714287E-1,3.018182E-1,2.3809524E-1,2.3188406E-1,6E0,3.7142858E-1,2.0987654E-1,-6.253858E-3,-1.3591364E-2,-1.4839457E-2,1.1135547E-2,-1.8163156E-3,1.5914536E-3,3.5E-2,-1.6042233E-3,-1.9596945E-2,-4.335453E-3,3.5E-2,1.2428182E-2,1.6480723E-2,-1.9825429E-2,-1.8276822E-2,-1.2195753E-2,2.036614E-3,1.25242425E-2,1.1218338E-3,-1.974081E-2,-1.2834989E-2,1.7401481E-2,-1.23167E-3,-1.8302456E-2],"split_indices":[4,9,1,8,6,0,5,1,8,6,0,4,0,0,4,1,9,8,8,6,6,0,9,1,6,0,0,0,0,0,0,0,0,0,0,0,0,0,0,0,0,0,0,0,0,0,0,0,0],"split_type":[0,0,0,0,0,0,0,0,0,0,0,0,0,0,0,0,0,0,0,0,0,0,0,0,0,0,0,0,0,0,0,0,0,0,0,0,0,0,0,0,0,0,0,0,0,0,0,0,0],"sum_hessian":[5.5142134E3,4.564948E3,9.4926526E2,4.1037656E3,4.6118225E2,5.2931747E0,9.439721E2,6.1872754E2,3.4850383E3,1.2169879E2,3.3948346E2,8.9442474E2,4.9547314E1,5.4525775E2,7.3469765E1,3.4692505E3,1.5787747E1,1.10900276E2,1.0798519E1,2.5659037E1,3.1382443E2,7.7672046E2,1.177043E2,1.3114491E1,3.643282E1,3.260361E2,2.1922165E2,2.6510963E1,4.69588E1,2.1597324E3,1.3095181E3,7.1072803E0,8.680468E0,2.285734E1,8.804294E1,5.764041E0,5.034478E0,1.1704658E1,1.3954378E1,1.7829634E2,1.3552808E2,1.5997852E2,6.1674194E2,1.0399861E2,1.3705696E1,5.2387476E0,7.875744E0,1.0646495E1,2.5786325E1],"tree_param":{"num_deleted":"0","num_feature":"11","num_nodes":"49","size_leaf_vector":"1"}},{"base_weights":[5.1502693E-3,3.651718E-2,-1.3468799E-1,-3.653092E-2,7.915805E-2,1.21030524E-1,-1.5056019E-1,-4.3036962E-5,-1.3842429E-1,3.890217E-2,1.7392886E-1,-1.6328567E-1,4.298766E-1,-4.6163464E-1,-1.3562162E-1,-7.292475E-2,4.4993028E-2,2.4134347E-2,-1.9199362E-1,5.3281628E-2,-9.899003E-2,2.4852364E-1,6.275103E-2,-3.577712E-1,8.906933E-2,5.22311E-2,7E-1,-1.3609232E-2,-2.4160927E-2,-5.231601E-2,-1.798195E-1,1.5486752E-2,-5.5772066E-3,-1.5905816E-3,1.2398595E-2,3.4522664E-2,-2.0381312E-3,4.295373E-4,-1.19203795E-2,9.060348E-4,7.2846757E-3,6.2654256E-3,-7.881553E-3,9.626682E-3,3.2259583E-2,7.0838E-5,2.504214E-2,-2.2814682E-2,-6.0871006E-3,-1.246937E-2,1.4819919E-2,-2.0706106E-2,1.578635E-2,3.5E-2,3.7094501E-3,-3.936253E-3,3.018502E-2,-4.2920406E-3,-1.4094668E-2],"categories":[],"categories_nodes":[],"categories_segments":[],"categories_sizes":[],"default_left":[0,0,0,0,0,0,0,0,0,0,0,0,0,0,0,0,0,0,0,0,0,0,0,0,0,0,0,0,0,0,0,0,0,0,0,0,0,0,0,0,0,0,0,0,0,0,0,0,0,0,0,0,0,0,0,0,0,0,0],"id":6,"left_children":[1,3,5,7,9,11,13,15,17,19,21,23,25,27,29,31,33,35,37,39,41,43,45,47,49,51,53,-1,-1,55,57,-1,-1,-1,-1,-1,-1,-1,-1,-1,-1,-1,-1,-1,-1,-1,-1,-1,-1,-1,-1,-1,-1,-1,-1,-1,-1,-1,-1],"loss_changes":[2.3980492E1,1.3911762E1,4.0837517E0,6.1216087E0,1.0751104E1,5.259118E0,4.322138E0,3.985979E0,3.785306E0,3.932105E0,6.9540405E0,1.5775207E0,3.9193454E0,4.3571472E-2,3.3107471E0,6.8887234E0,1.1709187E1,4.7197857E0,3.0431843E0,5.8267913E0,2.4842203E0,1.1038389E1,9.102547E0,3.626778E-1,1.091961E0,2.0331683E0,1.9091978E0,0E0,0E0,5.4873486E0,5.6235657E0,0E0,0E0,0E0,0E0,0E0,0E0,0E0,0E0,0E0,0E0,0E0,0E0,0E0,0E0,0E0,0E0,0E0,0E0,0E0,0E0,0E0,0E0,0E0,0E0,0E0,0E0,0E0,0E0],"parents":[2147483647,0,0,1,1,2,2,3,3,4,4,5,5,6,6,7,7,8,8,9,9,10,10,11,11,12,12,13,13,14,14,15,15,16,16,17,17,18,18,19,19,20,20,21,21,22,22,23,23,24,24,25,25,26,26,29,29,30,30],"right_children":[2,4,6,8,10,12,14,16,18,20,22,24,26,28,30,32,34,36,38,40,42,44,46,48,50,52,54,-1,-1,56,58,-1,-1,-1,-1,-1,-1,-1,-1,-1,-1,-1,-1,-1,-1,-1,-1,-1,-1,-1,-1,-1,-1,-1,-1,-1,-1,-1,-1],"split_conditions":[8E0,9.7165994E-2,1.5E-1,1.3714285E-1,4.8E1,1.4285715E-1,3.448276E-2,6.5789476E-2,2.3255815E-1,3.243243E-1,1.3580246E-1,6.5789476E-2,1.7E1,1.5517241E-1,1.9148937E-1,1.4772727E-1,1.1320755E-1,1.6842106E-1,1.5E1,1.5053764E-1,1.1E1,4.368932E-1,6.8E1,1.8E1,2.0930232E-1,1.8518518E-1,2.7E1,-1.3609232E-2,-2.4160927E-2,6.1E1,9E0,1.5486752E-2,-5.5772066E-3,-1.5905816E-3,1.2398595E-2,3.4522664E-2,-2.0381312E-3,4.295373E-4,-1.19203795E-2,9.060348E-4,7.2846757E-3,6.2654256E-3,-7.881553E-3,9.626682E-3,3.2259583E-2,7.0838E-5,2.504214E-2,-2.2814682E-2,-6.0871006E-3,-1.246937E-2,1.4819919E-2,-2.0706106E-2,1.578635E-2,3.5E-2,3.7094501E-3,-3.936253E-3,3.018502E-2,-4.2920406E-3,-1.4094668E-2],"split_indices":[9,2,0,3,10,1,3,2,0,0,3,3,10,0,6,0,3,6,10,3,10,1,10,10,6,1,10,0,0,10,9,0,0,0,0,0,0,0,0,0,0,0,0,0,0,0,0,0,0,0,0,0,0,0,0,0,0,0,0],"split_type":[0,0,0,0,0,0,0,0,0,0,0,0,0,0,0,0,0,0,0,0,0,0,0,0,0,0,0,0,0,0,0,0,0,0,0,0,0,0,0,0,0,0,0,0,0,0,0,0,0,0,0,0,0,0,0,0,0,0,0],"sum_hessian":[5.4650195E3,4.464364E3,1.0006559E3,1.645537E3,2.818827E3,5.8092697E1,9.4256323E2,1.2123843E3,4.3315274E2,1.9794321E3,8.393947E2,3.0492939E1,2.7599756E1,4.181992E1,9.007433E2,4.6280664E2,7.4957764E2,1.0749712E2,3.256556E2,1.7930642E3,1.8636789E2,5.0160648E2,3.3778827E2,1.6985098E1,1.3507843E1,1.4481653E1,1.3118104E1,5.6692553E0,3.615066E1,3.1299106E2,5.8775226E2,4.178273E1,4.2102393E2,5.4441943E2,2.0515822E2,8.685099E0,9.881203E1,6.134774E1,2.6430786E2,1.299736E3,4.9332828E2,3.83903E1,1.4797758E2,4.4086362E2,6.0742867E1,2.9718466E2,4.0603584E1,1.1324753E1,5.660344E0,5.0541987E0,8.453644E0,5.021901E0,9.459752E0,7.9920654E0,5.1260386E0,3.017246E2,1.1266437E1,3.0696902E2,2.807832E2],"tree_param":{"num_deleted":"0","num_feature":"11","num_nodes":"59","size_leaf_vector":"1"}},{"base_weights":[9.106949E-3,4.1375E-2,-1.3312842E-1,-6.2294556E-3,1.1114725E-1,-1.6363604E-1,9.7844236E-2,2.4134366E-2,-8.914912E-2,1.5296496E-2,1.6681488E-1,-2.3166774E-2,-1.4756417E-1,2.9538088E-2,6.904341E-1,8.896402E-3,1.7504767E-1,-1.14505224E-1,1.4823838E-1,3.5E-2,4.9196766E-3,1.8363054E-1,-2.7311438E-1,-1.2622146E-1,-2.9086486E-1,1.0837177E-1,-2.6025847E-1,3.5E-2,-1.3022004E-4,1.535939E-4,1.504626E-2,-1.5486069E-2,1.246233E-2,-4.7070887E-3,-1.3571667E-2,1.3483712E-3,3.5E-2,-1.8506593E-3,7.38786E-3,1.1867554E-2,1.2770043E-3,3.0516537E-3,-1.7072724E-2,1.6725296E-2,-6.8177315E-3,-9.454175E-3,-2.0350952E-2,3.5E-2,1.9392048E-3,-2.2551006E-2,-4.2582983E-3],"categories":[],"categories_nodes":[],"categories_segments":[],"categories_sizes":[],"default_left":[0,0,0,0,0,0,0,0,0,0,0,0,0,0,0,0,0,0,0,0,0,0,0,0,0,0,0,0,0,0,0,0,0,0,0,0,0,0,0,0,0,0,0,0,0,0,0,0,0,0,0],"id":7,"left_children":[1,3,5,7,9,11,13,15,17,19,21,-1,23,25,27,29,31,33,35,-1,37,39,41,43,45,47,49,-1,-1,-1,-1,-1,-1,-1,-1,-1,-1,-1,-1,-1,-1,-1,-1,-1,-1,-1,-1,-1,-1,-1,-1],"loss_changes":[2.5096052E1,1.4803291E1,7.1407566E0,6.674485E0,9.642057E0,4.2354717E0,4.7800527E0,4.4610157E0,4.293826E0,6.0499425E0,8.508289E0,0E0,2.5614471E0,2.481442E0,3.0031462E0,2.9989307E0,6.476844E0,2.0277004E0,6.6175437E0,0E0,3.9526634E0,9.351635E0,9.912605E-1,3.5057793E0,1.2158728E0,3.6023912E0,7.384416E-1,0E0,0E0,0E0,0E0,0E0,0E0,0E0,0E0,0E0,0E0,0E0,0E0,0E0,0E0,0E0,0E0,0E0,0E0,0E0,0E0,0E0,0E0,0E0,0E0],"parents":[2147483647,0,0,1,1,2,2,3,3,4,4,5,5,6,6,7,7,8,8,9,9,10,10,12,12,13,13,14,14,15,15,16,16,17,17,18,18,20,20,21,21,22,22,23,23,24,24,25,25,26,26],"right_children":[2,4,6,8,10,12,14,16,18,20,22,-1,24,26,28,30,32,34,36,-1,38,40,42,44,46,48,50,-1,-1,-1,-1,-1,-1,-1,-1,-1,-1,-1,-1,-1,-1,-1,-1,-1,-1,-1,-1,-1,-1,-1,-1],"split_conditions":[8E0,1.24528304E-1,1.3402061E-1,1.3765182E-1,7.865169E-2,3.448276E-2,4.097561E-1,6.2E1,8E-1,6.896552E-2,1.9148937E-1,-2.3166774E-2,1.0655738E-1,3.4146342E-1,6E-1,1.3636364E-1,6.521739E-2,1.1494253E-1,1.4705883E-1,3.5E-2,4.9E1,5E0,4E-1,1.5151516E-1,9E0,6.2992126E-2,2.2222222E-1,3.5E-2,-1.3022004E-4,1.535939E-4,1.504626E-2,-1.5486069E-2,1.246233E-2,-4.7070887E-3,-1.3571667E-2,1.3483712E-3,3.5E-2,-1.8506593E-3,7.38786E-3,1.1867554E-2,1.2770043E-3,3.0516537E-3,-1.7072724E-2,1.6725296E-2,-6.8177315E-3,-9.454175E-3,-2.0350952E-2,3.5E-2,1.9392048E-3,-2.2551006E-2,-4.2582983E-3],"split_indices":[9,2,5,3,5,3,1,10,7,6,5,0,5,6,7,3,2,2,5,0,10,9,7,1,9,2,1,0,0,0,0,0,0,0,0,0,0,0,0,0,0,0,0,0,0,0,0,0,0,0,0],"split_type":[0,0,0,0,0,0,0,0,0,0,0,0,0,0,0,0,0,0,0,0,0,0,0,0,0,0,0,0,0,0,0,0,0,0,0,0,0,0,0,0,0,0,0,0,0,0,0,0,0,0,0],"sum_hessian":[5.465757E3,4.455642E3,1.0101146E3,2.6491091E3,1.8065328E3,8.925193E2,1.1759536E2,1.9395769E3,7.0953235E2,6.64186E2,1.1423469E3,4.4010326E1,8.48509E2,1.0638277E2,1.1212594E1,1.7626575E3,1.7691948E2,6.415265E2,6.800582E1,6.1763797E0,6.580096E2,1.1008511E3,4.1495846E1,7.401538E2,1.08355125E2,8.412436E1,2.2258404E1,5.1342125E0,6.0783815E0,1.7291794E3,3.3478024E1,2.3063421E1,1.5385605E2,5.692579E2,7.226866E1,6.1069363E1,6.9364533E0,5.092498E2,1.4875977E2,8.212737E2,2.795774E2,7.0639114E0,3.4431934E1,1.5239595E1,7.2491425E2,5.915114E1,4.9203987E1,7.6141696E0,7.651019E1,9.898348E0,1.2360055E1],"tree_param":{"num_deleted":"0","num_feature":"11","num_nodes":"51","size_leaf_vector":"1"}},{"base_weights":[4.30374E-3,5.373554E-2,-7.371888E-2,-1.6860723E-2,1.2996392E-1,-9.317452E-2,7.664256E-2,1.3350357E-2,-1.5329106E-1,5.303617E-1,1.1929512E-1,-1.08157344E-1,1.8925665E-1,-3.553761E-2,3.4788826E-1,-2.1600816E-2,1.7370558E-1,-3.9580756E-1,-1.235604E-1,-1.4486435E-2,6.7994237E-1,-4.0990904E-2,1.4508446E-1,-6.1288763E-2,-1.6170365E-1,-4.2740937E-2,5.26738E-1,2.473627E-1,-1.3123086E-1,7E-1,9.153853E-2,1.7414365E-2,-1.9311964E-3,2.419154E-3,2.1749934E-2,-2.230534E-2,-4.189652E-3,1.1250567E-2,-6.9866404E-3,3.5E-2,1.2284449E-2,1.0416805E-2,-5.025872E-3,3.1147048E-2,6.800213E-3,-3.96557E-3,4.603766E-3,-2.150388E-2,-7.4556665E-3,-7.3540085E-3,3.5E-2,3.5E-2,-7.941594E-3,2.9272813E-2,-1.5030043E-2,-2.0174682E-3,-1.3203124E-2,3.3845536E-3,3.5E-2,-1.3080959E-2,1.3988882E-2],"categories":[],"categories_nodes":[],"categories_segments":[],"categories_sizes":[],"default_left":[0,0,0,0,0,0,0,0,0,0,0,0,0,0,0,0,0,0,0,0,0,0,0,0,0,0,0,0,0,0,0,0,0,0,0,0,0,0,0,0,0,0,0,0,0,0,0,0,0,0,0,0,0,0,0,0,0,0,0,0,0],"id":8,"left_children":[1,3,5,7,9,11,13,15,17,19,21,23,25,27,29,31,33,35,37,-1,39,41,43,45,47,49,51,53,55,57,59,-1,-1,-1,-1,-1,-1,-1,-1,-1,-1,-1,-1,-1,-1,-1,-1,-1,-1,-1,-1,-1,-1,-1,-1,-1,-1,-1,-1,-1,-1],"loss_changes":[2.1529022E1,1.8391058E1,6.34052E0,7.317953E0,6.9557476E0,8.13414E0,7.576443E0,8.153396E0,2.2718444E0,5.3926992E0,6.627123E0,4.5612316E0,7.613679E0,4.817752E0,1.0308457E1,7.5364895E0,8.503687E0,5.071416E-1,1.6559558E0,0E0,2.6922398E0,3.327323E0,5.9030876E0,2.696401E0,2.806408E0,5.276511E0,1.25093775E1,8.517533E0,1.5917556E0,1.9874859E0,3.6333852E0,0E0,0E0,0E0,0E0,0E0,0E0,0E0,0E0,0E0,0E0,0E0,0E0,0E0,0E0,0E0,0E0,0E0,0E0,0E0,0E0,0E0,0E0,0E0,0E0,0E0,0E0,0E0,0E0,0E0,0E0],"parents":[2147483647,0,0,1,1,2,2,3,3,4,4,5,5,6,6,7,7,8,8,9,9,10,10,11,11,12,12,13,13,14,14,15,15,16,16,17,17,18,18,20,20,21,21,22,22,23,23,24,24,25,25,26,26,27,27,28,28,29,29,30,30],"right_children":[2,4,6,8,10,12,14,16,18,20,22,24,26,28,30,32,34,36,38,-1,40,42,44,46,48,50,52,54,56,58,60,-1,-1,-1,-1,-1,-1,-1,-1,-1,-1,-1,-1,-1,-1,-1,-1,-1,-1,-1,-1,-1,-1,-1,-1,-1,-1,-1,-1,-1,-1],"split_conditions":[6E0,1.1764706E-1,1.3402061E-1,2.9464287E-1,9.2E-2,6.1E1,1.2969284E-1,3.7142858E-1,1.2E1,5.6497175E-2,1.4503817E-1,8E0,8.82353E-2,2.020202E-1,3.2051283E-1,9E0,4E0,4.7325101E-1,3.984064E-2,-1.4486435E-2,2.4E-1,2E0,1.1827957E-1,3.1782946E-1,2.3809524E-2,2.8735632E-1,1.04166664E-1,4E-1,3.0697674E-1,1.5948276E-1,7E0,1.7414365E-2,-1.9311964E-3,2.419154E-3,2.1749934E-2,-2.230534E-2,-4.189652E-3,1.1250567E-2,-6.9866404E-3,3.5E-2,1.2284449E-2,1.0416805E-2,-5.025872E-3,3.1147048E-2,6.800213E-3,-3.96557E-3,4.603766E-3,-2.150388E-2,-7.4556665E-3,-7.3540085E-3,3.5E-2,3.5E-2,-7.941594E-3,2.9272813E-2,-1.5030043E-2,-2.0174682E-3,-1.3203124E-2,3.3845536E-3,3.5E-2,-1.3080959E-2,1.3988882E-2],"split_indices":[9,2,5,0,6,10,2,1,10,5,6,9,5,6,1,10,9,1,6,0,2,9,2,6,5,0,5,7,6,6,9,0,0,0,0,0,0,0,0,0,0,0,0,0,0,0,0,0,0,0,0,0,0,0,0,0,0,0,0,0,0],"split_type":[0,0,0,0,0,0,0,0,0,0,0,0,0,0,0,0,0,0,0,0,0,0,0,0,0,0,0,0,0,0,0,0,0,0,0,0,0,0,0,0,0,0,0,0,0,0,0,0,0,0,0,0,0,0,0,0,0,0,0,0,0],"sum_hessian":[5.5800693E3,3.4160913E3,2.1639783E3,1.7739696E3,1.6421216E3,1.9163918E3,2.4758629E2,1.4530983E3,3.2087137E2,4.135524E1,1.6007664E3,1.8204358E3,9.595613E1,1.7576389E2,7.1822395E1,1.1937687E3,2.5932965E2,3.3696007E1,2.8717535E2,6.234893E0,3.5120346E1,2.2177838E2,1.378988E3,9.7189215E2,8.4854364E2,5.7382534E1,3.8573597E1,4.402544E1,1.3173845E2,1.9268051E1,5.2554344E1,5.1666622E1,1.142102E3,1.7606822E2,8.326141E1,2.8647964E1,5.048043E0,1.2160518E1,2.7501483E2,2.063202E1,1.4488324E1,4.226239E1,1.7951599E2,2.4454147E1,1.3545338E3,8.7012225E2,1.0176988E2,3.653829E1,8.120054E2,5.1922215E1,5.4603224E0,2.03389E1,1.8234697E1,2.7184301E1,1.6841137E1,7.899498E1,5.2743473E1,5.196583E0,1.4071467E1,1.8137163E1,3.441718E1],"tree_param":{"num_deleted":"0","num_feature":"11","num_nodes":"61","size_leaf_vector":"1"}},{"base_weights":[-9.819462E-3,-1.13837615E-1,3.9635956E-2,-9.198221E-2,-2.4185842E-1,8.5680366E-2,-5.952465E-2,-2.3065616E-1,-6.344253E-2,-1.9383372E-1,-3.4942043E-1,2.0979626E-2,1.3370322E-1,-1.0594642E-1,3.5376634E-2,-2.788284E-1,-9.228762E-2,-4.1508295E-2,-1.959458E-1,-2.7762845E-1,-6.918153E-2,-4.2535725E-1,-2.1365282E-1,1.1359625E-1,-1.3556059E-1,1.4614668E-1,-2.1231098E-1,3.358263E-1,-1.1924904E-1,9.81184E-2,-8.152872E-2,8.110664E-3,-1.5061493E-2,2.645838E-2,-8.776741E-3,-2.3961286E-3,3.5E-2,-1.6576922E-2,-6.982261E-3,-1.7641021E-2,2.0473138E-3,9.661488E-3,-1.137162E-2,-1.5057062E-2,-2.2823984E-2,4.5092474E-3,-1.8574877E-2,1.7858505E-2,4.1532265E-3,-7.4894847E-3,2.0755967E-2,1.286228E-3,8.836742E-3,-3.4771473E-3,-1.6628405E-2,3.101305E-4,3.5E-2,-7.2618686E-3,5.6854086E-3,1.3881861E-2,-2.0292078E-3,-1.2873597E-2,7.378494E-3],"categories":[],"categories_nodes":[],"categories_segments":[],"categories_sizes":[],"default_left":[0,0,0,0,0,0,0,0,0,0,0,0,0,0,0,0,0,0,0,0,0,0,0,0,0,0,0,0,0,0,0,0,0,0,0,0,0,0,0,0,0,0,0,0,0,0,0,0,0,0,0,0,0,0,0,0,0,0,0,0,0,0,0],"id":9,"left_children":[1,3,5,7,9,11,13,15,17,19,21,23,25,27,29,31,33,35,37,39,41,43,45,47,49,51,53,55,57,59,61,-1,-1,-1,-1,-1,-1,-1,-1,-1,-1,-1,-1,-1,-1,-1,-1,-1,-1,-1,-1,-1,-1,-1,-1,-1,-1,-1,-1,-1,-1,-1,-1],"loss_changes":[2.821641E1,4.9230537E0,1.6979237E1,5.9668484E0,1.2604809E0,7.886812E0,5.1998515E0,1.6911345E0,3.6386924E0,1.8609753E0,7.1452427E-1,1.5716246E1,6.3054523E0,4.696085E0,2.855235E0,1.9316301E0,3.6113827E0,5.9589977E0,1.3121061E0,2.5850124E0,3.1041749E0,5.231285E-2,1.473738E0,5.034293E0,3.220036E0,5.1791134E0,8.523996E-1,3.5807588E0,4.6773834E0,6.3124266E0,5.524678E0,0E0,0E0,0E0,0E0,0E0,0E0,0E0,0E0,0E0,0E0,0E0,0E0,0E0,0E0,0E0,0E0,0E0,0E0,0E0,0E0,0E0,0E0,0E0,0E0,0E0,0E0,0E0,0E0,0E0,0E0,0E0,0E0],"parents":[2147483647,0,0,1,1,2,2,3,3,4,4,5,5,6,6,7,7,8,8,9,9,10,10,11,11,12,12,13,13,14,14,15,15,16,16,17,17,18,18,19,19,20,20,21,21,22,22,23,23,24,24,25,25,26,26,27,27,28,28,29,29,30,30],"right_children":[2,4,6,8,10,12,14,16,18,20,22,24,26,28,30,32,34,36,38,40,42,44,46,48,50,52,54,56,58,60,62,-1,-1,-1,-1,-1,-1,-1,-1,-1,-1,-1,-1,-1,-1,-1,-1,-1,-1,-1,-1,-1,-1,-1,-1,-1,-1,-1,-1,-1,-1,-1,-1],"split_conditions":[2.7272728E-1,9E0,6E0,7.1428575E-2,8.77193E-2,2.9411765E-2,9.411765E-2,6.741573E-2,1.5116279E-1,7.936508E-2,1.6393442E-2,1.255814E-1,1.9931272E-1,6.944445E-2,8E0,2.0618556E-2,7.1794875E-2,2.173913E-1,2E-1,1.3664596E-1,9.580839E-2,1E-1,2E-1,4.6728972E-2,2.1212122E-1,2E0,1.3725491E-1,9.661836E-3,5.0632913E-2,3.292683E-1,1.3636364E-1,8.110664E-3,-1.5061493E-2,2.645838E-2,-8.776741E-3,-2.3961286E-3,3.5E-2,-1.6576922E-2,-6.982261E-3,-1.7641021E-2,2.0473138E-3,9.661488E-3,-1.137162E-2,-1.5057062E-2,-2.2823984E-2,4.5092474E-3,-1.8574877E-2,1.7858505E-2,4.1532265E-3,-7.4894847E-3,2.0755967E-2,1.286228E-3,8.836742E-3,-3.4771473E-3,-1.6628405E-2,3.101305E-4,3.5E-2,-7.2618686E-3,5.6854086E-3,1.3881861E-2,-2.0292078E-3,-1.2873597E-2,7.378494E-3],"split_indices":[8,9,9,8,5,4,5,2,3,2,4,3,5,2,9,3,2,5,7,3,2,8,7,5,5,9,2,4,4,1,5,0,0,0,0,0,0,0,0,0,0,0,0,0,0,0,0,0,0,0,0,0,0,0,0,0,0,0,0,0,0,0,0],"split_type":[0,0,0,0,0,0,0,0,0,0,0,0,0,0,0,0,0,0,0,0,0,0,0,0,0,0,0,0,0,0,0,0,0,0,0,0,0,0,0,0,0,0,0,0,0,0,0,0,0,0,0,0,0,0,0,0,0,0,0,0,0,0,0],"sum_hessian":[5.4831494E3,1.766474E3,3.7166753E3,1.5103492E3,2.5612473E2,2.538213E3,1.1784623E3,2.5657455E2,1.2537747E3,1.790043E2,7.712044E1,1.0819493E3,1.4562637E3,7.912831E2,3.8717923E2,1.8956383E2,6.701074E1,1.076832E3,1.7694263E2,1.06311485E2,7.269281E1,4.8090008E1,2.9030434E1,6.799393E2,4.0201004E2,1.4062687E3,4.9995056E1,2.2421808E1,7.6886127E2,2.5206145E2,1.3511778E2,8.861262E0,1.8070256E2,7.283267E0,5.9727474E1,1.0699528E3,6.879304E0,5.0479828E1,1.2646281E2,8.5923744E1,2.038774E1,2.7263496E1,4.5429314E1,1.1773912E1,3.6316093E1,1.007177E1,1.8958664E1,7.454457E1,6.053947E2,3.9259375E2,9.416296E0,2.8522202E2,1.1210466E3,2.357973E1,2.6415327E1,1.3910035E1,8.511773E0,6.9203546E2,7.682581E1,1.09428955E2,1.4263249E2,7.635488E1,5.8762905E1],"tree_param":{"num_deleted":"0","num_feature":"11","num_nodes":"63","size_leaf_vector":"1"}},{"base_weights":[-7.3148985E-4,5.405795E-2,-8.67696E-2,-1.2000538E-1,8.428302E-2,-1.0227754E-1,2.416337E-1,-8.7258995E-2,-2.96571E-1,5.8778543E-2,2.2399326E-1,-1.13796026E-1,1.1375338E-1,6.219332E-1,4.7668032E-2,-1.5870008E-1,2.315768E-2,-9.612516E-2,-3.779548E-1,1.06504E-3,1.03233285E-1,-1.6042541E-1,2.5560525E-1,-6.606409E-2,-1.5199776E-1,-1.4622964E-1,4.3816623E-1,-8.226476E-3,7E-1,-1.6221762E-1,3.5E-2,1.1154216E-3,-1.1564644E-2,1.6533954E-2,-3.0116239E-3,8.7929405E-3,-1.8634178E-2,-2.1702288E-2,-1.0638262E-2,4.966155E-3,-3.5267768E-3,5.834471E-3,-1.0870719E-2,3.413054E-3,-2.3156842E-2,1.9338405E-2,8.320846E-3,-1.5834318E-2,-2.013705E-3,-1.0579875E-2,-5.533516E-3,7.3904204E-3,-1.6051462E-2,2.6838547E-3,3.5E-2,3.5E-2,2.8136987E-3,5.8629643E-3,-1.7954184E-2],"categories":[],"categories_nodes":[],"categories_segments":[],"categories_sizes":[],"default_left":[0,0,0,0,0,0,0,0,0,0,0,0,0,0,0,0,0,0,0,0,0,0,0,0,0,0,0,0,0,0,0,0,0,0,0,0,0,0,0,0,0,0,0,0,0,0,0,0,0,0,0,0,0,0,0,0,0,0,0],"id":10,"left_children":[1,3,5,7,9,11,13,15,17,19,21,23,25,27,29,31,33,35,37,39,41,43,45,47,49,51,53,-1,55,57,-1,-1,-1,-1,-1,-1,-1,-1,-1,-1,-1,-1,-1,-1,-1,-1,-1,-1,-1,-1,-1,-1,-1,-1,-1,-1,-1,-1,-1],"loss_changes":[2.5943947E1,1.7700085E1,1.0929527E1,2.8528824E0,1.0197405E1,5.102478E0,7.1145053E0,3.327924E0,1.2275624E0,6.220356E0,5.4123116E0,3.5316582E0,8.838575E0,7.181467E0,1.2880716E1,3.3688984E0,4.2876825E0,1.8493074E0,4.150653E-1,7.4360037E0,5.9346457E0,2.3991265E0,4.7178764E0,5.57965E0,2.6320343E0,3.0543313E0,7.3249817E0,0E0,2.8803177E0,3.0856814E0,0E0,0E0,0E0,0E0,0E0,0E0,0E0,0E0,0E0,0E0,0E0,0E0,0E0,0E0,0E0,0E0,0E0,0E0,0E0,0E0,0E0,0E0,0E0,0E0,0E0,0E0,0E0,0E0,0E0],"parents":[2147483647,0,0,1,1,2,2,3,3,4,4,5,5,6,6,7,7,8,8,9,9,10,10,11,11,12,12,13,13,14,14,15,15,16,16,17,17,18,18,19,19,20,20,21,21,22,22,23,23,24,24,25,25,26,26,28,28,29,29],"right_children":[2,4,6,8,10,12,14,16,18,20,22,24,26,28,30,32,34,36,38,40,42,44,46,48,50,52,54,-1,56,58,-1,-1,-1,-1,-1,-1,-1,-1,-1,-1,-1,-1,-1,-1,-1,-1,-1,-1,-1,-1,-1,-1,-1,-1,-1,-1,-1,-1,-1],"split_conditions":[6E0,2.5E-1,1.5686275E-1,2.962963E-1,6.0913704E-2,6.1E1,1.9753087E-1,1.1976048E-2,1.5E1,3E0,1.2345679E-1,9.7345136E-2,2.7272728E-1,1.4E1,3.3707865E-2,8.82353E-2,1.754386E-2,1.8181819E-1,5E0,1.2222222E-1,1.6049382E-1,1.0891089E-1,7.2E-2,3.773585E-2,6.818182E-2,1.0674157E-1,8.3333336E-2,-8.226476E-3,5.833333E-1,1.0674157E-1,3.5E-2,1.1154216E-3,-1.1564644E-2,1.6533954E-2,-3.0116239E-3,8.7929405E-3,-1.8634178E-2,-2.1702288E-2,-1.0638262E-2,4.966155E-3,-3.5267768E-3,5.834471E-3,-1.0870719E-2,3.413054E-3,-2.3156842E-2,1.9338405E-2,8.320846E-3,-1.5834318E-2,-2.013705E-3,-1.0579875E-2,-5.533516E-3,7.3904204E-3,-1.6051462E-2,2.6838547E-3,3.5E-2,3.5E-2,2.8136987E-3,5.8629643E-3,-1.7954184E-2],"split_indices":[9,8,5,6,4,10,6,4,10,9,3,3,8,10,4,3,4,8,9,3,5,3,4,3,5,3,5,0,8,3,0,0,0,0,0,0,0,0,0,0,0,0,0,0,0,0,0,0,0,0,0,0,0,0,0,0,0,0,0],"split_type":[0,0,0,0,0,0,0,0,0,0,0,0,0,0,0,0,0,0,0,0,0,0,0,0,0,0,0,0,0,0,0,0,0,0,0,0,0,0,0,0,0,0,0,0,0,0,0,0,0,0,0,0,0,0,0,0,0,0,0],"sum_hessian":[5.501623E3,3.3614248E3,2.140198E3,4.968932E2,2.8645317E3,2.0443479E3,9.58501E1,4.2041583E2,7.647738E1,2.4235305E3,4.410012E2,1.941313E3,1.03035E2,3.1629398E1,6.42207E1,2.5499397E2,1.6542184E2,2.2714184E1,5.376319E1,1.0549554E3,1.3685751E3,3.3199753E1,4.0780145E2,8.6422235E2,1.0770906E3,5.7502224E1,4.5532776E1,9.530114E0,2.2099283E1,5.43181E1,9.902603E0,7.318973E1,1.8180426E2,3.465557E1,1.3076627E2,1.1635378E1,1.1078806E1,3.892011E1,1.4843084E1,4.4453253E2,6.104229E2,1.3140658E3,5.4509308E1,1.9353472E1,1.384628E1,1.6370938E2,2.4409207E2,7.958182E1,7.8464056E2,4.3935773E2,6.3773285E2,2.1496473E1,3.6005753E1,2.5344858E1,2.0187918E1,1.4965957E1,7.133327E0,2.261605E1,3.170205E1],"tree_param":{"num_deleted":"0","num_feature":"11","num_nodes":"59","size_leaf_vector":"1"}},{"base_weights":[1.157879E-3,3.1747937E-2,-1.3758165E-1,-8.219428E-2,5.7717323E-2,-1.6283342E-1,6.643406E-2,-1.8480556E-1,-5.14537E-2,4.234545E-2,1.774423E-1,-1.3512284E-1,-3.2379842E-1,-9.657533E-2,4.5030874E-1,7.426852E-2,-2.319857E-1,2.4648926E-1,-7.281273E-2,2.6653884E-2,1.535672E-1,3.822591E-1,1.200576E-1,-2.0063853E-1,-6.619652E-2,4.3068132E-3,-3.5917073E-1,4.9140012E-1,-2.1666816E-1,7E-1,-1.3095148E-1,-1.49306655E-2,2.698929E-2,3.9869933E-3,-1.3657319E-2,3.5E-2,-2.147857E-3,-5.7539768E-3,1.1094029E-3,2.5835338E-3,-3.6911857E-3,-6.073242E-3,1.04184225E-2,3.2382067E-2,5.671765E-3,-4.5366893E-3,9.909356E-3,-1.1602406E-2,3.4071077E-3,3.041332E-2,-5.151604E-3,-2.1987552E-2,-1.34927975E-2,-4.213185E-3,3.5E-2,-2.2818824E-2,-7.930812E-3,9.464393E-3,3.5E-2,-2.0748261E-2,6.336637E-3],"categories":[],"categories_nodes":[],"categories_segments":[],"categories_sizes":[],"default_left":[0,0,0,0,0,0,0,0,0,0,0,0,0,0,0,0,0,0,0,0,0,0,0,0,0,0,0,0,0,0,0,0,0,0,0,0,0,0,0,0,0,0,0,0,0,0,0,0,0,0,0,0,0,0,0,0,0,0,0,0,0],"id":11,"left_children":[1,3,5,7,9,11,13,15,17,19,21,23,25,27,29,31,33,35,37,39,41,43,45,47,49,-1,51,53,55,57,59,-1,-1,-1,-1,-1,-1,-1,-1,-1,-1,-1,-1,-1,-1,-1,-1,-1,-1,-1,-1,-1,-1,-1,-1,-1,-1,-1,-1,-1,-1],"loss_changes":[2.352493E1,1.3443484E1,5.169651E0,2.6508484E0,6.8005514E0,3.9321404E0,6.9894924E0,2.3889642E0,4.1567016E0,5.7196693E0,4.8975782E0,3.428502E0,1.9188604E0,5.6663947E0,5.9277596E0,5.4814787E0,2.1309977E0,6.9383864E0,2.4424155E0,7.231376E0,6.133793E0,6.4609184E0,5.45288E0,3.3105154E0,9.327345E0,0E0,7.453308E-1,4.131505E0,8.471329E-1,1.980547E0,9.526337E-1,0E0,0E0,0E0,0E0,0E0,0E0,0E0,0E0,0E0,0E0,0E0,0E0,0E0,0E0,0E0,0E0,0E0,0E0,0E0,0E0,0E0,0E0,0E0,0E0,0E0,0E0,0E0,0E0,0E0,0E0],"parents":[2147483647,0,0,1,1,2,2,3,3,4,4,5,5,6,6,7,7,8,8,9,9,10,10,11,11,12,12,13,13,14,14,15,15,16,16,17,17,18,18,19,19,20,20,21,21,22,22,23,23,24,24,26,26,27,27,28,28,29,29,30,30],"right_children":[2,4,6,8,10,12,14,16,18,20,22,24,26,28,30,32,34,36,38,40,42,44,46,48,50,-1,52,54,56,58,60,-1,-1,-1,-1,-1,-1,-1,-1,-1,-1,-1,-1,-1,-1,-1,-1,-1,-1,-1,-1,-1,-1,-1,-1,-1,-1,-1,-1,-1,-1],"split_conditions":[8E0,2.5E-1,1.3636364E-1,7.1428575E-2,6.1E1,1.0357143E-1,3.1707317E-1,1.4893617E-1,1.5E-1,4.8295453E-1,3.448276E-1,6.774194E-2,7.692308E-2,1.5E-1,1.6216215E-1,7.8431375E-2,1.1E1,1.6666667E-1,3.490566E-1,2.8735632E-1,4.6666667E-1,1.01123594E-1,3.7719297E-1,5.555556E-1,6.896552E-2,4.3068132E-3,1.2087912E-1,1.5E1,1.7197452E-1,1.4563107E-1,3.7878788E-1,-1.49306655E-2,2.698929E-2,3.9869933E-3,-1.3657319E-2,3.5E-2,-2.147857E-3,-5.7539768E-3,1.1094029E-3,2.5835338E-3,-3.6911857E-3,-6.073242E-3,1.04184225E-2,3.2382067E-2,5.671765E-3,-4.5366893E-3,9.909356E-3,-1.1602406E-2,3.4071077E-3,3.041332E-2,-5.151604E-3,-2.1987552E-2,-1.34927975E-2,-4.213185E-3,3.5E-2,-2.2818824E-2,-7.930812E-3,9.464393E-3,3.5E-2,-2.0748261E-2,6.336637E-3],"split_indices":[9,8,5,8,10,5,1,6,0,1,1,5,8,0,5,5,10,8,1,0,8,5,1,8,5,0,5,10,0,5,1,0,0,0,0,0,0,0,0,0,0,0,0,0,0,0,0,0,0,0,0,0,0,0,0,0,0,0,0,0,0],"split_type":[0,0,0,0,0,0,0,0,0,0,0,0,0,0,0,0,0,0,0,0,0,0,0,0,0,0,0,0,0,0,0,0,0,0,0,0,0,0,0,0,0,0,0,0,0,0,0,0,0,0,0,0,0,0,0,0,0,0,0,0,0],"sum_hessian":[5.541008E3,4.540635E3,1.00037305E3,8.423981E2,3.6982366E3,8.903705E2,1.1000255E2,1.9303629E2,6.4936176E2,3.2786357E3,4.1960086E2,7.6117206E2,1.2919846E2,7.77395E1,3.226305E1,2.9649853E1,1.6338643E2,4.27326E1,6.0662915E2,2.8743516E3,4.0428427E2,9.0593666E1,3.2900717E2,3.8926132E2,3.719107E2,1.0148695E1,1.1904976E2,1.2660713E1,6.507879E1,2.0964994E1,1.1298057E1,1.666202E1,1.2987832E1,1.8948088E1,1.4443834E2,1.3980074E1,2.875253E1,4.196924E2,1.8693677E2,2.3017502E3,5.7260126E2,6.6969055E1,3.3731522E2,4.4879536E1,4.5714134E1,8.892596E1,2.4008122E2,3.486544E2,4.0606945E1,1.8456533E1,3.5345416E2,6.0522465E1,5.8527294E1,7.480238E0,5.180475E0,1.1350151E1,5.3728634E1,8.4719925E0,1.2493003E1,5.084106E0,6.21395E0],"tree_param":{"num_deleted":"0","num_feature":"11","num_nodes":"61","size_leaf_vector":"1"}},{"base_weights":[-6.736409E-3,-3.560136E-2,1.3641416E-1,-8.8549275E-3,-1.4634618E-1,4.1818146E-2,1.9719712E-1,-6.1089616E-2,2.7863814E-2,-4.0236312E-1,-1.3172278E-1,3.9813992E-1,8.845243E-3,6.536162E-1,1.6722599E-1,-4.6544716E-2,-2.9795936E-1,5.6462273E-2,-5.173065E-2,-4.236641E-3,-4.5938763E-1,-2.30573E-1,-9.8408125E-2,7E-1,5.968379E-3,1.323759E-1,-9.1998555E-2,2.5768718E-1,7E-1,-3.2206738E-1,1.9187157E-1,7.759921E-3,-2.8513935E-3,-1.665645E-2,9.663668E-3,1.8116623E-3,9.407374E-3,-6.1387364E-3,3.3551683E-3,-1.261077E-2,-2.4122061E-2,8.318425E-3,-1.5021296E-2,-7.896786E-4,-7.1205585E-3,3.5E-2,1.8356273E-2,-9.832018E-3,1.4595422E-2,-1.8376136E-3,1.4391892E-2,4.906499E-3,-9.086472E-3,2.8145572E-2,-3.566961E-3,3.5E-2,5.9365416E-3,1.556536E-5,-2.3427783E-2,1.0905984E-2,-6.303628E-3],"categories":[],"categories_nodes":[],"categories_segments":[],"categories_sizes":[],"default_left":[0,0,0,0,0,0,0,0,0,0,0,0,0,0,0,0,0,0,0,0,0,0,0,0,0,0,0,0,0,0,0,0,0,0,0,0,0,0,0,0,0,0,0,0,0,0,0,0,0,0,0,0,0,0,0,0,0,0,0,0,0],"id":12,"left_children":[1,3,5,7,9,11,13,15,17,19,21,23,25,27,29,31,33,35,37,-1,39,41,43,45,47,49,51,53,55,57,59,-1,-1,-1,-1,-1,-1,-1,-1,-1,-1,-1,-1,-1,-1,-1,-1,-1,-1,-1,-1,-1,-1,-1,-1,-1,-1,-1,-1,-1,-1],"loss_changes":[2.2775982E1,1.3585296E1,5.310091E0,7.0899925E0,3.2873898E0,4.262577E0,7.590166E0,5.243025E0,4.9443655E0,8.2547235E-1,2.7617235E0,5.8118663E0,4.165098E0,2.418065E0,6.4471493E0,3.0516717E0,1.586237E0,4.248719E0,4.8570538E0,0E0,7.047653E-2,5.9388494E0,2.3030038E0,2.1515656E-1,1.1521591E0,3.9608989E0,3.1591644E0,1.5708592E0,1.9791031E0,1.2169256E0,4.239832E0,0E0,0E0,0E0,0E0,0E0,0E0,0E0,0E0,0E0,0E0,0E0,0E0,0E0,0E0,0E0,0E0,0E0,0E0,0E0,0E0,0E0,0E0,0E0,0E0,0E0,0E0,0E0,0E0,0E0,0E0],"parents":[2147483647,0,0,1,1,2,2,3,3,4,4,5,5,6,6,7,7,8,8,9,9,10,10,11,11,12,12,13,13,14,14,15,15,16,16,17,17,18,18,20,20,21,21,22,22,23,23,24,24,25,25,26,26,27,27,28,28,29,29,30,30],"right_children":[2,4,6,8,10,12,14,16,18,20,22,24,26,28,30,32,34,36,38,-1,40,42,44,46,48,50,52,54,56,58,60,-1,-1,-1,-1,-1,-1,-1,-1,-1,-1,-1,-1,-1,-1,-1,-1,-1,-1,-1,-1,-1,-1,-1,-1,-1,-1,-1,-1,-1,-1],"split_conditions":[4.9586777E-2,8E0,2.6E1,1.8867925E-2,3.448276E-2,9.876543E-2,3.8311687E-1,1.5878378E-1,1.3934426E-1,1.2E1,5.7692308E-2,1.5126051E-1,4E0,3E0,3.968254E-1,9E0,2.2033899E-1,6.1E1,3.6585364E-2,-4.236641E-3,1.21212125E-1,6.918239E-2,7.6271184E-2,2.2E1,4.3209878E-1,1.6E1,1.2E1,3.7254903E-1,1.8055555E-1,4E-1,1.7006803E-1,7.759921E-3,-2.8513935E-3,-1.665645E-2,9.663668E-3,1.8116623E-3,9.407374E-3,-6.1387364E-3,3.3551683E-3,-1.261077E-2,-2.4122061E-2,8.318425E-3,-1.5021296E-2,-7.896786E-4,-7.1205585E-3,3.5E-2,1.8356273E-2,-9.832018E-3,1.4595422E-2,-1.8376136E-3,1.4391892E-2,4.906499E-3,-9.086472E-3,2.8145572E-2,-3.566961E-3,3.5E-2,5.9365416E-3,1.556536E-5,-2.3427783E-2,1.0905984E-2,-6.303628E-3],"split_indices":[4,9,10,4,3,3,1,3,3,10,5,2,9,9,1,10,3,10,4,0,1,3,5,10,1,10,10,1,2,7,5,0,0,0,0,0,0,0,0,0,0,0,0,0,0,0,0,0,0,0,0,0,0,0,0,0,0,0,0,0,0],"split_type":[0,0,0,0,0,0,0,0,0,0,0,0,0,0,0,0,0,0,0,0,0,0,0,0,0,0,0,0,0,0,0,0,0,0,0,0,0,0,0,0,0,0,0,0,0,0,0,0,0,0,0,0,0,0,0,0,0,0,0,0,0],"sum_hessian":[5.509876E3,4.5859204E3,9.239559E2,3.6946824E3,8.912378E2,3.6210425E2,5.618516E2,1.5248396E3,2.1698428E3,4.672321E1,8.445146E2,2.9731876E1,3.3237238E2,3.333884E1,5.285128E2,1.4377515E3,8.708811E1,1.5965055E3,5.733372E2,7.489897E0,3.9233315E1,2.1138335E2,6.331312E2,1.1835218E1,1.7896658E1,1.4924231E2,1.8313007E2,1.4241952E1,1.9096888E1,2.476575E1,5.0374707E2,7.033745E1,1.3674141E3,8.156999E1,5.518125E0,1.3850189E3,2.1148666E2,3.5879877E2,2.1453845E2,5.124262E0,3.410905E1,3.1425465E1,1.7995789E2,2.2050253E2,4.126287E2,6.4712996E0,5.3639193E0,1.0657423E1,7.239235E0,7.18451E1,7.739721E1,5.8686687E1,1.24443375E2,7.0194535E0,7.2224984E0,1.2789124E1,6.3077645E0,8.049337E0,1.6716413E1,4.656213E2,3.8125736E1],"tree_param":{"num_deleted":"0","num_feature":"11","num_nodes":"61","size_leaf_vector":"1"}},{"base_weights":[1.803101E-3,4.823229E-2,-7.2221674E-2,-9.3059815E-2,7.290691E-2,-9.008345E-2,1.036421E-1,-1.08840555E-1,6.070536E-1,4.9350556E-2,2.0913489E-1,-6.387717E-2,-1.8506998E-1,-1.8600349E-1,1.9205245E-1,1.0192991E-1,-1.371223E-1,1.1277147E-2,3.5E-2,8.81387E-2,-1.6331622E-2,3.7448126E-1,1.0613088E-1,-1.348543E-1,-3.8581006E-2,-2.7175326E-2,-2.4789234E-1,-3.267358E-1,2.023823E-2,2.5119168E-1,-3.373188E-1,3.3934742E-2,-3.08098E-3,1.0131101E-2,-7.92839E-3,5.5349446E-3,-2.3418458E-3,-2.4701117E-3,8.869014E-3,2.4958297E-3,2.1964423E-2,1.549594E-2,1.8886315E-3,-3.9996062E-3,-1.8066866E-2,-1.7239187E-2,-1.5130201E-3,-2.2935374E-2,1.2670186E-3,1.1972359E-2,-1.3933942E-2,-7.4840398E-3,-1.8835738E-2,2.9099463E-2,7.4545904E-3,-2.1992195E-2,-9.0755485E-3],"categories":[],"categories_nodes":[],"categories_segments":[],"categories_sizes":[],"default_left":[0,0,0,0,0,0,0,0,0,0,0,0,0,0,0,0,0,0,0,0,0,0,0,0,0,0,0,0,0,0,0,0,0,0,0,0,0,0,0,0,0,0,0,0,0,0,0,0,0,0,0,0,0,0,0,0,0],"id":13,"left_children":[1,3,5,7,9,11,13,15,17,19,21,23,25,27,29,31,33,-1,-1,35,37,39,41,43,45,47,49,51,-1,53,55,-1,-1,-1,-1,-1,-1,-1,-1,-1,-1,-1,-1,-1,-1,-1,-1,-1,-1,-1,-1,-1,-1,-1,-1,-1,-1],"loss_changes":[1.9046894E1,1.1880246E1,6.7194376E0,5.6650753E0,9.295705E0,4.816594E0,5.0911756E0,2.9733047E0,8.1390333E-1,6.30373E0,7.236355E0,2.7271175E0,4.1485567E0,4.012865E0,4.835319E0,5.636298E0,3.2244415E0,0E0,0E0,4.741583E0,5.8979464E0,3.4190216E0,3.6747394E0,4.9345107E0,2.8516138E0,2.7391698E0,4.561054E0,2.8208017E-1,0E0,4.54263E0,1.705674E-1,0E0,0E0,0E0,0E0,0E0,0E0,0E0,0E0,0E0,0E0,0E0,0E0,0E0,0E0,0E0,0E0,0E0,0E0,0E0,0E0,0E0,0E0,0E0,0E0,0E0,0E0],"parents":[2147483647,0,0,1,1,2,2,3,3,4,4,5,5,6,6,7,7,8,8,9,9,10,10,11,11,12,12,13,13,14,14,15,15,16,16,19,19,20,20,21,21,22,22,23,23,24,24,25,25,26,26,27,27,29,29,30,30],"right_children":[2,4,6,8,10,12,14,16,18,20,22,24,26,28,30,32,34,-1,-1,36,38,40,42,44,46,48,50,52,-1,54,56,-1,-1,-1,-1,-1,-1,-1,-1,-1,-1,-1,-1,-1,-1,-1,-1,-1,-1,-1,-1,-1,-1,-1,-1,-1,-1],"split_conditions":[6E0,2.5E-1,1.4E-1,1.3654618E-1,6.2176164E-2,9E0,8.235294E-2,3.076923E-2,2.5114155E-1,1.3274336E-1,7.2E-2,5.952381E-2,1.7460318E-1,1.8181819E-1,2E-1,1.4893617E-1,1.4772727E-1,1.1277147E-2,3.5E-2,6.923077E-1,1.7021276E-1,7.8947365E-2,8.571429E-2,1.3765182E-1,3.448276E-2,3.3898305E-2,1.5517241E-1,4.5454547E-2,2.023823E-2,1.8965517E-1,2.173913E-1,3.3934742E-2,-3.08098E-3,1.0131101E-2,-7.92839E-3,5.5349446E-3,-2.3418458E-3,-2.4701117E-3,8.869014E-3,2.4958297E-3,2.1964423E-2,1.549594E-2,1.8886315E-3,-3.9996062E-3,-1.8066866E-2,-1.7239187E-2,-1.5130201E-3,-2.2935374E-2,1.2670186E-3,1.1972359E-2,-1.3933942E-2,-7.4840398E-3,-1.8835738E-2,2.9099463E-2,7.4545904E-3,-2.1992195E-2,-9.0755485E-3],"split_indices":[9,8,5,2,4,9,3,2,0,3,4,5,6,5,2,6,0,0,0,8,2,5,5,3,3,5,0,3,0,6,2,0,0,0,0,0,0,0,0,0,0,0,0,0,0,0,0,0,0,0,0,0,0,0,0,0,0],"split_type":[0,0,0,0,0,0,0,0,0,0,0,0,0,0,0,0,0,0,0,0,0,0,0,0,0,0,0,0,0,0,0,0,0,0,0,0,0,0,0,0,0,0,0,0,0,0,0,0,0,0,0,0,0,0,0,0,0],"sum_hessian":[5.5398525E3,3.4047207E3,2.1351316E3,5.0577487E2,2.8989458E3,1.9387122E3,1.9641948E2,4.954518E2,1.0323074E1,2.4727275E3,4.262183E2,1.5208031E3,4.1790903E2,4.567558E1,1.5074391E2,5.830774E1,4.3714407E2,5.2268515E0,5.0962234E0,1.5544288E3,9.182987E2,1.6258864E2,2.6362967E2,3.9845868E2,1.1223445E3,1.1935659E2,2.9855243E2,3.7249065E1,8.426512E0,1.3606839E2,1.4675521E1,1.2185439E1,4.61223E1,2.545365E1,4.1169043E2,1.3319781E3,2.2245068E2,7.850239E2,1.3327478E2,2.7355959E1,1.3523267E2,6.533145E1,1.9829822E2,3.2184875E2,7.660993E1,2.8621466E1,1.093723E3,1.2110173E1,1.07246414E2,1.7336943E1,2.8121548E2,9.079389E0,2.8169678E1,3.0983498E1,1.05084885E2,7.7517233E0,6.9237976E0],"tree_param":{"num_deleted":"0","num_feature":"11","num_nodes":"57","size_leaf_vector":"1"}},{"base_weights":[7.4157952E-3,-5.2408785E-2,9.065131E-2,-2.3627255E-2,-1.668994E-1,-3.131488E-2,1.263755E-1,-1.369912E-1,1.0705628E-2,4.0664387E-1,-1.8437591E-1,-8.464958E-2,1.3092218E-1,1.3610488E-1,-3.4533125E-1,-8.197224E-2,-2.3074521E-1,5.703323E-3,4.3052185E-1,3.831446E-2,3.5E-2,-2.354563E-1,-9.814792E-2,2.9733518E-2,-1.0136481E-1,7E-1,6.994278E-2,3.7263777E-2,1.8194874E-1,-2.1917516E-2,-1.103141E-1,-4.102246E-5,-1.24622155E-2,-1.2737903E-2,2.1466313E-2,1.5134906E-4,3.0522212E-2,3.5E-2,-8.842749E-3,8.414154E-3,-5.2706148E-3,-1.2542101E-2,5.830106E-3,-8.782259E-5,-1.1254079E-2,4.0205736E-3,-7.508337E-3,3.5E-2,1.7808646E-2,1.1558996E-2,-5.721603E-3,1.7069755E-2,-1.5067181E-3,-2.48014E-3,1.0140782E-2,2.845863E-3,-1.2996321E-2],"categories":[],"categories_nodes":[],"categories_segments":[],"categories_sizes":[],"default_left":[0,0,0,0,0,0,0,0,0,0,0,0,0,0,0,0,0,0,0,0,0,0,0,0,0,0,0,0,0,0,0,0,0,0,0,0,0,0,0,0,0,0,0,0,0,0,0,0,0,0,0,0,0,0,0,0,0],"id":14,"left_children":[1,3,5,7,9,11,13,15,17,19,21,23,25,27,29,31,33,35,37,39,-1,41,43,-1,45,47,49,51,53,-1,55,-1,-1,-1,-1,-1,-1,-1,-1,-1,-1,-1,-1,-1,-1,-1,-1,-1,-1,-1,-1,-1,-1,-1,-1,-1,-1],"loss_changes":[2.7466173E1,1.0571396E1,1.00539665E1,9.987688E0,6.53557E0,4.539509E0,8.235516E0,3.0579615E0,4.135194E0,3.1605654E0,2.7348995E0,4.5394897E0,4.746085E0,7.9178276E0,7.460766E-1,5.1234922E0,3.5971174E0,3.1511014E0,6.234663E0,2.4461524E-1,0E0,2.1553612E0,2.8707218E0,0E0,3.4349797E0,2.71986E-1,3.5682788E0,1.139469E1,5.781517E0,0E0,3.060508E-1,0E0,0E0,0E0,0E0,0E0,0E0,0E0,0E0,0E0,0E0,0E0,0E0,0E0,0E0,0E0,0E0,0E0,0E0,0E0,0E0,0E0,0E0,0E0,0E0,0E0,0E0],"parents":[2147483647,0,0,1,1,2,2,3,3,4,4,5,5,6,6,7,7,8,8,9,9,10,10,11,11,12,12,13,13,14,14,15,15,16,16,17,17,18,18,19,19,21,21,22,22,24,24,25,25,26,26,27,27,28,28,30,30],"right_children":[2,4,6,8,10,12,14,16,18,20,22,24,26,28,30,32,34,36,38,40,-1,42,44,-1,46,48,50,52,54,-1,56,-1,-1,-1,-1,-1,-1,-1,-1,-1,-1,-1,-1,-1,-1,-1,-1,-1,-1,-1,-1,-1,-1,-1,-1,-1,-1],"split_conditions":[2.955665E-2,2.857143E-1,4E-1,2E-1,3.984064E-2,4.9586777E-2,2.0238096E-1,2.3529412E-1,2.1212122E-1,3.1400967E-1,1.754386E-2,1.5277778E-1,5.0632913E-2,7.865169E-2,2.644628E-1,2.962963E-1,2.5125628E-2,2.8448275E-1,2.3076923E-1,3.0769232E-1,3.5E-2,1.5879828E-1,1.1353712E-1,2.9733518E-2,3.211009E-2,1.255814E-1,4E-1,1.21212125E-1,1.9148937E-1,-2.1917516E-2,6E-1,-4.102246E-5,-1.24622155E-2,-1.2737903E-2,2.1466313E-2,1.5134906E-4,3.0522212E-2,3.5E-2,-8.842749E-3,8.414154E-3,-5.2706148E-3,-1.2542101E-2,5.830106E-3,-8.782259E-5,-1.1254079E-2,4.0205736E-3,-7.508337E-3,3.5E-2,1.7808646E-2,1.1558996E-2,-5.721603E-3,1.7069755E-2,-1.5067181E-3,-2.48014E-3,1.0140782E-2,2.845863E-3,-1.2996321E-2],"split_indices":[4,0,8,8,6,4,5,0,5,0,4,0,4,5,0,6,4,0,5,0,0,5,2,0,4,2,7,2,0,0,7,0,0,0,0,0,0,0,0,0,0,0,0,0,0,0,0,0,0,0,0,0,0,0,0,0,0],"split_type":[0,0,0,0,0,0,0,0,0,0,0,0,0,0,0,0,0,0,0,0,0,0,0,0,0,0,0,0,0,0,0,0,0,0,0,0,0,0,0,0,0,0,0,0,0,0,0,0,0,0,0,0,0,0,0,0,0],"sum_hessian":[5.5138623E3,3.208302E3,2.30556E3,2.5647595E3,6.4354254E2,5.223442E2,1.783216E3,5.954964E2,1.9692631E3,1.8371147E1,6.251714E2,3.9347073E2,1.2887349E2,1.7478759E3,3.5340084E1,3.7645212E2,2.1904425E2,1.9470763E3,2.2186731E1,1.1145426E1,7.2257214E0,3.915132E2,2.3365816E2,8.618814E0,3.848519E2,1.0732729E1,1.18140755E2,5.54394E2,1.1934818E3,2.469908E1,1.06410055E1,2.541544E2,1.2229773E2,2.1194781E2,7.096438E0,1.9394979E3,7.5784388E0,1.2250688E1,9.936045E0,5.7631207E0,5.382304E0,3.7539514E2,1.611807E1,1.33383E2,1.0027517E2,8.13169E1,3.03535E2,5.287074E0,5.445655E0,6.288954E1,5.5251217E1,9.98336E1,4.545604E2,9.854883E1,1.094933E3,5.317198E0,5.3238077E0],"tree_param":{"num_deleted":"0","num_feature":"11","num_nodes":"57","size_leaf_vector":"1"}},{"base_weights":[7.2268113E-3,-1.9094069E-2,1.3415551E-1,-1.1292107E-3,-1.9213945E-1,-1.08363554E-1,1.7033295E-1,-1.6211554E-2,1.5781018E-1,-4.619521E-2,-2.45005E-1,-2.0515785E-1,3.3923727E-1,3.793696E-1,1.4175254E-1,-5.8730498E-2,1.8125307E-2,3.3608702E-1,-1.9345634E-2,-1.1155187E-1,3.109129E-1,-1.6407062E-1,-3.5547343E-1,-1.4027318E-1,-3.968982E-1,-1.4547032E-1,3.5E-2,5.9299296E-1,8.440991E-2,1.6103303E-1,-1.7426226E-1,-9.577102E-4,-8.3519025E-3,5.379842E-4,2.0640146E-2,3.4680985E-2,9.367893E-3,-1.812425E-2,4.0931543E-3,-1.2635061E-3,-1.7889693E-2,-3.399642E-3,3.5E-2,-1.3863422E-2,-2.200441E-3,-6.7958953E-3,-1.9351419E-2,-1.8663265E-2,-2.8210552E-3,-2.320865E-2,-1.3188364E-2,-2.2156172E-2,1.2480889E-2,3.5E-2,8.456734E-3,3.4743957E-2,-6.7729834E-3,3.5E-2,7.665504E-3,2.5062552E-2,-1.6830241E-2],"categories":[],"categories_nodes":[],"categories_segments":[],"categories_sizes":[],"default_left":[0,0,0,0,0,0,0,0,0,0,0,0,0,0,0,0,0,0,0,0,0,0,0,0,0,0,0,0,0,0,0,0,0,0,0,0,0,0,0,0,0,0,0,0,0,0,0,0,0,0,0,0,0,0,0,0,0,0,0,0,0],"id":15,"left_children":[1,3,5,7,9,11,13,15,17,19,21,23,25,27,29,31,33,35,37,39,41,43,45,47,49,51,-1,53,55,57,59,-1,-1,-1,-1,-1,-1,-1,-1,-1,-1,-1,-1,-1,-1,-1,-1,-1,-1,-1,-1,-1,-1,-1,-1,-1,-1,-1,-1,-1,-1],"loss_changes":[1.8241632E1,1.4059319E1,8.246281E0,9.826765E0,3.2704468E0,5.370173E0,4.823904E0,5.467112E0,1.1227373E1,2.7032568E0,2.7313023E0,1.2035327E0,7.820076E0,6.0999947E0,4.41395E0,7.1676292E0,6.01905E0,9.2893715E0,6.2512546E0,2.0600247E0,2.9802313E0,2.4604497E0,8.55505E-1,1.4865996E0,1.0187149E-1,1.951587E0,0E0,5.000534E0,5.7534175E0,3.4752502E0,4.76069E0,0E0,0E0,0E0,0E0,0E0,0E0,0E0,0E0,0E0,0E0,0E0,0E0,0E0,0E0,0E0,0E0,0E0,0E0,0E0,0E0,0E0,0E0,0E0,0E0,0E0,0E0,0E0,0E0,0E0,0E0],"parents":[2147483647,0,0,1,1,2,2,3,3,4,4,5,5,6,6,7,7,8,8,9,9,10,10,11,11,12,12,13,13,14,14,15,15,16,16,17,17,18,18,19,19,20,20,21,21,22,22,23,23,24,24,25,25,27,27,28,28,29,29,30,30],"right_children":[2,4,6,8,10,12,14,16,18,20,22,24,26,28,30,32,34,36,38,40,42,44,46,48,50,52,-1,54,56,58,60,-1,-1,-1,-1,-1,-1,-1,-1,-1,-1,-1,-1,-1,-1,-1,-1,-1,-1,-1,-1,-1,-1,-1,-1,-1,-1,-1,-1,-1,-1],"split_conditions":[4.9586777E-2,9E0,1.4503817E-1,6.2E1,1.7266187E-1,2.0408164E-1,1.7E-1,1.8656716E-2,1.2068965E-1,1.657754E-1,9.625668E-2,8E-2,1.2E1,3.5E1,2.2619048E-1,1.2820514E-1,2.173913E-1,2.0833334E-2,9.2857145E-2,1.3930348E-1,2.6595745E-2,7.096774E-2,7.2E-2,5.3639848E-2,9.615385E-2,7.8125E-2,3.5E-2,1E0,4.262295E-1,3.3093524E-1,1E1,-9.577102E-4,-8.3519025E-3,5.379842E-4,2.0640146E-2,3.4680985E-2,9.367893E-3,-1.812425E-2,4.0931543E-3,-1.2635061E-3,-1.7889693E-2,-3.399642E-3,3.5E-2,-1.3863422E-2,-2.200441E-3,-6.7958953E-3,-1.9351419E-2,-1.8663265E-2,-2.8210552E-3,-2.320865E-2,-1.3188364E-2,-2.2156172E-2,1.2480889E-2,3.5E-2,8.456734E-3,3.4743957E-2,-6.7729834E-3,3.5E-2,7.665504E-3,2.5062552E-2,-1.6830241E-2],"split_indices":[4,9,6,10,6,3,6,4,3,6,2,4,10,10,3,3,2,4,2,2,4,2,3,4,4,4,0,7,1,1,10,0,0,0,0,0,0,0,0,0,0,0,0,0,0,0,0,0,0,0,0,0,0,0,0,0,0,0,0,0,0],"split_type":[0,0,0,0,0,0,0,0,0,0,0,0,0,0,0,0,0,0,0,0,0,0,0,0,0,0,0,0,0,0,0,0,0,0,0,0,0,0,0,0,0,0,0,0,0,0,0,0,0,0,0,0,0,0,0,0,0,0,0,0,0],"sum_hessian":[5.4583696E3,4.521589E3,9.367807E2,4.0972373E3,4.2435175E2,1.21343956E2,8.1543677E2,3.7429526E3,3.5428452E2,1.1333774E2,3.11014E2,1.0021416E2,2.1129799E1,9.660387E1,7.188329E2,1.6719211E3,2.0710315E3,1.7613641E2,1.781481E2,9.638527E1,1.6952467E1,1.8093658E2,1.3007744E2,7.616994E1,2.4044218E1,1.4654658E1,6.47514E0,5.5440723E1,4.1163143E1,6.7796E2,4.0872852E1,1.2253478E3,4.4657336E2,2.0340977E3,3.6933838E1,5.0668903E1,1.2546751E2,3.9988617E1,1.381595E2,7.219218E1,2.4193092E1,9.491517E0,7.46095E0,9.245649E1,8.848009E1,1.7012676E1,1.13064766E2,1.9244772E1,5.6925167E1,1.4320885E1,9.723332E0,8.288587E0,6.366071E0,3.4664925E1,2.07758E1,1.0327728E1,3.0835417E1,5.780036E0,6.7218E2,7.515009E0,3.335784E1],"tree_param":{"num_deleted":"0","num_feature":"11","num_nodes":"61","size_leaf_vector":"1"}},{"base_weights":[6.546777E-3,-2.2969535E-2,1.4814185E-1,-1.4282815E-1,-1.2549734E-2,1.7367703E-1,-1.2128732E-2,-1.7776428E-1,1.4708842E-1,6.1884783E-3,-9.8890886E-2,1.8519765E-1,-2.4828106E-1,3.875531E-1,-9.213025E-2,1.5537511E-2,-1.8763897E-1,4.4534644E-1,-2.0500287E-1,-2.4986917E-1,1.2212647E-2,-2.528204E-2,-1.487711E-1,5.377713E-2,2.2051997E-1,3.0969703E-3,-2.2961734E-2,3.5E-2,-4.87863E-2,-1.9414075E-1,2.3322865E-1,-6.1406116E-3,-1.3379407E-2,3.5E-2,-8.493839E-3,4.6499292E-3,-2.2470875E-2,-1.6755145E-2,-9.13435E-5,7.97842E-3,2.0298576E-4,-4.0289774E-3,1.285438E-2,-1.3077261E-2,-5.9596174E-3,1.4007287E-2,-2.1284246E-3,2.0378299E-2,8.127292E-3,-1.353916E-2,8.995879E-3,-1.3603377E-2,1.5321888E-2,3.5E-2,-7.6965685E-3],"categories":[],"categories_nodes":[],"categories_segments":[],"categories_sizes":[],"default_left":[0,0,0,0,0,0,0,0,0,0,0,0,0,0,0,0,0,0,0,0,0,0,0,0,0,0,0,0,0,0,0,0,0,0,0,0,0,0,0,0,0,0,0,0,0,0,0,0,0,0,0,0,0,0,0],"id":16,"left_children":[1,3,5,7,9,11,13,15,17,19,21,23,25,27,29,-1,31,33,35,37,39,41,43,45,47,-1,-1,-1,49,51,53,-1,-1,-1,-1,-1,-1,-1,-1,-1,-1,-1,-1,-1,-1,-1,-1,-1,-1,-1,-1,-1,-1,-1,-1],"loss_changes":[2.2942308E1,5.671604E0,3.8773632E0,3.705186E0,6.7641063E0,4.016815E0,4.2266135E0,1.6242657E0,4.251013E0,5.3030953E0,2.7335796E0,3.6818542E0,1.4771044E0,4.239438E0,3.6967182E0,0E0,1.6195011E0,3.8811975E0,1.4148161E0,1.6700864E0,4.0334806E0,4.741646E0,1.4505262E0,3.7169843E0,6.730892E0,0E0,0E0,0E0,6.7192274E-1,3.3718524E0,7.514899E0,0E0,0E0,0E0,0E0,0E0,0E0,0E0,0E0,0E0,0E0,0E0,0E0,0E0,0E0,0E0,0E0,0E0,0E0,0E0,0E0,0E0,0E0,0E0,0E0],"parents":[2147483647,0,0,1,1,2,2,3,3,4,4,5,5,6,6,7,7,8,8,9,9,10,10,11,11,12,12,13,13,14,14,16,16,17,17,18,18,19,19,20,20,21,21,22,22,23,23,24,24,28,28,29,29,30,30],"right_children":[2,4,6,8,10,12,14,16,18,20,22,24,26,28,30,-1,32,34,36,38,40,42,44,46,48,-1,-1,-1,50,52,54,-1,-1,-1,-1,-1,-1,-1,-1,-1,-1,-1,-1,-1,-1,-1,-1,-1,-1,-1,-1,-1,-1,-1,-1],"split_conditions":[4.9586777E-2,4.761905E-2,8.374384E-2,1.5625E-2,1.4423077E-1,2.0547946E-1,5.163934E-1,9.2E-2,2.3125E-1,3.448276E-2,1.7213115E-1,2.3125E-1,6E-1,1.52E-1,2.0833333E-1,1.5537511E-2,2.4E-1,1.3793103E-1,1.01123594E-1,9.824561E-2,1.6129032E-1,4.0983606E-2,1.7045455E-2,3.8311687E-1,2.5862068E-1,3.0969703E-3,-2.2961734E-2,3.5E-2,3.1782946E-1,2.3214285E-1,5.736434E-1,-6.1406116E-3,-1.3379407E-2,3.5E-2,-8.493839E-3,4.6499292E-3,-2.2470875E-2,-1.6755145E-2,-9.13435E-5,7.97842E-3,2.0298576E-4,-4.0289774E-3,1.285438E-2,-1.3077261E-2,-5.9596174E-3,1.4007287E-2,-2.1284246E-3,2.0378299E-2,8.127292E-3,-1.353916E-2,8.995879E-3,-1.3603377E-2,1.5321888E-2,3.5E-2,-7.6965685E-3],"split_indices":[4,2,4,4,3,5,1,6,0,3,6,0,7,2,2,0,0,5,5,5,0,4,4,1,0,0,0,0,6,3,1,0,0,0,0,0,0,0,0,0,0,0,0,0,0,0,0,0,0,0,0,0,0,0,0],"split_type":[0,0,0,0,0,0,0,0,0,0,0,0,0,0,0,0,0,0,0,0,0,0,0,0,0,0,0,0,0,0,0,0,0,0,0,0,0,0,0,0,0,0,0,0,0,0,0,0,0,0,0,0,0,0,0],"sum_hessian":[5.4876113E3,4.5417046E3,9.459069E2,3.622339E2,4.1794707E3,8.1583923E2,1.3006766E2,3.2362283E2,3.861104E1,3.4349321E3,7.445387E2,7.9470276E2,2.1136494E1,2.1051508E1,1.0901614E2,5.8083034E0,3.1781454E2,2.076016E1,1.785088E1,7.802436E1,3.3569077E3,3.0134586E2,4.4319287E2,1.6888184E2,6.258209E2,8.841257E0,1.2295237E1,9.776837E0,1.1274671E1,8.330168E1,2.5714458E1,1.769063E2,1.4090823E2,1.4118531E1,6.6416283E0,8.322822E0,9.528058E0,5.7808784E1,2.0215576E1,1.7502063E2,3.1818872E3,2.5259404E2,4.87518E1,9.045922E1,3.5273364E2,4.984976E1,1.1903208E2,1.466485E2,4.791724E2,5.627862E0,5.6468086E0,7.247564E1,1.0826043E1,7.7548485E0,1.795961E1],"tree_param":{"num_deleted":"0","num_feature":"11","num_nodes":"55","size_leaf_vector":"1"}},{"base_weights":[-5.9494497E-3,-1.2159937E-1,2.6320124E-2,7.7456206E-2,-1.3829464E-1,1.0103747E-2,1.6945963E-1,1.0314267E-2,3.5E-2,-1.1598933E-1,-2.2835657E-1,-4.028753E-2,6.536535E-2,4.7864196E-1,1.1589523E-1,-1.9862087E-1,1.7070252E-1,-1.8076158E-1,-6.402221E-2,1.13850206E-1,-2.5637177E-1,9.2685325E-3,-1.00948855E-1,-3.6997333E-2,9.273897E-2,6.050691E-1,-1.2140936E-1,-1.6743794E-1,1.6246691E-1,-1.6102536E-2,1.5318028E-2,1.8069696E-2,-6.378909E-3,-4.91452E-3,-1.3647899E-2,6.235469E-3,-5.0491556E-3,-9.2653725E-3,1.6923815E-2,-1.382034E-2,8.048917E-3,9.888575E-5,3.5E-2,3.5E-2,-5.5484786E-3,2.239933E-2,-2.697829E-3,2.3557117E-2,4.171291E-3,7.2723734E-3,3.5E-2,-2.112806E-2,1.098957E-2,1.1303447E-2,-1.2842379E-2,3.5E-2,6.7232735E-3],"categories":[],"categories_nodes":[],"categories_segments":[],"categories_sizes":[],"default_left":[0,0,0,0,0,0,0,0,0,0,0,0,0,0,0,0,0,0,0,0,0,0,0,0,0,0,0,0,0,0,0,0,0,0,0,0,0,0,0,0,0,0,0,0,0,0,0,0,0,0,0,0,0,0,0,0,0],"id":17,"left_children":[1,3,5,7,9,11,13,15,-1,17,19,21,23,25,27,29,31,33,35,37,39,41,43,45,47,49,51,53,55,-1,-1,-1,-1,-1,-1,-1,-1,-1,-1,-1,-1,-1,-1,-1,-1,-1,-1,-1,-1,-1,-1,-1,-1,-1,-1,-1,-1],"loss_changes":[2.0460592E1,3.9854813E0,9.948407E0,5.146972E0,2.190979E0,1.0727826E1,7.1677074E0,2.9755404E0,0E0,2.97328E0,2.1199627E0,6.058673E0,5.151736E0,4.9350576E0,4.9499416E0,2.50358E0,2.901352E0,2.9704618E0,3.455527E0,1.2182183E0,1.7326202E0,6.9304595E0,7.460701E0,3.2186146E0,5.0705433E0,4.538252E0,1.3244005E0,1.9283146E0,5.36043E0,0E0,0E0,0E0,0E0,0E0,0E0,0E0,0E0,0E0,0E0,0E0,0E0,0E0,0E0,0E0,0E0,0E0,0E0,0E0,0E0,0E0,0E0,0E0,0E0,0E0,0E0,0E0,0E0],"parents":[2147483647,0,0,1,1,2,2,3,3,4,4,5,5,6,6,7,7,9,9,10,10,11,11,12,12,13,13,14,14,15,15,16,16,17,17,18,18,19,19,20,20,21,21,22,22,23,23,24,24,25,25,26,26,27,27,28,28],"right_children":[2,4,6,8,10,12,14,16,-1,18,20,22,24,26,28,30,32,34,36,38,40,42,44,46,48,50,52,54,56,-1,-1,-1,-1,-1,-1,-1,-1,-1,-1,-1,-1,-1,-1,-1,-1,-1,-1,-1,-1,-1,-1,-1,-1,-1,-1,-1,-1],"split_conditions":[2.5E-1,1.5E-1,6.1E1,2.2352941E-1,2.962963E-1,3.0075189E-2,3.2291666E-1,1.25E-1,3.5E-2,5.4945056E-3,2.5E-2,3.2846716E-1,3.644068E-1,1.3125E-1,2.2834645E-1,1.4285715E-1,6.451613E-2,2.736842E-1,5.691057E-2,1.9E1,4.0983605E-1,1.980198E-1,3.984064E-2,8E0,3.6842105E-1,2.0779221E-1,3.043478E-1,8.695652E-2,9.9378884E-2,-1.6102536E-2,1.5318028E-2,1.8069696E-2,-6.378909E-3,-4.91452E-3,-1.3647899E-2,6.235469E-3,-5.0491556E-3,-9.2653725E-3,1.6923815E-2,-1.382034E-2,8.048917E-3,9.888575E-5,3.5E-2,3.5E-2,-5.5484786E-3,2.239933E-2,-2.697829E-3,2.3557117E-2,4.171291E-3,7.2723734E-3,3.5E-2,-2.112806E-2,1.098957E-2,1.1303447E-2,-1.2842379E-2,3.5E-2,6.7232735E-3],"split_indices":[8,0,10,1,6,4,1,8,0,4,2,1,1,3,0,0,2,1,2,10,6,3,6,10,1,0,1,3,3,0,0,0,0,0,0,0,0,0,0,0,0,0,0,0,0,0,0,0,0,0,0,0,0,0,0,0,0],"split_type":[0,0,0,0,0,0,0,0,0,0,0,0,0,0,0,0,0,0,0,0,0,0,0,0,0,0,0,0,0,0,0,0,0,0,0,0,0,0,0,0,0,0,0,0,0,0,0,0,0,0,0,0,0,0,0,0,0],"sum_hessian":[5.4806553E3,1.1950358E3,4.2856196E3,9.219289E1,1.1028429E3,3.8504678E3,4.3515164E2,8.678185E1,5.411031E0,8.857581E2,2.170847E2,2.0141239E3,1.8363439E3,6.308412E1,3.720675E2,3.7583748E1,4.9198105E1,3.931964E2,4.925617E2,1.619524E1,2.0088947E2,1.1089977E3,9.051263E2,3.8738394E2,1.44896E3,5.2098854E1,1.09852705E1,5.21573E1,3.1991022E2,3.0492811E1,7.090938E0,2.988255E1,1.9315556E1,2.0863507E2,1.8456134E2,8.027638E1,4.1228534E2,7.0204396E0,9.174801E0,1.9200967E2,8.879782E0,1.1011608E3,7.836942E0,1.0165497E1,8.9496075E2,1.2229893E1,3.7515402E2,3.361365E1,1.4153463E3,1.690654E1,3.5192314E1,5.7084255E0,5.2768445E0,9.373682E0,4.278362E1,1.2699532E1,3.0721066E2],"tree_param":{"num_deleted":"0","num_feature":"11","num_nodes":"57","size_leaf_vector":"1"}},{"base_weights":[-1.1816917E-3,-2.707251E-2,1.224427E-1,-8.232217E-2,6.901654E-3,1.4295056E-1,-8.128335E-2,9.866551E-2,-9.715498E-2,1.0502681E-2,-3.6684862E-1,-8.379438E-2,1.7246318E-1,2.4755736E-1,-2.2762983E-1,-1.6004826E-1,3.1623927E-1,-3.5507046E-2,-1.3177076E-1,5.7285647E-3,7E-1,-2.3533503E-2,-4.938585E-3,-1.5803859E-1,3.5E-2,2.3109345E-1,9.1470234E-2,6.716526E-1,-1.8481997E-1,-3.9292994E-1,-1.17592596E-1,-1.799821E-2,-7.3665276E-4,2.0111209E-2,-2.1680241E-2,-1.1690116E-5,-9.230455E-3,-5.2102436E-3,-1.1819461E-2,1.4261738E-4,2.1147165E-2,3.5E-2,-1.2544314E-2,-1.0776063E-2,2.9666934E-2,9.17345E-3,2.8721517E-2,2.6142273E-2,3.0616436E-3,3.5E-2,1.8430107E-3,-2.113554E-2,1.0103042E-3,-6.1828257E-3,-2.3479182E-2,-1.18475715E-2,1.1293207E-2],"categories":[],"categories_nodes":[],"categories_segments":[],"categories_sizes":[],"default_left":[0,0,0,0,0,0,0,0,0,0,0,0,0,0,0,0,0,0,0,0,0,0,0,0,0,0,0,0,0,0,0,0,0,0,0,0,0,0,0,0,0,0,0,0,0,0,0,0,0,0,0,0,0,0,0,0,0],"id":18,"left_children":[1,3,5,7,9,11,13,15,17,19,21,23,25,27,29,31,33,35,37,39,41,-1,-1,43,-1,45,47,49,51,53,55,-1,-1,-1,-1,-1,-1,-1,-1,-1,-1,-1,-1,-1,-1,-1,-1,-1,-1,-1,-1,-1,-1,-1,-1,-1,-1],"loss_changes":[1.7631767E1,8.550043E0,3.9970427E0,4.6656733E0,3.801021E0,5.8164654E0,4.28553E0,7.473568E0,3.4172287E0,1.063172E1,7.0362616E-1,6.2478967E0,3.6234589E0,5.1748357E0,1.0694404E0,1.7640194E0,4.8145E0,3.039764E0,2.9358063E0,3.3349462E0,5.0175085E0,0E0,0E0,4.1461544E0,0E0,7.163706E0,4.193386E0,2.3811197E0,7.12005E-1,4.3907642E-1,1.6215744E0,0E0,0E0,0E0,0E0,0E0,0E0,0E0,0E0,0E0,0E0,0E0,0E0,0E0,0E0,0E0,0E0,0E0,0E0,0E0,0E0,0E0,0E0,0E0,0E0,0E0,0E0],"parents":[2147483647,0,0,1,1,2,2,3,3,4,4,5,5,6,6,7,7,8,8,9,9,10,10,11,11,12,12,13,13,14,14,15,15,16,16,17,17,18,18,19,19,20,20,23,23,25,25,26,26,27,27,28,28,29,29,30,30],"right_children":[2,4,6,8,10,12,14,16,18,20,22,24,26,28,30,32,34,36,38,40,42,-1,-1,44,-1,46,48,50,52,54,56,-1,-1,-1,-1,-1,-1,-1,-1,-1,-1,-1,-1,-1,-1,-1,-1,-1,-1,-1,-1,-1,-1,-1,-1,-1,-1],"split_conditions":[4.9586777E-2,3.3333334E-1,2.1568628E-1,1.5E-1,2.1568628E-1,1.4503817E-1,1.884058E-1,1.3043478E-1,1.884058E-1,2E-1,4.2402826E-2,1.8987341E-1,1.1881188E-1,9.230769E-1,5.3333336E-1,4.347826E-2,6E-1,1.4795919E-1,2.580645E-1,1.0666667E0,3.243243E-1,-2.3533503E-2,-4.938585E-3,1.5151516E-1,3.5E-2,1.0828026E-1,5.0632913E-2,6.741573E-2,7.4324325E-2,1.9607844E-2,2.857143E-1,-1.799821E-2,-7.3665276E-4,2.0111209E-2,-2.1680241E-2,-1.1690116E-5,-9.230455E-3,-5.2102436E-3,-1.1819461E-2,1.4261738E-4,2.1147165E-2,3.5E-2,-1.2544314E-2,-1.0776063E-2,2.9666934E-2,9.17345E-3,2.8721517E-2,2.6142273E-2,3.0616436E-3,3.5E-2,1.8430107E-3,-2.113554E-2,1.0103042E-3,-6.1828257E-3,-2.3479182E-2,-1.18475715E-2,1.1293207E-2],"split_indices":[4,8,3,0,3,6,6,0,6,3,4,3,5,8,8,3,7,3,0,8,0,0,0,5,0,5,4,4,5,5,6,0,0,0,0,0,0,0,0,0,0,0,0,0,0,0,0,0,0,0,0,0,0,0,0,0,0],"split_type":[0,0,0,0,0,0,0,0,0,0,0,0,0,0,0,0,0,0,0,0,0,0,0,0,0,0,0,0,0,0,0,0,0,0,0,0,0,0,0,0,0,0,0,0,0,0,0,0,0,0,0,0,0,0,0,0,0],"sum_hessian":[5.5066235E3,4.5537144E3,9.529093E2,1.7333966E3,2.8203174E3,8.6602966E2,8.687964E1,1.3087144E2,1.6025251E3,2.7943662E3,2.5951397E1,9.952688E1,7.665028E2,2.6543892E1,6.0335747E1,5.9904396E1,7.096705E1,5.769856E2,1.0255397E3,2.7791274E3,1.523867E1,1.816189E1,7.789507E0,9.2034676E1,7.4922047E0,4.435596E2,3.2294318E2,1.3120912E1,1.342298E1,2.3085443E1,3.72503E1,2.4593296E1,3.53111E1,6.40823E1,6.88475E0,4.6741116E2,1.0957441E2,8.132521E2,2.1228755E2,2.7610996E3,1.8027777E1,1.0147538E1,5.0911326E0,8.615659E1,5.878081E0,3.9087546E2,5.2684166E1,2.0086851E1,3.0285632E2,7.5661936E0,5.5547185E0,5.722012E0,7.700968E0,5.694536E0,1.7390907E1,2.7873678E1,9.376622E0],"tree_param":{"num_deleted":"0","num_feature":"11","num_nodes":"57","size_leaf_vector":"1"}},{"base_weights":[-5.6577437E-3,2.005446E-2,-1.2517244E-1,-9.1780476E-2,4.428716E-2,-1.5612192E-1,1.10975474E-1,8.578041E-2,-1.21097594E-1,2.6270546E-2,1.0437994E-1,-3.9191824E-1,-1.4348875E-1,-4.717668E-2,3.2444575E-1,2.7044263E-1,-1.20945014E-1,7.5523764E-2,-1.3974969E-1,-3.3081368E-2,5.66977E-2,-1.0258888E-1,1.3098836E-1,-4.5567605E-1,-1.1325971E-3,-9.071732E-2,-1.9990905E-1,4.153186E-1,-1.7832592E-1,5.142047E-1,-8.971118E-2,3.5E-2,-4.4092015E-4,4.9900687E-3,-1.3447972E-2,3.0702194E-2,-4.239025E-3,-8.7796245E-3,1.6628254E-4,-2.3188E-3,1.6251942E-2,7.0421137E-3,5.228271E-6,1.7957308E-4,-1.35714365E-2,1.8100353E-2,4.9760765E-3,-1.3880337E-2,-2.4021775E-2,-1.1884845E-2,-2.061894E-3,-3.1700283E-3,-1.42103005E-2,3.5E-2,-1.6053965E-2,-2.0141287E-2,-3.8151373E-3,7.459154E-3,3.5E-2,-1.7120492E-2,1.3025804E-2],"categories":[],"categories_nodes":[],"categories_segments":[],"categories_sizes":[],"default_left":[0,0,0,0,0,0,0,0,0,0,0,0,0,0,0,0,0,0,0,0,0,0,0,0,0,0,0,0,0,0,0,0,0,0,0,0,0,0,0,0,0,0,0,0,0,0,0,0,0,0,0,0,0,0,0,0,0,0,0,0,0],"id":19,"left_children":[1,3,5,7,9,11,13,15,17,19,21,23,25,27,29,31,33,35,37,39,41,43,45,47,-1,49,51,53,55,57,59,-1,-1,-1,-1,-1,-1,-1,-1,-1,-1,-1,-1,-1,-1,-1,-1,-1,-1,-1,-1,-1,-1,-1,-1,-1,-1,-1,-1,-1,-1],"loss_changes":[1.6799995E1,1.219734E1,7.0914993E0,4.1832414E0,4.001667E0,2.4941845E0,3.8215067E0,4.3915935E0,2.5353003E0,5.143045E0,4.7098436E0,1.0011306E0,2.4060955E0,4.0551653E0,3.8267875E0,9.4370575E0,1.80966E0,5.257342E0,3.2269087E0,4.6117225E0,8.963955E0,1.7526313E0,5.460249E0,2.791977E-2,0E0,3.0631263E0,4.500559E0,7.201064E0,1.156474E0,3.2976198E0,1.5023195E0,0E0,0E0,0E0,0E0,0E0,0E0,0E0,0E0,0E0,0E0,0E0,0E0,0E0,0E0,0E0,0E0,0E0,0E0,0E0,0E0,0E0,0E0,0E0,0E0,0E0,0E0,0E0,0E0,0E0,0E0],"parents":[2147483647,0,0,1,1,2,2,3,3,4,4,5,5,6,6,7,7,8,8,9,9,10,10,11,11,12,12,13,13,14,14,15,15,16,16,17,17,18,18,19,19,20,20,21,21,22,22,23,23,25,25,26,26,27,27,28,28,29,29,30,30],"right_children":[2,4,6,8,10,12,14,16,18,20,22,24,26,28,30,32,34,36,38,40,42,44,46,48,-1,50,52,54,56,58,60,-1,-1,-1,-1,-1,-1,-1,-1,-1,-1,-1,-1,-1,-1,-1,-1,-1,-1,-1,-1,-1,-1,-1,-1,-1,-1,-1,-1,-1,-1],"split_conditions":[8E0,2.5E-1,1.3461539E-1,2.027027E-1,4.368932E-1,3.448276E-2,3.5714287E-1,2.5454545E-1,3.076923E-2,3E0,1.1764706E-1,3.2967034E-1,9E0,6.2992126E-2,1.6216215E-1,8.370044E-2,1.6666667E-1,1.4893617E-1,3.6666667E-1,3.4146342E-1,5E0,7.7586204E-2,4.4827586E-1,6.666667E-2,-1.1325971E-3,5.952381E-2,1.8965517E-1,1.6666667E-1,1.9130434E-1,1.2037037E-1,1.8181819E-1,3.5E-2,-4.4092015E-4,4.9900687E-3,-1.3447972E-2,3.0702194E-2,-4.239025E-3,-8.7796245E-3,1.6628254E-4,-2.3188E-3,1.6251942E-2,7.0421137E-3,5.228271E-6,1.7957308E-4,-1.35714365E-2,1.8100353E-2,4.9760765E-3,-1.3880337E-2,-2.4021775E-2,-1.1884845E-2,-2.061894E-3,-3.1700283E-3,-1.42103005E-2,3.5E-2,-1.6053965E-2,-2.0141287E-2,-3.8151373E-3,7.459154E-3,3.5E-2,-1.7120492E-2,1.3025804E-2],"split_indices":[9,8,5,1,1,3,8,6,2,9,2,6,9,2,5,5,1,6,1,6,9,5,1,8,0,5,6,1,1,3,5,0,0,0,0,0,0,0,0,0,0,0,0,0,0,0,0,0,0,0,0,0,0,0,0,0,0,0,0,0,0],"split_type":[0,0,0,0,0,0,0,0,0,0,0,0,0,0,0,0,0,0,0,0,0,0,0,0,0,0,0,0,0,0,0,0,0,0,0,0,0,0,0,0,0,0,0,0,0,0,0,0,0,0,0,0,0,0,0,0,0,0,0,0,0],"sum_hessian":[5.4651763E3,4.49826E3,9.669163E2,8.006124E2,3.6976475E3,8.55176E2,1.117403E2,1.1318355E2,6.874289E2,2.8458584E3,8.5178906E2,4.1960842E1,8.132152E2,6.4634224E1,4.710608E1,5.9619156E1,5.3564396E1,5.929722E1,6.2813165E2,9.644645E2,1.8813939E3,9.6707954E1,7.550811E2,3.5583042E1,6.377799E0,4.215428E2,3.9167242E2,1.38004465E1,5.0833775E1,3.2139015E1,1.4967064E1,1.8597885E1,4.102127E1,2.1630594E1,3.19338E1,1.2952978E1,4.634424E1,5.0211588E2,1.2601579E2,9.3078125E2,3.368324E1,7.5594336E2,1.1254506E3,5.9971615E1,3.673634E1,8.926005E1,6.6582104E2,5.834391E0,2.9748652E1,1.05210175E2,3.163326E2,1.5019781E2,2.4147461E2,6.2731876E0,7.527259E0,1.4961949E1,3.5871826E1,1.5254412E1,1.6884604E1,8.707026E0,6.2600384E0],"tree_param":{"num_deleted":"0","num_feature":"11","num_nodes":"61","size_leaf_vector":"1"}},{"base_weights":[-7.220863E-3,-1.4236732E-1,1.0014779E-2,-1.60084E-1,3.5E-2,-7.906081E-3,1.3200466E-1,-1.09424636E-1,-3.2866296E-1,2.0177167E-2,-6.245724E-2,-1.2382747E-1,1.7207786E-1,-2.0629181E-1,-3.625873E-2,1.7604692E-2,-3.590117E-1,3.1188449E-2,-2.2521491E-1,-2.4105778E-1,-3.1226216E-2,-2.0040362E-1,2.09014E-1,1.3955456E-1,5.441122E-1,-1.1950793E-2,-1.7930008E-3,3.5E-2,-4.369605E-3,3.331732E-3,-1.9142767E-2,2.4165165E-4,5.8138543E-3,1.5609256E-2,-1.40518E-2,-1.5658593E-2,6.8877207E-4,-9.193798E-3,-4.771667E-4,-1.6035482E-2,3.7114483E-3,3.5E-2,-4.791967E-3,7.6953E-3,-2.2744052E-2,3.5E-2,6.1369995E-3],"categories":[],"categories_nodes":[],"categories_segments":[],"categories_sizes":[],"default_left":[0,0,0,0,0,0,0,0,0,0,0,0,0,0,0,0,0,0,0,0,0,0,0,0,0,0,0,0,0,0,0,0,0,0,0,0,0,0,0,0,0,0,0,0,0,0,0],"id":20,"left_children":[1,3,5,7,-1,9,11,13,15,17,19,21,23,25,27,-1,29,31,33,35,37,39,41,43,45,-1,-1,-1,-1,-1,-1,-1,-1,-1,-1,-1,-1,-1,-1,-1,-1,-1,-1,-1,-1,-1,-1],"loss_changes":[1.2703256E1,1.13626375E1,1.0575828E1,5.1539764E0,0E0,6.4639015E0,6.3738184E0,3.3150024E0,3.0172796E0,7.5339584E0,7.9905987E0,2.1955004E0,6.4112377E0,1.115284E0,1.2408695E1,0E0,1.3900242E0,5.9799848E0,3.6800227E0,3.923603E0,4.041702E0,2.3102608E0,2.6888466E0,4.287592E0,5.732836E0,0E0,0E0,0E0,0E0,0E0,0E0,0E0,0E0,0E0,0E0,0E0,0E0,0E0,0E0,0E0,0E0,0E0,0E0,0E0,0E0,0E0,0E0],"parents":[2147483647,0,0,1,1,2,2,3,3,5,5,6,6,7,7,8,8,9,9,10,10,11,11,12,12,13,13,14,14,16,16,17,17,18,18,19,19,20,20,21,21,22,22,23,23,24,24],"right_children":[2,4,6,8,-1,10,12,14,16,18,20,22,24,26,28,-1,30,32,34,36,38,40,42,44,46,-1,-1,-1,-1,-1,-1,-1,-1,-1,-1,-1,-1,-1,-1,-1,-1,-1,-1,-1,-1,-1,-1],"split_conditions":[6.451613E-2,4.040404E-2,1.40625E-1,3.3E1,3.5E-2,1.0185185E-1,1.3E1,7.2164945E-2,7.853403E-2,2.2222222E-1,2.2222222E-1,3.255814E-1,2.0481928E-1,2.4E1,7.7922076E-2,1.7604692E-2,1.4814815E-1,1.402439E-1,4.225352E-2,5.4E1,1.5625E-2,1.8181819E-1,1.8181819E-1,2.0168068E-1,2.1212122E-1,-1.1950793E-2,-1.7930008E-3,3.5E-2,-4.369605E-3,3.331732E-3,-1.9142767E-2,2.4165165E-4,5.8138543E-3,1.5609256E-2,-1.40518E-2,-1.5658593E-2,6.8877207E-4,-9.193798E-3,-4.771667E-4,-1.6035482E-2,3.7114483E-3,3.5E-2,-4.791967E-3,7.6953E-3,-2.2744052E-2,3.5E-2,6.1369995E-3],"split_indices":[2,4,5,10,0,5,10,5,3,2,8,0,5,10,5,0,0,3,4,10,4,5,5,2,5,0,0,0,0,0,0,0,0,0,0,0,0,0,0,0,0,0,0,0,0,0,0],"split_type":[0,0,0,0,0,0,0,0,0,0,0,0,0,0,0,0,0,0,0,0,0,0,0,0,0,0,0,0,0,0,0,0,0,0,0,0,0,0,0,0,0,0,0,0,0,0,0],"sum_hessian":[5.4519844E3,6.1584216E2,4.836142E3,6.0671405E2,9.128056E0,4.217507E3,6.186354E2,4.677888E2,1.389253E2,2.784606E3,1.4329008E3,8.34961E1,5.351393E2,2.0050842E2,2.6728036E2,5.4766355E0,1.3344865E2,2.665856E3,1.1874992E2,2.1227089E2,1.2206299E3,6.820274E1,1.5293363E1,4.9338275E2,4.1756504E1,1.6787323E2,3.2635197E1,1.2908134E1,2.5437224E2,6.9837112E0,1.2646494E2,2.0362142E3,6.296417E2,1.0742004E1,1.0800792E2,1.6527232E2,4.699857E1,1.5088731E2,1.0697426E3,4.7310184E1,2.089256E1,5.0728245E0,1.0220538E1,4.8247546E2,1.0907305E1,2.0964102E1,2.07924E1],"tree_param":{"num_deleted":"0","num_feature":"11","num_nodes":"47","size_leaf_vector":"1"}},{"base_weights":[-4.934782E-3,2.0183334E-2,-1.0109093E-1,-7.5353407E-3,6.2292334E-2,-2.5187767E-1,-5.563394E-2,-5.1519986E-2,8.89607E-2,8.118788E-2,-1.7732929E-1,-7.065324E-2,-3.036416E-1,4.2373454E-3,-1.6757824E-1,7.804634E-2,-8.657706E-2,-1.7250115E-2,1.7178886E-1,1.0603387E-1,-9.908921E-2,1.5908875E-2,-2.1426107E-1,-2.5985506E-1,2.0413962E-1,-2.4119066E-1,-4.6936056E-1,1.6804095E-1,-4.1062478E-2,-3.2465616E-1,-1.2303853E-1,1.9033136E-3,2.7390093E-2,-4.5708055E-3,2.6714358E-2,-4.246458E-3,7.82455E-3,2.349355E-2,5.550508E-3,2.2507312E-2,4.7741192E-3,2.6438588E-2,-6.8328576E-3,-1.4791858E-2,5.587702E-4,-6.303563E-4,-1.5565382E-2,3.5E-2,-2.9693216E-3,-1.3848034E-2,8.164741E-3,-1.3942549E-2,-2.4323558E-2,-6.2026097E-3,1.5574834E-2,-6.744524E-3,2.899674E-3,-8.331129E-3,-1.984951E-2,6.3360494E-4,-1.0708366E-2],"categories":[],"categories_nodes":[],"categories_segments":[],"categories_sizes":[],"default_left":[0,0,0,0,0,0,0,0,0,0,0,0,0,0,0,0,0,0,0,0,0,0,0,0,0,0,0,0,0,0,0,0,0,0,0,0,0,0,0,0,0,0,0,0,0,0,0,0,0,0,0,0,0,0,0,0,0,0,0,0,0],"id":21,"left_children":[1,3,5,7,9,11,13,15,17,19,21,23,25,27,29,31,33,35,37,39,41,-1,43,45,47,49,51,53,55,57,59,-1,-1,-1,-1,-1,-1,-1,-1,-1,-1,-1,-1,-1,-1,-1,-1,-1,-1,-1,-1,-1,-1,-1,-1,-1,-1,-1,-1,-1,-1],"loss_changes":[1.328312E1,5.090356E0,7.793541E0,1.1169768E1,7.8526297E0,2.451027E0,5.875272E0,8.217231E0,7.2519937E0,7.200885E0,2.3894613E0,3.1652818E0,2.005352E0,4.2516828E0,2.0970745E0,7.2183867E0,4.3244915E0,4.269357E0,8.337098E0,5.0814257E0,4.6709123E0,0E0,2.1852298E0,4.5266962E-1,4.5776625E0,2.2261086E0,4.354E-2,5.2397723E0,4.180251E0,6.98236E-1,2.965709E0,0E0,0E0,0E0,0E0,0E0,0E0,0E0,0E0,0E0,0E0,0E0,0E0,0E0,0E0,0E0,0E0,0E0,0E0,0E0,0E0,0E0,0E0,0E0,0E0,0E0,0E0,0E0,0E0,0E0,0E0],"parents":[2147483647,0,0,1,1,2,2,3,3,4,4,5,5,6,6,7,7,8,8,9,9,10,10,11,11,12,12,13,13,14,14,15,15,16,16,17,17,18,18,19,19,20,20,22,22,23,23,24,24,25,25,26,26,27,27,28,28,29,29,30,30],"right_children":[2,4,6,8,10,12,14,16,18,20,22,24,26,28,30,32,34,36,38,40,42,-1,44,46,48,50,52,54,56,58,60,-1,-1,-1,-1,-1,-1,-1,-1,-1,-1,-1,-1,-1,-1,-1,-1,-1,-1,-1,-1,-1,-1,-1,-1,-1,-1,-1,-1,-1,-1],"split_conditions":[8E0,6E-1,6.451613E-2,1.3414635E-1,1.8518518E-1,2.7777778E-2,9.774436E-2,8.510638E-2,3.809524E-1,1.9444445E-1,1.8333334E-1,7.317073E-2,1.1377245E-1,2.9032257E-1,9.508197E-2,1.491228E-1,2.0168068E-1,1.491228E-1,1.0576923E-1,2.6490066E-2,8E0,1.5908875E-2,2.1428572E-1,4.1666668E-2,8.108108E-2,4.8E1,3.448276E-2,1.8E1,1.2962963E-1,6.25E-2,1.262136E-1,1.9033136E-3,2.7390093E-2,-4.5708055E-3,2.6714358E-2,-4.246458E-3,7.82455E-3,2.349355E-2,5.550508E-3,2.2507312E-2,4.7741192E-3,2.6438588E-2,-6.8328576E-3,-1.4791858E-2,5.587702E-4,-6.303563E-4,-1.5565382E-2,3.5E-2,-2.9693216E-3,-1.3848034E-2,8.164741E-3,-1.3942549E-2,-2.4323558E-2,-6.2026097E-3,1.5574834E-2,-6.744524E-3,2.899674E-3,-8.331129E-3,-1.984951E-2,6.3360494E-4,-1.0708366E-2],"split_indices":[9,7,2,3,3,2,5,3,1,2,0,5,3,1,3,5,2,5,2,5,10,0,3,3,5,10,2,10,2,3,3,0,0,0,0,0,0,0,0,0,0,0,0,0,0,0,0,0,0,0,0,0,0,0,0,0,0,0,0,0,0],"split_type":[0,0,0,0,0,0,0,0,0,0,0,0,0,0,0,0,0,0,0,0,0,0,0,0,0,0,0,0,0,0,0,0,0,0,0,0,0,0,0,0,0,0,0,0,0,0,0,0,0,0,0,0,0,0,0,0,0,0,0,0,0],"sum_hessian":[5.4978174E3,4.3597456E3,1.138072E3,2.6296035E3,1.7301421E3,2.625659E2,8.7550616E2,1.8065922E3,8.230114E2,1.6042953E3,1.2584674E2,5.8860683E1,2.037052E2,5.7105194E2,3.0445416E2,3.8445837E2,1.4221338E3,3.609525E2,4.6205887E2,1.4103334E3,1.9396188E2,8.200942E0,1.176458E2,3.4891422E1,2.3969263E1,1.4973372E2,5.3971478E1,1.2312478E2,4.479272E2,6.586816E1,2.3858601E2,3.553004E2,2.9157959E1,1.4119814E3,1.0152287E1,2.60132E2,1.0082054E2,7.711691E1,3.8494196E2,4.0718887E1,1.3696145E3,1.0212275E1,1.837496E2,8.61569E1,3.1488897E1,6.2246757E0,2.8666744E1,5.535121E0,1.8434143E1,1.3785777E2,1.1875953E1,5.8734465E0,4.8098034E1,4.0597874E1,8.25269E1,2.2984816E2,2.1807904E2,2.1719492E1,4.4148666E1,9.619365E1,1.4239236E2],"tree_param":{"num_deleted":"0","num_feature":"11","num_nodes":"61","size_leaf_vector":"1"}},{"base_weights":[-1.9929174E-2,-2.5640178E-2,4.527921E-1,-8.4673986E-2,1.0013682E-3,7E-1,-1.19105E-1,-1.0179175E-1,1.0545974E-1,1.37977535E-2,-1.2276944E-1,5.242504E-1,3.5E-2,-1.7474618E-2,3.5002403E-2,-1.06135465E-1,3.6846828E-1,-2.0054513E-1,2.8424844E-1,6.690145E-3,2.751562E-1,-3.3246145E-1,-4.565685E-2,7E-1,-1.1208669E-2,1.8949715E-2,-8.498871E-3,-3.0161834E-3,-7.6211984E-3,-1.6331328E-2,3.5E-2,1.739694E-2,-1.5275999E-2,3.5E-2,1.762962E-3,-8.296216E-4,3.4734507E-3,-1.1176496E-3,2.9622143E-2,-5.387453E-3,-1.8372538E-2,5.8844746E-3,-8.271697E-3,3.5E-2,1.5970299E-2],"categories":[],"categories_nodes":[],"categories_segments":[],"categories_sizes":[],"default_left":[0,0,0,0,0,0,0,0,0,0,0,0,0,0,0,0,0,0,0,0,0,0,0,0,0,0,0,0,0,0,0,0,0,0,0,0,0,0,0,0,0,0,0,0,0],"id":22,"left_children":[1,3,5,7,9,11,13,15,17,19,21,23,-1,-1,25,27,29,31,33,35,37,39,41,43,-1,-1,-1,-1,-1,-1,-1,-1,-1,-1,-1,-1,-1,-1,-1,-1,-1,-1,-1,-1,-1],"loss_changes":[1.4887718E1,8.564386E0,1.2366291E1,5.5219135E0,5.9459376E0,4.9326515E-1,9.054464E-1,3.2133656E0,7.735544E0,6.3184595E0,5.672877E0,6.354311E0,0E0,0E0,1.1914332E0,3.257574E0,7.202936E0,3.1202414E0,9.463806E0,4.8440323E0,8.513729E0,7.027874E-1,5.074091E0,1.1957989E0,0E0,0E0,0E0,0E0,0E0,0E0,0E0,0E0,0E0,0E0,0E0,0E0,0E0,0E0,0E0,0E0,0E0,0E0,0E0,0E0,0E0],"parents":[2147483647,0,0,1,1,2,2,3,3,4,4,5,5,6,6,7,7,8,8,9,9,10,10,11,11,14,14,15,15,16,16,17,17,18,18,19,19,20,20,21,21,22,22,23,23],"right_children":[2,4,6,8,10,12,14,16,18,20,22,24,-1,-1,26,28,30,32,34,36,38,40,42,44,-1,-1,-1,-1,-1,-1,-1,-1,-1,-1,-1,-1,-1,-1,-1,-1,-1,-1,-1,-1,-1],"split_conditions":[2.0481928E-1,2.7272728E-1,1.4166667E-1,4.347826E-2,1.9607843E-1,3.2258064E-2,4.1666666E-1,1.6091955E-1,2.2624435E-1,1.8965517E-1,7.2727275E-1,6.1538464E-1,3.5E-2,-1.7474618E-2,2.7741936E-1,7E0,4.761905E-2,4.494382E-2,9.090909E-2,8E-1,2.8125E-1,2.5153375E-1,8.75E-1,4E0,-1.1208669E-2,1.8949715E-2,-8.498871E-3,-3.0161834E-3,-7.6211984E-3,-1.6331328E-2,3.5E-2,1.739694E-2,-1.5275999E-2,3.5E-2,1.762962E-3,-8.296216E-4,3.4734507E-3,-1.1176496E-3,2.9622143E-2,-5.387453E-3,-1.8372538E-2,5.8844746E-3,-8.271697E-3,3.5E-2,1.5970299E-2],"split_indices":[5,8,3,4,2,4,8,2,0,2,8,8,0,0,0,9,5,4,5,7,0,0,8,9,0,0,0,0,0,0,0,0,0,0,0,0,0,0,0,0,0,0,0,0,0],"split_type":[0,0,0,0,0,0,0,0,0,0,0,0,0,0,0,0,0,0,0,0,0,0,0,0,0,0,0,0,0,0,0,0,0,0,0,0,0,0,0,0,0,0,0,0,0],"sum_hessian":[5.5092544E3,5.4444253E3,6.482902E1,1.6923174E3,3.7521082E3,4.0671192E1,2.415783E1,1.552968E3,1.3934927E2,3.4013398E3,3.5076834E2,3.0833317E1,9.837875E0,9.1744175E0,1.4983412E1,1.5395221E3,1.3446024E1,5.1346222E1,8.800305E1,3.312288E3,8.9051636E1,9.342007E1,2.5734827E2,2.2668573E1,8.164742E0,5.2776537E0,9.705758E0,7.749027E2,7.646193E2,7.805579E0,5.6404443E0,7.8766975E0,4.3469524E1,3.1661886E1,5.6341164E1,2.416737E3,8.95551E2,4.64379E1,4.2613735E1,1.3135989E1,8.028408E1,1.0888011E2,1.4846815E2,1.2030477E1,1.0638097E1],"tree_param":{"num_deleted":"0","num_feature":"11","num_nodes":"45","size_leaf_vector":"1"}},{"base_weights":[-9.696462E-3,-9.419971E-2,1.5656509E-2,-1.0834278E-1,3.7894824E-1,-1.0029353E-3,1.1115855E-1,-5.9804127E-2,-1.6772275E-1,-9.044743E-2,7E-1,-2.3791683E-1,7.2676237E-3,8.364713E-2,7E-1,-7.649389E-2,5.2053237E-1,9.222217E-2,-1.7602274E-1,-2.908761E-1,1.2706742E-2,3.5E-2,-2.4664362E-3,-1.1315596E-1,-3.3070937E-1,1.0241727E-1,-3.3911236E-3,1.4626108E-1,-1.3098335E-1,3.5E-2,-4.2886776E-3,-6.3022674E-4,-9.6310545E-3,3.5E-2,-9.838868E-3,-1.044299E-2,3.13304E-2,-1.3118751E-2,-6.8838596E-3,-2.1134451E-2,-5.374689E-3,-1.8265026E-2,1.2668077E-3,-2.2534845E-2,-1.0906134E-2,1.0366292E-2,-7.1316273E-3,3.1409871E-3,-1.0307905E-3,1.5740713E-2,3.5735604E-3,1.2552614E-2,-9.3433475E-3],"categories":[],"categories_nodes":[],"categories_segments":[],"categories_sizes":[],"default_left":[0,0,0,0,0,0,0,0,0,0,0,0,0,0,0,0,0,0,0,0,0,0,0,0,0,0,0,0,0,0,0,0,0,0,0,0,0,0,0,0,0,0,0,0,0,0,0,0,0,0,0,0,0],"id":23,"left_children":[1,3,5,7,9,11,13,15,17,19,21,23,25,27,29,31,33,35,37,39,-1,-1,-1,41,43,45,47,49,51,-1,-1,-1,-1,-1,-1,-1,-1,-1,-1,-1,-1,-1,-1,-1,-1,-1,-1,-1,-1,-1,-1,-1,-1],"loss_changes":[1.1800594E1,8.54736E0,6.741622E0,3.5496435E0,7.217097E0,7.073004E0,1.2727327E1,6.636841E0,1.2135258E0,1.3487235E0,5.1550875E0,1.3722291E0,3.537909E0,8.206551E0,3.2623081E0,4.9161386E0,5.589491E0,2.9991064E0,1.7456684E0,2.4792862E-1,0E0,0E0,0E0,1.875939E0,8.379779E-1,9.063603E0,3.579723E0,5.929003E0,2.9956884E0,0E0,0E0,0E0,0E0,0E0,0E0,0E0,0E0,0E0,0E0,0E0,0E0,0E0,0E0,0E0,0E0,0E0,0E0,0E0,0E0,0E0,0E0,0E0,0E0],"parents":[2147483647,0,0,1,1,2,2,3,3,4,4,5,5,6,6,7,7,8,8,9,9,10,10,11,11,12,12,13,13,14,14,15,15,16,16,17,17,18,18,19,19,23,23,24,24,25,25,26,26,27,27,28,28],"right_children":[2,4,6,8,10,12,14,16,18,20,22,24,26,28,30,32,34,36,38,40,-1,-1,-1,42,44,46,48,50,52,-1,-1,-1,-1,-1,-1,-1,-1,-1,-1,-1,-1,-1,-1,-1,-1,-1,-1,-1,-1,-1,-1,-1,-1],"split_conditions":[1.5873017E-2,3.939394E-1,5.6E1,2.3214285E-1,1.0344828E-1,8.3333336E-2,3.2352942E-1,2.2988506E-1,6.666667E-2,3.6363637E-1,4.351852E-1,2.6744187E-1,2.116402E-2,6E0,1.2E0,2.9E1,2.7118644E-1,1.4E1,2.881356E-1,5E0,1.2706742E-2,3.5E-2,-2.4664362E-3,1.884058E-1,3.4E1,7E0,1.5686275E-1,6E1,2.173913E-2,3.5E-2,-4.2886776E-3,-6.3022674E-4,-9.6310545E-3,3.5E-2,-9.838868E-3,-1.044299E-2,3.13304E-2,-1.3118751E-2,-6.8838596E-3,-2.1134451E-2,-5.374689E-3,-1.8265026E-2,1.2668077E-3,-2.2534845E-2,-1.0906134E-2,1.0366292E-2,-7.1316273E-3,3.1409871E-3,-1.0307905E-3,1.5740713E-2,3.5735604E-3,1.2552614E-2,-9.3433475E-3],"split_indices":[4,1,10,0,6,8,6,0,8,0,1,6,4,9,7,10,1,10,1,9,0,0,0,6,10,9,6,10,4,0,0,0,0,0,0,0,0,0,0,0,0,0,0,0,0,0,0,0,0,0,0,0,0],"split_type":[0,0,0,0,0,0,0,0,0,0,0,0,0,0,0,0,0,0,0,0,0,0,0,0,0,0,0,0,0,0,0,0,0,0,0,0,0,0,0,0,0,0,0,0,0,0,0,0,0,0,0,0,0],"sum_hessian":[5.50641E3,1.2701603E3,4.23625E3,1.234044E3,3.611632E1,3.6078784E3,6.2837134E2,6.8011127E2,5.539327E2,1.7458227E1,1.8658094E1,1.2076429E2,3.4871143E3,6.082327E2,2.0138653E1,6.619428E2,1.8168465E1,1.6826855E1,5.3710583E2,1.1136477E1,6.32175E0,9.60439E0,9.053704E0,5.2455963E1,6.830833E1,3.504118E2,3.1367024E3,4.7111368E2,1.3711902E2,1.5061452E1,5.0772004E0,4.2772897E2,2.3421382E2,1.0841184E1,7.327282E0,1.1152504E1,5.6743503E0,1.6336761E2,3.7373822E2,5.72003E0,5.4164476E0,1.801656E1,3.4439404E1,3.1613558E1,3.669477E1,2.4547513E2,1.0493669E2,6.470038E2,2.4896987E3,1.438073E2,3.273064E2,1.7052309E1,1.2006671E2],"tree_param":{"num_deleted":"0","num_feature":"11","num_nodes":"53","size_leaf_vector":"1"}},{"base_weights":[-1.00968825E-2,1.3251676E-2,-1.02618985E-1,8.9620275E-4,1.6571598E-1,-5.71738E-2,-1.8268424E-1,-3.1379387E-2,5.1148407E-2,-1.3909946E-1,2.7633128E-1,-1.9097592E-1,-7.4494323E-3,-2.6862657E-1,-1.3677473E-1,-3.7934445E-2,3.4803507E-1,1.3467222E-1,-3.4092756E-3,7.125354E-2,-2.4790147E-1,7E-1,2.1090388E-1,-4.042032E-1,-9.408683E-2,4.7191018E-1,-3.742759E-2,-4.3022725E-1,-2.3506962E-1,-7.642178E-2,-2.8836724E-1,1.5968286E-2,-2.1472927E-3,4.2912452E-3,3.5E-2,-2.448741E-3,8.831036E-3,-4.2586937E-3,3.7477703E-3,-5.57987E-3,3.4626007E-2,3.408619E-3,-1.6684212E-2,5.4050316E-3,3.5E-2,2.3989717E-2,6.000182E-3,-2.160784E-2,-4.7847703E-3,-7.1395994E-3,2.3022635E-2,-1.1006897E-2,3.5E-2,3.4400665E-3,-6.4314455E-3,-1.2367588E-2,-2.3414366E-2,-5.950822E-3,-1.6541928E-2,-5.9598945E-3,1.8700695E-2,-1.5787426E-2,2.831105E-3],"categories":[],"categories_nodes":[],"categories_segments":[],"categories_sizes":[],"default_left":[0,0,0,0,0,0,0,0,0,0,0,0,0,0,0,0,0,0,0,0,0,0,0,0,0,0,0,0,0,0,0,0,0,0,0,0,0,0,0,0,0,0,0,0,0,0,0,0,0,0,0,0,0,0,0,0,0,0,0,0,0,0,0],"id":24,"left_children":[1,3,5,7,9,11,13,15,17,19,21,23,25,27,29,31,33,35,37,39,41,43,45,47,49,51,53,55,57,59,61,-1,-1,-1,-1,-1,-1,-1,-1,-1,-1,-1,-1,-1,-1,-1,-1,-1,-1,-1,-1,-1,-1,-1,-1,-1,-1,-1,-1,-1,-1,-1,-1],"loss_changes":[1.1850851E1,8.252275E0,4.0116987E0,6.5759087E0,1.1111018E1,4.6998734E0,1.5406837E0,6.1532965E0,7.225909E0,2.0341268E0,7.4234753E0,3.916377E0,7.4357576E0,6.481285E-1,2.3807669E0,4.360818E0,4.988149E0,4.8351994E0,6.15816E0,3.5775685E0,1.603293E0,4.4327774E0,5.176298E0,4.7175407E-1,3.6555414E0,5.571619E0,4.724622E0,4.1143894E-2,1.2567139E0,3.6901405E0,7.2091293E-1,0E0,0E0,0E0,0E0,0E0,0E0,0E0,0E0,0E0,0E0,0E0,0E0,0E0,0E0,0E0,0E0,0E0,0E0,0E0,0E0,0E0,0E0,0E0,0E0,0E0,0E0,0E0,0E0,0E0,0E0,0E0,0E0],"parents":[2147483647,0,0,1,1,2,2,3,3,4,4,5,5,6,6,7,7,8,8,9,9,10,10,11,11,12,12,13,13,14,14,15,15,16,16,17,17,18,18,19,19,20,20,21,21,22,22,23,23,24,24,25,25,26,26,27,27,28,28,29,29,30,30],"right_children":[2,4,6,8,10,12,14,16,18,20,22,24,26,28,30,32,34,36,38,40,42,44,46,48,50,52,54,56,58,60,62,-1,-1,-1,-1,-1,-1,-1,-1,-1,-1,-1,-1,-1,-1,-1,-1,-1,-1,-1,-1,-1,-1,-1,-1,-1,-1,-1,-1,-1,-1,-1,-1],"split_conditions":[8E0,1.6E-1,9.774436E-2,6E-1,1.4E1,1.6E1,2E-1,3.5384616E-1,1.1811024E-1,1.16504855E-1,1.8E1,7.5E-2,1.7021276E-1,1.7021276E-1,3.4146342E-1,8E0,6E0,3E0,3.1E1,2.0481928E-1,1.75E-1,1.2560387E-1,1.6666667E-1,8.8785045E-2,3.6363637E-1,1.0344828E-1,9.7402595E-2,1.2E-1,2.7272728E-1,3.277311E-1,5.0898206E-1,1.5968286E-2,-2.1472927E-3,4.2912452E-3,3.5E-2,-2.448741E-3,8.831036E-3,-4.2586937E-3,3.7477703E-3,-5.57987E-3,3.4626007E-2,3.408619E-3,-1.6684212E-2,5.4050316E-3,3.5E-2,2.3989717E-2,6.000182E-3,-2.160784E-2,-4.7847703E-3,-7.1395994E-3,2.3022635E-2,-1.1006897E-2,3.5E-2,3.4400665E-3,-6.4314455E-3,-1.2367588E-2,-2.3414366E-2,-5.950822E-3,-1.6541928E-2,-5.9598945E-3,1.8700695E-2,-1.5787426E-2,2.831105E-3],"split_indices":[9,5,5,7,10,10,7,0,3,3,10,3,0,1,1,10,9,9,10,5,0,3,5,5,0,0,3,1,1,1,1,0,0,0,0,0,0,0,0,0,0,0,0,0,0,0,0,0,0,0,0,0,0,0,0,0,0,0,0,0,0,0,0],"split_type":[0,0,0,0,0,0,0,0,0,0,0,0,0,0,0,0,0,0,0,0,0,0,0,0,0,0,0,0,0,0,0,0,0,0,0,0,0,0,0,0,0,0,0,0,0,0,0,0,0,0,0,0,0,0,0,0,0,0,0,0,0,0,0],"sum_hessian":[5.484221E3,4.379805E3,1.1044158E3,4.0524102E3,3.2739523E2,7.0561914E2,3.9879663E2,2.4677917E3,1.5846183E3,8.710583E1,2.4028941E2,1.9040965E2,5.152095E2,1.3716792E2,2.616287E2,2.4267651E3,4.1026676E1,6.255218E2,9.590965E2,2.981259E1,5.7293236E1,2.715669E1,2.1313272E2,5.8498375E1,1.3191127E2,2.9456089E1,4.8575342E2,2.1553179E1,1.1561474E2,1.8820392E2,7.342478E1,3.269882E1,2.3940664E3,2.7324684E1,1.370199E1,1.16281845E2,5.092399E2,4.693238E2,4.897727E2,2.366723E1,6.145359E0,1.2273986E1,4.501925E1,1.3051237E1,1.41054535E1,5.276657E1,1.6036615E2,5.3270767E1,5.227608E0,1.2194349E2,9.967783E0,8.03096E0,2.1425129E1,2.2450336E2,2.6125006E2,5.0047503E0,1.6548428E1,5.3285686E1,6.2329056E1,1.7255264E2,1.5651274E1,6.810422E1,5.3205686E0],"tree_param":{"num_deleted":"0","num_feature":"11","num_nodes":"63","size_leaf_vector":"1"}},{"base_weights":[1.0830864E-3,2.6628744E-2,-1.0196701E-1,-1.4230263E-2,6.9926076E-2,-2.1006034E-1,-6.2490083E-2,-3.7124228E-2,8.23184E-2,3.5E-2,6.613246E-2,-7.922674E-2,-3.108935E-1,-1.5700199E-2,-1.542626E-1,-6.293063E-2,1.03697956E-1,-2.5617044E-2,1.797768E-1,8.798488E-2,-8.341687E-2,5.5854845E-1,-1.4292732E-1,-4.3949705E-1,-2.6204595E-1,1.5973303E-1,-6.1599873E-2,1.2059608E-1,-1.9196874E-1,-2.0209272E-6,-5.4002344E-3,-2.6340995E-3,1.0520921E-2,2.8052757E-2,-2.3092786E-3,1.3250942E-2,-1.1421243E-4,3.931761E-3,2.744233E-2,-1.3566476E-2,-9.894039E-4,1.4871404E-3,3.5E-2,-9.965089E-3,2.7791604E-2,-2.4014749E-2,-1.6068459E-2,-6.8869377E-3,-1.7034166E-2,3.5E-2,2.3897942E-3,-5.3378744E-3,5.861265E-3,-1.2726723E-2,2.7932936E-2,7.0459456E-3,-1.171245E-2],"categories":[],"categories_nodes":[],"categories_segments":[],"categories_sizes":[],"default_left":[0,0,0,0,0,0,0,0,0,0,0,0,0,0,0,0,0,0,0,0,0,0,0,0,0,0,0,0,0,0,0,0,0,0,0,0,0,0,0,0,0,0,0,0,0,0,0,0,0,0,0,0,0,0,0,0,0],"id":25,"left_children":[1,3,5,7,9,11,13,15,17,-1,19,21,23,25,27,29,31,33,35,37,39,41,43,45,47,49,51,53,55,-1,-1,-1,-1,-1,-1,-1,-1,-1,-1,-1,-1,-1,-1,-1,-1,-1,-1,-1,-1,-1,-1,-1,-1,-1,-1,-1,-1],"loss_changes":[1.44566145E1,7.786174E0,4.6420345E0,5.0093985E0,7.6892023E0,3.8197699E0,3.4349792E0,6.6623545E0,4.574531E0,0E0,6.973485E0,5.287313E0,9.165344E-1,4.2880797E0,2.8234935E0,4.3894386E0,4.751192E0,2.5239356E0,3.5455608E0,7.972847E0,3.2501626E0,2.2575197E0,4.7328744E0,5.6408882E-2,1.1407614E0,1.0632248E1,3.4190502E0,5.599617E0,3.382659E0,0E0,0E0,0E0,0E0,0E0,0E0,0E0,0E0,0E0,0E0,0E0,0E0,0E0,0E0,0E0,0E0,0E0,0E0,0E0,0E0,0E0,0E0,0E0,0E0,0E0,0E0,0E0,0E0],"parents":[2147483647,0,0,1,1,2,2,3,3,4,4,5,5,6,6,7,7,8,8,10,10,11,11,12,12,13,13,14,14,15,15,16,16,17,17,18,18,19,19,20,20,21,21,22,22,23,23,24,24,25,25,26,26,27,27,28,28],"right_children":[2,4,6,8,10,12,14,16,18,-1,20,22,24,26,28,30,32,34,36,38,40,42,44,46,48,50,52,54,56,-1,-1,-1,-1,-1,-1,-1,-1,-1,-1,-1,-1,-1,-1,-1,-1,-1,-1,-1,-1,-1,-1,-1,-1,-1,-1,-1,-1],"split_conditions":[8E0,3.783784E-1,6.930693E-2,1.4385965E-1,5.4054055E-2,2.2222222E-1,9.774436E-2,8E-1,2.1238938E-1,3.5E-2,1.9607843E-1,1.9254659E-1,2.4418604E-1,2.8985506E-1,7.8125E-2,2.9E1,2.1212122E-1,1.6216215E-1,6E-1,1.9251336E-1,7.1428573E-1,1.8181819E-1,4.3E1,4E1,6E-2,2.1428572E-1,4.4117647E-1,3.2E1,1.2295082E-1,-2.0209272E-6,-5.4002344E-3,-2.6340995E-3,1.0520921E-2,2.8052757E-2,-2.3092786E-3,1.3250942E-2,-1.1421243E-4,3.931761E-3,2.744233E-2,-1.3566476E-2,-9.894039E-4,1.4871404E-3,3.5E-2,-9.965089E-3,2.7791604E-2,-2.4014749E-2,-1.6068459E-2,-6.8869377E-3,-1.7034166E-2,3.5E-2,2.3897942E-3,-5.3378744E-3,5.861265E-3,-1.2726723E-2,2.7932936E-2,7.0459456E-3,-1.171245E-2],"split_indices":[9,1,2,5,2,1,5,7,6,0,2,6,1,1,2,10,6,1,8,2,8,1,10,10,5,8,1,10,6,0,0,0,0,0,0,0,0,0,0,0,0,0,0,0,0,0,0,0,0,0,0,0,0,0,0,0,0],"split_type":[0,0,0,0,0,0,0,0,0,0,0,0,0,0,0,0,0,0,0,0,0,0,0,0,0,0,0,0,0,0,0,0,0,0,0,0,0,0,0,0,0,0,0,0,0,0,0,0,0,0,0,0,0,0,0,0,0],"sum_hessian":[5.489597E3,4.399678E3,1.089919E3,2.263922E3,2.1357559E3,2.904112E2,7.9950775E2,1.8304861E3,4.3343594E2,5.142854E0,2.130613E3,1.27178955E2,1.6323225E2,5.303048E2,2.692029E2,1.5474592E3,2.830269E2,2.0601306E2,2.2742288E2,1.8593353E3,2.7127777E2,1.0843603E1,1.1633535E2,4.2732025E1,1.2050023E2,1.0945948E2,4.2084537E2,3.2209984E1,2.369929E2,6.464673E2,9.0099194E2,1.1500856E2,1.6801833E2,6.088028E0,1.9992503E2,1.5458815E2,7.283473E1,1.8235117E3,3.5823616E1,6.77955E1,2.0348228E2,5.6433563E0,5.200247E0,1.0831176E2,8.023592E0,2.9483421E1,1.3248604E1,4.7757843E1,7.2742386E1,8.515137E0,1.0094435E2,3.3631964E2,8.45257E1,1.7577028E1,1.4632958E1,2.6445442E1,2.1054747E2],"tree_param":{"num_deleted":"0","num_feature":"11","num_nodes":"57","size_leaf_vector":"1"}},{"base_weights":[-7.827585E-3,1.5474597E-2,-9.9786825E-2,-6.858927E-2,3.3649858E-2,-2.6061133E-1,-5.941359E-2,-7.9988286E-2,5.9462714E-1,1.8021959E-1,1.8417588E-2,-1.9213922E-1,-3.584258E-1,-5.0746896E-3,-1.5453874E-1,-2.4801627E-2,-1.5802293E-1,3.5E-2,3.1730582E-3,2.3957738E-1,-1.5640894E-1,-8.6639464E-2,3.5837933E-2,-2.8883025E-1,3.4885267E-3,-4.336684E-1,-2.318777E-1,-1.2854898E-1,3.6380585E-2,3.0160949E-2,-1.7930508E-1,-7.296178E-3,2.3141268E-3,-1.0083245E-4,-9.976293E-3,1.0259025E-2,3.5E-2,2.894693E-2,-1.7047914E-2,1.57909E-2,-7.1410253E-3,1.0354748E-3,1.03886565E-2,-8.047502E-3,-1.8676976E-2,2.5160054E-2,-3.941459E-3,-1.5526354E-2,-2.4172088E-2,-1.5508077E-2,5.588425E-3,-8.866949E-3,1.7262043E-2,1.5878676E-2,-2.0207097E-4,-5.6229844E-3,-1.5079433E-2],"categories":[],